{"feature_names": ["npxg_per90", "xa_per90", "saves_per90", "xgc_per90", "def_contrib_per90", "ict_per90", "minutes_per90", "form", "is_penalty_taker", "avg_fixture_difficulty", "games_played", "injury_risk", "is_home_next", "value", "selected_pct", "bps_per90", "goals_per90", "assists_per90", "clean_sheets_per90", "bonus_per90"], "trees": [{"nodeid": 0, "depth": 0, "split": "selected_pct", "split_condition": 1.15462995, "yes": 1, "no": 2, "missing": 2, "children": [{"nodeid": 1, "depth": 1, "split": "value", "split_condition": 4.30000019, "yes": 3, "no": 4, "missing": 4, "children": [{"nodeid": 3, "depth": 2, "split": "selected_pct", "split_condition": 0.132990003, "yes": 7, "no": 8, "missing": 8, "children": [{"nodeid": 7, "depth": 3, "split": "xgc_per90", "split_condition": 3.3900001, "yes": 15, "no": 16, "missing": 16, "children": [{"nodeid": 15, "leaf": -0.357932895}, {"nodeid": 16, "leaf": -0.154738352}]}, {"nodeid": 8, "depth": 3, "split": "bps_per90", "split_condition": 87.4543915, "yes": 17, "no": 18, "missing": 18, "children": [{"nodeid": 17, "depth": 4, "split": "clean_sheets_per90", "split_condition": 0.369014084, "yes": 31, "no": 32, "missing": 32, "children": [{"nodeid": 31, "depth": 5, "split": "clean_sheets_per90", "split_condition": 0.333333343, "yes": 59, "no": 60, "missing": 60, "children": [{"nodeid": 59, "leaf": -0.1351064}, {"nodeid": 60, "leaf": 0.0799076185}]}, {"nodeid": 32, "leaf": -0.321405023}]}, {"nodeid": 18, "depth": 4, "split": "games_played", "split_condition": 5, "yes": 33, "no": 34, "missing": 34, "children": [{"nodeid": 33, "leaf": -0.378257722}, {"nodeid": 34, "leaf": -0.205784112}]}]}]}, {"nodeid": 4, "depth": 2, "split": "selected_pct", "split_condition": 0.120980002, "yes": 9, "no": 10, "missing": 10, "children": [{"nodeid": 9, "depth": 3, "split": "xgc_per90", "split_condition": 0.559565246, "yes": 19, "no": 20, "missing": 20, "children": [{"nodeid": 19, "depth": 4, "split": "form", "split_condition": 1.75, "yes": 35, "no": 36, "missing": 36, "children": [{"nodeid": 35, "depth": 5, "split": "bps_per90", "split_condition": 47.7471695, "yes": 61, "no": 62, "missing": 62, "children": [{"nodeid": 61, "leaf": -0.0875020176}, {"nodeid": 62, "leaf": -0.252618283}]}, {"nodeid": 36, "depth": 5, "split": "ict_per90", "split_condition": 2.37759495, "yes": 63, "no": 64, "missing": 64, "children": [{"nodeid": 63, "leaf": -0.133329362}, {"nodeid": 64, "leaf": 0.255378038}]}]}, {"nodeid": 20, "depth": 4, "split": "bps_per90", "split_condition": 101.848274, "yes": 37, "no": 38, "missing": 38, "children": [{"nodeid": 37, "depth": 5, "split": "form", "split_condition": 0.5, "yes": 65, "no": 66, "missing": 66, "children": [{"nodeid": 65, "leaf": 0.0400403179}, {"nodeid": 66, "leaf": -0.174900591}]}, {"nodeid": 38, "depth": 5, "split": "ict_per90", "split_condition": 6.95348215, "yes": 67, "no": 68, "missing": 68, "children": [{"nodeid": 67, "leaf": 0.262459368}, {"nodeid": 68, "leaf": -0.0842461213}]}]}]}, {"nodeid": 10, "depth": 3, "split": "bps_per90", "split_condition": 24.3624992, "yes": 21, "no": 22, "missing": 22, "children": [{"nodeid": 21, "depth": 4, "split": "form", "split_condition": 1.33333337, "yes": 39, "no": 40, "missing": 40, "children": [{"nodeid": 39, "depth": 5, "split": "xgc_per90", "split_condition": 0.660480022, "yes": 69, "no": 70, "missing": 70, "children": [{"nodeid": 69, "leaf": 0.0106009915}, {"nodeid": 70, "leaf": -0.132295728}]}, {"nodeid": 40, "depth": 5, "split": "goals_per90", "split_condition": 0.13333334, "yes": 71, "no": 72, "missing": 72, "children": [{"nodeid": 71, "leaf": 0.00353378803}, {"nodeid": 72, "leaf": -0.0982677564}]}]}, {"nodeid": 22, "depth": 4, "split": "xgc_per90", "split_condition": 5.09098816, "yes": 41, "no": 42, "missing": 42, "children": [{"nodeid": 41, "depth": 5, "split": "npxg_per90", "split_condition": 0.0336708874, "yes": 73, "no": 74, "missing": 74, "children": [{"nodeid": 73, "leaf": -0.140400901}, {"nodeid": 74, "leaf": 0.0128401387}]}, {"nodeid": 42, "depth": 5, "split": "selected_pct", "split_condition": 0.200169995, "yes": 75, "no": 76, "missing": 76, "children": [{"nodeid": 75, "leaf": -0.159396082}, {"nodeid": 76, "leaf": -0.345868796}]}]}]}]}]}, {"nodeid": 2, "depth": 1, "split": "value", "split_condition": 4.30000019, "yes": 5, "no": 6, "missing": 6, "children": [{"nodeid": 5, "depth": 2, "split": "clean_sheets_per90", "split_condition": 0.281481475, "yes": 11, "no": 12, "missing": 12, "children": [{"nodeid": 11, "depth": 3, "split": "ict_per90", "split_condition": 4.52666664, "yes": 23, "no": 24, "missing": 24, "children": [{"nodeid": 23, "depth": 4, "split": "form", "split_condition": 2.25, "yes": 43, "no": 44, "missing": 44, "children": [{"nodeid": 43, "depth": 5, "split": "xgc_per90", "split_condition": 0.098559998, "yes": 77, "no": 78, "missing": 78, "children": [{"nodeid": 77, "leaf": 0.0112616429}, {"nodeid": 78, "leaf": -0.184741065}]}, {"nodeid": 44, "depth": 5, "split": "npxg_per90", "split_condition": 0.0250000004, "yes": 79, "no": 80, "missing": 80, "children": [{"nodeid": 79, "leaf": -0.326065987}, {"nodeid": 80, "leaf": -0.162873104}]}]}, {"nodeid": 24, "depth": 4, "split": "games_played", "split_condition": 5, "yes": 45, "no": 46, "missing": 46, "children": [{"nodeid": 45, "leaf": -0.146693215}, {"nodeid": 46, "depth": 5, "split": "ict_per90", "split_condition": 5.01833344, "yes": 81, "no": 82, "missing": 82, "children": [{"nodeid": 81, "leaf": 0.143306792}, {"nodeid": 82, "leaf": 0.0110445404}]}]}]}, {"nodeid": 12, "depth": 3, "split": "selected_pct", "split_condition": 3.76283002, "yes": 25, "no": 26, "missing": 26, "children": [{"nodeid": 25, "depth": 4, "split": "selected_pct", "split_condition": 2.88749003, "yes": 47, "no": 48, "missing": 48, "children": [{"nodeid": 47, "leaf": 0.0361882113}, {"nodeid": 48, "leaf": 0.395792693}]}, {"nodeid": 26, "depth": 4, "split": "bps_per90", "split_condition": 16.5473042, "yes": 49, "no": 50, "missing": 50, "children": [{"nodeid": 49, "leaf": -0.332540661}, {"nodeid": 50, "leaf": -0.0103009176}]}]}]}, {"nodeid": 6, "depth": 2, "split": "xgc_per90", "split_condition": 0.943437517, "yes": 13, "no": 14, "missing": 14, "children": [{"nodeid": 13, "depth": 3, "split": "selected_pct", "split_condition": 17.8181591, "yes": 27, "no": 28, "missing": 28, "children": [{"nodeid": 27, "depth": 4, "split": "assists_per90", "split_condition": 0.236842111, "yes": 51, "no": 52, "missing": 52, "children": [{"nodeid": 51, "depth": 5, "split": "bps_per90", "split_condition": 8.97694206, "yes": 83, "no": 84, "missing": 84, "children": [{"nodeid": 83, "leaf": -0.102686957}, {"nodeid": 84, "leaf": 0.163062021}]}, {"nodeid": 52, "depth": 5, "split": "goals_per90", "split_condition": 0.200000003, "yes": 85, "no": 86, "missing": 86, "children": [{"nodeid": 85, "leaf": 0.427745312}, {"nodeid": 86, "leaf": -0.146693215}]}]}, {"nodeid": 28, "depth": 4, "split": "value", "split_condition": 7.30000019, "yes": 53, "no": 54, "missing": 54, "children": [{"nodeid": 53, "depth": 5, "split": "selected_pct", "split_condition": 44.4870682, "yes": 87, "no": 88, "missing": 88, "children": [{"nodeid": 87, "leaf": 0.437345177}, {"nodeid": 88, "leaf": 0.883702397}]}, {"nodeid": 54, "leaf": -0.154738352}]}]}, {"nodeid": 14, "depth": 3, "split": "value", "split_condition": 6, "yes": 29, "no": 30, "missing": 30, "children": [{"nodeid": 29, "depth": 4, "split": "games_played", "split_condition": 5, "yes": 55, "no": 56, "missing": 56, "children": [{"nodeid": 55, "depth": 5, "split": "selected_pct", "split_condition": 16.6563396, "yes": 89, "no": 90, "missing": 90, "children": [{"nodeid": 89, "leaf": 0.291930109}, {"nodeid": 90, "leaf": -0.215873986}]}, {"nodeid": 56, "depth": 5, "split": "xgc_per90", "split_condition": 1.74153483, "yes": 91, "no": 92, "missing": 92, "children": [{"nodeid": 91, "leaf": 0.0648206174}, {"nodeid": 92, "leaf": -0.0307167303}]}]}, {"nodeid": 30, "depth": 4, "split": "goals_per90", "split_condition": 0.13333334, "yes": 57, "no": 58, "missing": 58, "children": [{"nodeid": 57, "depth": 5, "split": "xgc_per90", "split_condition": 1.12870586, "yes": 93, "no": 94, "missing": 94, "children": [{"nodeid": 93, "leaf": 0.0854948685}, {"nodeid": 94, "leaf": 0.525954902}]}, {"nodeid": 58, "depth": 5, "split": "selected_pct", "split_condition": 19.7201004, "yes": 95, "no": 96, "missing": 96, "children": [{"nodeid": 95, "leaf": 0.0611302368}, {"nodeid": 96, "leaf": -0.220040664}]}]}]}]}]}]}, {"nodeid": 0, "depth": 0, "split": "selected_pct", "split_condition": 5.11483002, "yes": 1, "no": 2, "missing": 2, "children": [{"nodeid": 1, "depth": 1, "split": "value", "split_condition": 4.4000001, "yes": 3, "no": 4, "missing": 4, "children": [{"nodeid": 3, "depth": 2, "split": "minutes_per90", "split_condition": 89, "yes": 7, "no": 8, "missing": 8, "children": [{"nodeid": 7, "depth": 3, "split": "bps_per90", "split_condition": 63.8163414, "yes": 15, "no": 16, "missing": 16, "children": [{"nodeid": 15, "depth": 4, "split": "npxg_per90", "split_condition": 0.00800000038, "yes": 29, "no": 30, "missing": 30, "children": [{"nodeid": 29, "depth": 5, "split": "value", "split_condition": 4.19999981, "yes": 53, "no": 54, "missing": 54, "children": [{"nodeid": 53, "leaf": -0.172662243}, {"nodeid": 54, "leaf": -0.0115492223}]}, {"nodeid": 30, "depth": 5, "split": "npxg_per90", "split_condition": 0.0320450887, "yes": 55, "no": 56, "missing": 56, "children": [{"nodeid": 55, "leaf": -0.237823054}, {"nodeid": 56, "leaf": -0.128655761}]}]}, {"nodeid": 16, "depth": 4, "split": "games_played", "split_condition": 5, "yes": 31, "no": 32, "missing": 32, "children": [{"nodeid": 31, "depth": 5, "split": "form", "split_condition": 2.20000005, "yes": 57, "no": 58, "missing": 58, "children": [{"nodeid": 57, "leaf": -0.353458166}, {"nodeid": 58, "leaf": -0.161755532}]}, {"nodeid": 32, "depth": 5, "split": "bps_per90", "split_condition": 93.3921585, "yes": 59, "no": 60, "missing": 60, "children": [{"nodeid": 59, "leaf": -0.263959348}, {"nodeid": 60, "leaf": -0.102640353}]}]}]}, {"nodeid": 8, "depth": 3, "split": "selected_pct", "split_condition": 0.0640899986, "yes": 17, "no": 18, "missing": 18, "children": [{"nodeid": 17, "leaf": -0.261024088}, {"nodeid": 18, "depth": 4, "split": "value", "split_condition": 4.30000019, "yes": 33, "no": 34, "missing": 34, "children": [{"nodeid": 33, "depth": 5, "split": "npxg_per90", "split_condition": 0.0399999991, "yes": 61, "no": 62, "missing": 62, "children": [{"nodeid": 61, "leaf": -0.0860893056}, {"nodeid": 62, "leaf": 0.0846444964}]}, {"nodeid": 34, "depth": 5, "split": "goals_per90", "split_condition": 0.13333334, "yes": 63, "no": 64, "missing": 64, "children": [{"nodeid": 63, "leaf": 0.102479361}, {"nodeid": 64, "leaf": -0.220482469}]}]}]}]}, {"nodeid": 4, "depth": 2, "split": "selected_pct", "split_condition": 0.232460007, "yes": 9, "no": 10, "missing": 10, "children": [{"nodeid": 9, "depth": 3, "split": "selected_pct", "split_condition": 0.0671999976, "yes": 19, "no": 20, "missing": 20, "children": [{"nodeid": 19, "depth": 4, "split": "games_played", "split_condition": 5, "yes": 35, "no": 36, "missing": 36, "children": [{"nodeid": 35, "depth": 5, "split": "minutes_per90", "split_condition": 15, "yes": 65, "no": 66, "missing": 66, "children": [{"nodeid": 65, "leaf": -0.30795604}, {"nodeid": 66, "leaf": -0.0235078726}]}, {"nodeid": 36, "depth": 5, "split": "minutes_per90", "split_condition": 42, "yes": 67, "no": 68, "missing": 68, "children": [{"nodeid": 67, "leaf": 0}, {"nodeid": 68, "leaf": -0.236874253}]}]}, {"nodeid": 20, "depth": 4, "split": "bps_per90", "split_condition": 23.9193802, "yes": 37, "no": 38, "missing": 38, "children": [{"nodeid": 37, "depth": 5, "split": "npxg_per90", "split_condition": 0.125333339, "yes": 69, "no": 70, "missing": 70, "children": [{"nodeid": 69, "leaf": -0.066134654}, {"nodeid": 70, "leaf": 0.178119361}]}, {"nodeid": 38, "depth": 5, "split": "bps_per90", "split_condition": 101.848274, "yes": 71, "no": 72, "missing": 72, "children": [{"nodeid": 71, "leaf": -0.183151349}, {"nodeid": 72, "leaf": 0.0509532094}]}]}]}, {"nodeid": 10, "depth": 3, "split": "minutes_per90", "split_condition": 82.4000015, "yes": 21, "no": 22, "missing": 22, "children": [{"nodeid": 21, "depth": 4, "split": "assists_per90", "split_condition": 0.162162155, "yes": 39, "no": 40, "missing": 40, "children": [{"nodeid": 39, "depth": 5, "split": "npxg_per90", "split_condition": 0.085508883, "yes": 73, "no": 74, "missing": 74, "children": [{"nodeid": 73, "leaf": -0.0675221756}, {"nodeid": 74, "leaf": 0.128233552}]}, {"nodeid": 40, "depth": 5, "split": "minutes_per90", "split_condition": 71, "yes": 75, "no": 76, "missing": 76, "children": [{"nodeid": 75, "leaf": 0.0381450877}, {"nodeid": 76, "leaf": 0.302963048}]}]}, {"nodeid": 22, "depth": 4, "split": "selected_pct", "split_condition": 0.514310002, "yes": 41, "no": 42, "missing": 42, "children": [{"nodeid": 41, "depth": 5, "split": "selected_pct", "split_condition": 0.266970009, "yes": 77, "no": 78, "missing": 78, "children": [{"nodeid": 77, "leaf": 0.127540812}, {"nodeid": 78, "leaf": -0.0547282584}]}, {"nodeid": 42, "depth": 5, "split": "npxg_per90", "split_condition": 0.218166664, "yes": 79, "no": 80, "missing": 80, "children": [{"nodeid": 79, "leaf": 0.085406892}, {"nodeid": 80, "leaf": -0.244599685}]}]}]}]}]}, {"nodeid": 2, "depth": 1, "split": "value", "split_condition": 4.19999981, "yes": 5, "no": 6, "missing": 6, "children": [{"nodeid": 5, "depth": 2, "split": "goals_per90", "split_condition": 0.13333334, "yes": 11, "no": 12, "missing": 12, "children": [{"nodeid": 11, "depth": 3, "split": "value", "split_condition": 4.0999999, "yes": 23, "no": 24, "missing": 24, "children": [{"nodeid": 23, "depth": 4, "split": "assists_per90", "split_condition": 0.144578308, "yes": 43, "no": 44, "missing": 44, "children": [{"nodeid": 43, "depth": 5, "split": "bps_per90", "split_condition": 9.60000038, "yes": 81, "no": 82, "missing": 82, "children": [{"nodeid": 81, "leaf": -0.306117117}, {"nodeid": 82, "leaf": -0.143145427}]}, {"nodeid": 44, "leaf": -0.357341796}]}, {"nodeid": 24, "leaf": -0.0421655029}]}, {"nodeid": 12, "leaf": 0.0477395616}]}, {"nodeid": 6, "depth": 2, "split": "npxg_per90", "split_condition": 0.00543999998, "yes": 13, "no": 14, "missing": 14, "children": [{"nodeid": 13, "depth": 3, "split": "bps_per90", "split_condition": 24.3624992, "yes": 25, "no": 26, "missing": 26, "children": [{"nodeid": 25, "depth": 4, "split": "form", "split_condition": 3.5, "yes": 45, "no": 46, "missing": 46, "children": [{"nodeid": 45, "depth": 5, "split": "minutes_per90", "split_condition": 88.4000015, "yes": 83, "no": 84, "missing": 84, "children": [{"nodeid": 83, "leaf": 0.07190191}, {"nodeid": 84, "leaf": 0.266373008}]}, {"nodeid": 46, "depth": 5, "split": "bps_per90", "split_condition": 22.6833324, "yes": 85, "no": 86, "missing": 86, "children": [{"nodeid": 85, "leaf": 0.342437714}, {"nodeid": 86, "leaf": 0.00577483}]}]}, {"nodeid": 26, "depth": 4, "split": "minutes_per90", "split_condition": 76.5999985, "yes": 47, "no": 48, "missing": 48, "children": [{"nodeid": 47, "depth": 5, "split": "selected_pct", "split_condition": 11.2954102, "yes": 87, "no": 88, "missing": 88, "children": [{"nodeid": 87, "leaf": 0.249460936}, {"nodeid": 88, "leaf": 0.0567577668}]}, {"nodeid": 48, "depth": 5, "split": "bonus_per90", "split_condition": 1, "yes": 89, "no": 90, "missing": 90, "children": [{"nodeid": 89, "leaf": 1.25046909}, {"nodeid": 90, "leaf": 0.556366742}]}]}]}, {"nodeid": 14, "depth": 3, "split": "value", "split_condition": 7.0999999, "yes": 27, "no": 28, "missing": 28, "children": [{"nodeid": 27, "depth": 4, "split": "value", "split_condition": 4.4000001, "yes": 49, "no": 50, "missing": 50, "children": [{"nodeid": 49, "depth": 5, "split": "selected_pct", "split_condition": 7.9667201, "yes": 91, "no": 92, "missing": 92, "children": [{"nodeid": 91, "leaf": 0.0151109295}, {"nodeid": 92, "leaf": -0.283034056}]}, {"nodeid": 50, "depth": 5, "split": "value", "split_condition": 4.5, "yes": 93, "no": 94, "missing": 94, "children": [{"nodeid": 93, "leaf": 0.374620289}, {"nodeid": 94, "leaf": 0.0959451646}]}]}, {"nodeid": 28, "depth": 4, "split": "value", "split_condition": 8.10000038, "yes": 51, "no": 52, "missing": 52, "children": [{"nodeid": 51, "depth": 5, "split": "selected_pct", "split_condition": 21.9722195, "yes": 95, "no": 96, "missing": 96, "children": [{"nodeid": 95, "leaf": 0.882563055}, {"nodeid": 96, "leaf": 0.30286625}]}, {"nodeid": 52, "leaf": -0.130176008}]}]}]}]}]}, {"nodeid": 0, "depth": 0, "split": "selected_pct", "split_condition": 1.12562001, "yes": 1, "no": 2, "missing": 2, "children": [{"nodeid": 1, "depth": 1, "split": "value", "split_condition": 4.4000001, "yes": 3, "no": 4, "missing": 4, "children": [{"nodeid": 3, "depth": 2, "split": "minutes_per90", "split_condition": 46.7999992, "yes": 7, "no": 8, "missing": 8, "children": [{"nodeid": 7, "depth": 3, "split": "bps_per90", "split_condition": 10.8324194, "yes": 15, "no": 16, "missing": 16, "children": [{"nodeid": 15, "leaf": 0.0241128337}, {"nodeid": 16, "depth": 4, "split": "bonus_per90", "split_condition": 0.270270258, "yes": 31, "no": 32, "missing": 32, "children": [{"nodeid": 31, "depth": 5, "split": "games_played", "split_condition": 5, "yes": 57, "no": 58, "missing": 58, "children": [{"nodeid": 57, "leaf": -0.32283628}, {"nodeid": 58, "leaf": -0.212098956}]}, {"nodeid": 32, "leaf": 0.017178379}]}]}, {"nodeid": 8, "depth": 3, "split": "xgc_per90", "split_condition": 1.03400004, "yes": 17, "no": 18, "missing": 18, "children": [{"nodeid": 17, "depth": 4, "split": "minutes_per90", "split_condition": 88.8000031, "yes": 33, "no": 34, "missing": 34, "children": [{"nodeid": 33, "depth": 5, "split": "selected_pct", "split_condition": 0.440200001, "yes": 59, "no": 60, "missing": 60, "children": [{"nodeid": 59, "leaf": 0.0832767487}, {"nodeid": 60, "leaf": -0.15636161}]}, {"nodeid": 34, "leaf": 0.417056948}]}, {"nodeid": 18, "depth": 4, "split": "xa_per90", "split_condition": 0.0335235149, "yes": 35, "no": 36, "missing": 36, "children": [{"nodeid": 35, "depth": 5, "split": "npxg_per90", "split_condition": 0.0579999983, "yes": 61, "no": 62, "missing": 62, "children": [{"nodeid": 61, "leaf": -0.0969981775}, {"nodeid": 62, "leaf": -0.224466667}]}, {"nodeid": 36, "depth": 5, "split": "npxg_per90", "split_condition": 0.0460000001, "yes": 63, "no": 64, "missing": 64, "children": [{"nodeid": 63, "leaf": -0.275615782}, {"nodeid": 64, "leaf": -0.0878493264}]}]}]}]}, {"nodeid": 4, "depth": 2, "split": "selected_pct", "split_condition": 0.132990003, "yes": 9, "no": 10, "missing": 10, "children": [{"nodeid": 9, "depth": 3, "split": "clean_sheets_per90", "split_condition": 0.482352942, "yes": 19, "no": 20, "missing": 20, "children": [{"nodeid": 19, "depth": 4, "split": "minutes_per90", "split_condition": 89.4000015, "yes": 37, "no": 38, "missing": 38, "children": [{"nodeid": 37, "depth": 5, "split": "npxg_per90", "split_condition": 0.0726666674, "yes": 65, "no": 66, "missing": 66, "children": [{"nodeid": 65, "leaf": -0.164121464}, {"nodeid": 66, "leaf": -0.0244668555}]}, {"nodeid": 38, "depth": 5, "split": "clean_sheets_per90", "split_condition": 0.134831458, "yes": 67, "no": 68, "missing": 68, "children": [{"nodeid": 67, "leaf": -0.110763006}, {"nodeid": 68, "leaf": 0.0714037865}]}]}, {"nodeid": 20, "leaf": 0.180700988}]}, {"nodeid": 10, "depth": 3, "split": "xgc_per90", "split_condition": 2.17571425, "yes": 21, "no": 22, "missing": 22, "children": [{"nodeid": 21, "depth": 4, "split": "assists_per90", "split_condition": 0.200000003, "yes": 39, "no": 40, "missing": 40, "children": [{"nodeid": 39, "depth": 5, "split": "minutes_per90", "split_condition": 87.5999985, "yes": 69, "no": 70, "missing": 70, "children": [{"nodeid": 69, "leaf": -0.0515788458}, {"nodeid": 70, "leaf": 0.0262665451}]}, {"nodeid": 40, "depth": 5, "split": "xa_per90", "split_condition": 0.116010569, "yes": 71, "no": 72, "missing": 72, "children": [{"nodeid": 71, "leaf": 0.0427480564}, {"nodeid": 72, "leaf": 0.356785834}]}]}, {"nodeid": 22, "depth": 4, "split": "xa_per90", "split_condition": 0.004586, "yes": 41, "no": 42, "missing": 42, "children": [{"nodeid": 41, "depth": 5, "split": "minutes_per90", "split_condition": 56.5, "yes": 73, "no": 74, "missing": 74, "children": [{"nodeid": 73, "leaf": -0.17806375}, {"nodeid": 74, "leaf": -0.394691855}]}, {"nodeid": 42, "depth": 5, "split": "goals_per90", "split_condition": 0.144578308, "yes": 75, "no": 76, "missing": 76, "children": [{"nodeid": 75, "leaf": -0.0688989237}, {"nodeid": 76, "leaf": -0.29808104}]}]}]}]}]}, {"nodeid": 2, "depth": 1, "split": "value", "split_condition": 4.0999999, "yes": 5, "no": 6, "missing": 6, "children": [{"nodeid": 5, "depth": 2, "split": "xa_per90", "split_condition": 0.043333333, "yes": 11, "no": 12, "missing": 12, "children": [{"nodeid": 11, "depth": 3, "split": "xgc_per90", "split_condition": 1.17333066, "yes": 23, "no": 24, "missing": 24, "children": [{"nodeid": 23, "depth": 4, "split": "selected_pct", "split_condition": 2.30805993, "yes": 43, "no": 44, "missing": 44, "children": [{"nodeid": 43, "depth": 5, "split": "is_home_next", "split_condition": 1, "yes": 77, "no": 78, "missing": 78, "children": [{"nodeid": 77, "leaf": -0.00821334589}, {"nodeid": 78, "leaf": 0.208288535}]}, {"nodeid": 44, "depth": 5, "split": "minutes_per90", "split_condition": 73.8000031, "yes": 79, "no": 80, "missing": 80, "children": [{"nodeid": 79, "leaf": -0.265178949}, {"nodeid": 80, "leaf": 0.0142988414}]}]}, {"nodeid": 24, "depth": 4, "split": "minutes_per90", "split_condition": 88, "yes": 45, "no": 46, "missing": 46, "children": [{"nodeid": 45, "depth": 5, "split": "selected_pct", "split_condition": 2.88749003, "yes": 81, "no": 82, "missing": 82, "children": [{"nodeid": 81, "leaf": -0.260246247}, {"nodeid": 82, "leaf": -0.141359806}]}, {"nodeid": 46, "depth": 5, "split": "npxg_per90", "split_condition": 0.00833333377, "yes": 83, "no": 84, "missing": 84, "children": [{"nodeid": 83, "leaf": -0.199802369}, {"nodeid": 84, "leaf": 0.03499927}]}]}]}, {"nodeid": 12, "depth": 3, "split": "bonus_per90", "split_condition": 0.13333334, "yes": 25, "no": 26, "missing": 26, "children": [{"nodeid": 25, "depth": 4, "split": "selected_pct", "split_condition": 4.01375008, "yes": 47, "no": 48, "missing": 48, "children": [{"nodeid": 47, "leaf": -0.290178895}, {"nodeid": 48, "depth": 5, "split": "xa_per90", "split_condition": 0.0946666673, "yes": 85, "no": 86, "missing": 86, "children": [{"nodeid": 85, "leaf": -0.191929832}, {"nodeid": 86, "leaf": -0.0761610791}]}]}, {"nodeid": 26, "leaf": -0.356475323}]}]}, {"nodeid": 6, "depth": 2, "split": "value", "split_condition": 5.5999999, "yes": 13, "no": 14, "missing": 14, "children": [{"nodeid": 13, "depth": 3, "split": "xgc_per90", "split_condition": 1.13499999, "yes": 27, "no": 28, "missing": 28, "children": [{"nodeid": 27, "depth": 4, "split": "bonus_per90", "split_condition": 0.833333313, "yes": 49, "no": 50, "missing": 50, "children": [{"nodeid": 49, "depth": 5, "split": "npxg_per90", "split_condition": 0.0106666666, "yes": 87, "no": 88, "missing": 88, "children": [{"nodeid": 87, "leaf": 0.17736195}, {"nodeid": 88, "leaf": 0.0485292189}]}, {"nodeid": 50, "depth": 5, "split": "npxg_per90", "split_condition": 0.0973333344, "yes": 89, "no": 90, "missing": 90, "children": [{"nodeid": 89, "leaf": 0.240175396}, {"nodeid": 90, "leaf": 1.02990484}]}]}, {"nodeid": 28, "depth": 4, "split": "minutes_per90", "split_condition": 88, "yes": 51, "no": 52, "missing": 52, "children": [{"nodeid": 51, "depth": 5, "split": "xgc_per90", "split_condition": 5.62672186, "yes": 91, "no": 92, "missing": 92, "children": [{"nodeid": 91, "leaf": -0.0522782989}, {"nodeid": 92, "leaf": 0.397852272}]}, {"nodeid": 52, "depth": 5, "split": "selected_pct", "split_condition": 1.43614995, "yes": 93, "no": 94, "missing": 94, "children": [{"nodeid": 93, "leaf": 0.336226106}, {"nodeid": 94, "leaf": 0.0775322393}]}]}]}, {"nodeid": 14, "depth": 3, "split": "npxg_per90", "split_condition": 0.0773333311, "yes": 29, "no": 30, "missing": 30, "children": [{"nodeid": 29, "depth": 4, "split": "assists_per90", "split_condition": 0.222222224, "yes": 53, "no": 54, "missing": 54, "children": [{"nodeid": 53, "depth": 5, "split": "bonus_per90", "split_condition": 0.338028163, "yes": 95, "no": 96, "missing": 96, "children": [{"nodeid": 95, "leaf": 0.310564488}, {"nodeid": 96, "leaf": 0.0980241522}]}, {"nodeid": 54, "depth": 5, "split": "clean_sheets_per90", "split_condition": 0.337931037, "yes": 97, "no": 98, "missing": 98, "children": [{"nodeid": 97, "leaf": 0.320300519}, {"nodeid": 98, "leaf": 0.927276075}]}]}, {"nodeid": 30, "depth": 4, "split": "xa_per90", "split_condition": 0.210083336, "yes": 55, "no": 56, "missing": 56, "children": [{"nodeid": 55, "depth": 5, "split": "clean_sheets_per90", "split_condition": 0.134831458, "yes": 99, "no": 100, "missing": 100, "children": [{"nodeid": 99, "leaf": 0.28805691}, {"nodeid": 100, "leaf": -0.0384705849}]}, {"nodeid": 56, "leaf": -0.251951337}]}]}]}]}]}, {"nodeid": 0, "depth": 0, "split": "selected_pct", "split_condition": 1.15462995, "yes": 1, "no": 2, "missing": 2, "children": [{"nodeid": 1, "depth": 1, "split": "minutes_per90", "split_condition": 87, "yes": 3, "no": 4, "missing": 4, "children": [{"nodeid": 3, "depth": 2, "split": "selected_pct", "split_condition": 0.124070004, "yes": 7, "no": 8, "missing": 8, "children": [{"nodeid": 7, "depth": 3, "split": "ict_per90", "split_condition": 2.67620993, "yes": 15, "no": 16, "missing": 16, "children": [{"nodeid": 15, "depth": 4, "split": "selected_pct", "split_condition": 0.0266500004, "yes": 31, "no": 32, "missing": 32, "children": [{"nodeid": 31, "leaf": -0.0332616158}, {"nodeid": 32, "depth": 5, "split": "xa_per90", "split_condition": 0.0712133348, "yes": 63, "no": 64, "missing": 64, "children": [{"nodeid": 63, "leaf": -0.244452149}, {"nodeid": 64, "leaf": -0.0239244681}]}]}, {"nodeid": 16, "depth": 4, "split": "clean_sheets_per90", "split_condition": 0.337931037, "yes": 33, "no": 34, "missing": 34, "children": [{"nodeid": 33, "depth": 5, "split": "npxg_per90", "split_condition": 0.00953846145, "yes": 65, "no": 66, "missing": 66, "children": [{"nodeid": 65, "leaf": -0.0666723102}, {"nodeid": 66, "leaf": -0.171759516}]}, {"nodeid": 34, "leaf": 0.18115218}]}]}, {"nodeid": 8, "depth": 3, "split": "minutes_per90", "split_condition": 41.4000015, "yes": 17, "no": 18, "missing": 18, "children": [{"nodeid": 17, "depth": 4, "split": "bonus_per90", "split_condition": 0.169014081, "yes": 35, "no": 36, "missing": 36, "children": [{"nodeid": 35, "depth": 5, "split": "xa_per90", "split_condition": 0.0295871422, "yes": 67, "no": 68, "missing": 68, "children": [{"nodeid": 67, "leaf": -0.226048455}, {"nodeid": 68, "leaf": -0.117225908}]}, {"nodeid": 36, "depth": 5, "split": "ict_per90", "split_condition": 7.58666658, "yes": 69, "no": 70, "missing": 70, "children": [{"nodeid": 69, "leaf": 0.22209385}, {"nodeid": 70, "leaf": -0.177955672}]}]}, {"nodeid": 18, "depth": 4, "split": "selected_pct", "split_condition": 0.847959995, "yes": 37, "no": 38, "missing": 38, "children": [{"nodeid": 37, "depth": 5, "split": "npxg_per90", "split_condition": 0.00800000038, "yes": 71, "no": 72, "missing": 72, "children": [{"nodeid": 71, "leaf": 0.00351052242}, {"nodeid": 72, "leaf": -0.0758920386}]}, {"nodeid": 38, "depth": 5, "split": "bonus_per90", "split_condition": 0.534831464, "yes": 73, "no": 74, "missing": 74, "children": [{"nodeid": 73, "leaf": -0.188808382}, {"nodeid": 74, "leaf": 0.0822171122}]}]}]}]}, {"nodeid": 4, "depth": 2, "split": "selected_pct", "split_condition": 0.358429998, "yes": 9, "no": 10, "missing": 10, "children": [{"nodeid": 9, "depth": 3, "split": "xgc_per90", "split_condition": 1.23000002, "yes": 19, "no": 20, "missing": 20, "children": [{"nodeid": 19, "depth": 4, "split": "npxg_per90", "split_condition": 0.0374146327, "yes": 39, "no": 40, "missing": 40, "children": [{"nodeid": 39, "depth": 5, "split": "ict_per90", "split_condition": 1.5515151, "yes": 75, "no": 76, "missing": 76, "children": [{"nodeid": 75, "leaf": 0.104952097}, {"nodeid": 76, "leaf": -0.0571294613}]}, {"nodeid": 40, "depth": 5, "split": "xgc_per90", "split_condition": 1.07000005, "yes": 77, "no": 78, "missing": 78, "children": [{"nodeid": 77, "leaf": 0.576458156}, {"nodeid": 78, "leaf": 0.180712089}]}]}, {"nodeid": 20, "depth": 4, "split": "minutes_per90", "split_condition": 88, "yes": 41, "no": 42, "missing": 42, "children": [{"nodeid": 41, "depth": 5, "split": "selected_pct", "split_condition": 0.0942300037, "yes": 79, "no": 80, "missing": 80, "children": [{"nodeid": 79, "leaf": -0.0488908589}, {"nodeid": 80, "leaf": 0.183857247}]}, {"nodeid": 42, "depth": 5, "split": "clean_sheets_per90", "split_condition": 0.146341458, "yes": 81, "no": 82, "missing": 82, "children": [{"nodeid": 81, "leaf": -0.152390495}, {"nodeid": 82, "leaf": -0.0217459407}]}]}]}, {"nodeid": 10, "depth": 3, "split": "xgc_per90", "split_condition": 1.7149421, "yes": 21, "no": 22, "missing": 22, "children": [{"nodeid": 21, "depth": 4, "split": "xa_per90", "split_condition": 0.0920000002, "yes": 43, "no": 44, "missing": 44, "children": [{"nodeid": 43, "depth": 5, "split": "minutes_per90", "split_condition": 88.1999969, "yes": 83, "no": 84, "missing": 84, "children": [{"nodeid": 83, "leaf": -0.118145101}, {"nodeid": 84, "leaf": 0.0846777186}]}, {"nodeid": 44, "leaf": 0.34291932}]}, {"nodeid": 22, "depth": 4, "split": "npxg_per90", "split_condition": 0.022315789, "yes": 45, "no": 46, "missing": 46, "children": [{"nodeid": 45, "depth": 5, "split": "ict_per90", "split_condition": 2.22666669, "yes": 85, "no": 86, "missing": 86, "children": [{"nodeid": 85, "leaf": 0.280803978}, {"nodeid": 86, "leaf": -0.056996949}]}, {"nodeid": 46, "depth": 5, "split": "clean_sheets_per90", "split_condition": 0.209302321, "yes": 87, "no": 88, "missing": 88, "children": [{"nodeid": 87, "leaf": -0.165208295}, {"nodeid": 88, "leaf": 0.172697484}]}]}]}]}]}, {"nodeid": 2, "depth": 1, "split": "xgc_per90", "split_condition": 0.711380005, "yes": 5, "no": 6, "missing": 6, "children": [{"nodeid": 5, "depth": 2, "split": "clean_sheets_per90", "split_condition": 0.509803951, "yes": 11, "no": 12, "missing": 12, "children": [{"nodeid": 11, "depth": 3, "split": "minutes_per90", "split_condition": 80.4000015, "yes": 23, "no": 24, "missing": 24, "children": [{"nodeid": 23, "depth": 4, "split": "xgc_per90", "split_condition": 0.437142849, "yes": 47, "no": 48, "missing": 48, "children": [{"nodeid": 47, "depth": 5, "split": "clean_sheets_per90", "split_condition": 0.444444448, "yes": 89, "no": 90, "missing": 90, "children": [{"nodeid": 89, "leaf": 0.0174091682}, {"nodeid": 90, "leaf": 0.306960136}]}, {"nodeid": 48, "depth": 5, "split": "minutes_per90", "split_condition": 61.2000008, "yes": 91, "no": 92, "missing": 92, "children": [{"nodeid": 91, "leaf": 0.428542823}, {"nodeid": 92, "leaf": 0.0369418263}]}]}, {"nodeid": 24, "depth": 4, "split": "ict_per90", "split_condition": 2.5999999, "yes": 49, "no": 50, "missing": 50, "children": [{"nodeid": 49, "depth": 5, "split": "ict_per90", "split_condition": 1.5515151, "yes": 93, "no": 94, "missing": 94, "children": [{"nodeid": 93, "leaf": 0.311728299}, {"nodeid": 94, "leaf": 0.0840401798}]}, {"nodeid": 50, "depth": 5, "split": "clean_sheets_per90", "split_condition": 0.307692319, "yes": 95, "no": 96, "missing": 96, "children": [{"nodeid": 95, "leaf": 0.166238293}, {"nodeid": 96, "leaf": 0.398849934}]}]}]}, {"nodeid": 12, "depth": 3, "split": "ict_per90", "split_condition": 3.94666672, "yes": 25, "no": 26, "missing": 26, "children": [{"nodeid": 25, "depth": 4, "split": "minutes_per90", "split_condition": 81.1999969, "yes": 51, "no": 52, "missing": 52, "children": [{"nodeid": 51, "leaf": -0.0447216444}, {"nodeid": 52, "depth": 5, "split": "games_played", "split_condition": 5, "yes": 97, "no": 98, "missing": 98, "children": [{"nodeid": 97, "leaf": 0.0106878737}, {"nodeid": 98, "leaf": 0.432397217}]}]}, {"nodeid": 26, "depth": 4, "split": "selected_pct", "split_condition": 17.8181591, "yes": 53, "no": 54, "missing": 54, "children": [{"nodeid": 53, "depth": 5, "split": "bonus_per90", "split_condition": 0.534831464, "yes": 99, "no": 100, "missing": 100, "children": [{"nodeid": 99, "leaf": 0.642290473}, {"nodeid": 100, "leaf": 0.381682843}]}, {"nodeid": 54, "leaf": 1.02762783}]}]}]}, {"nodeid": 6, "depth": 2, "split": "xgc_per90", "split_condition": 1.74153483, "yes": 13, "no": 14, "missing": 14, "children": [{"nodeid": 13, "depth": 3, "split": "minutes_per90", "split_condition": 80.4000015, "yes": 27, "no": 28, "missing": 28, "children": [{"nodeid": 27, "depth": 4, "split": "selected_pct", "split_condition": 20.6885204, "yes": 55, "no": 56, "missing": 56, "children": [{"nodeid": 55, "depth": 5, "split": "selected_pct", "split_condition": 2.78344989, "yes": 101, "no": 102, "missing": 102, "children": [{"nodeid": 101, "leaf": -0.10093613}, {"nodeid": 102, "leaf": 0.051927682}]}, {"nodeid": 56, "leaf": -0.272321433}]}, {"nodeid": 28, "depth": 4, "split": "games_played", "split_condition": 5, "yes": 57, "no": 58, "missing": 58, "children": [{"nodeid": 57, "depth": 5, "split": "ict_per90", "split_condition": 4.69999981, "yes": 103, "no": 104, "missing": 104, "children": [{"nodeid": 103, "leaf": 0.292349577}, {"nodeid": 104, "leaf": 0.712506354}]}, {"nodeid": 58, "depth": 5, "split": "selected_pct", "split_condition": 8.23602962, "yes": 105, "no": 106, "missing": 106, "children": [{"nodeid": 105, "leaf": 0.0476436652}, {"nodeid": 106, "leaf": 0.153200299}]}]}]}, {"nodeid": 14, "depth": 3, "split": "ict_per90", "split_condition": 4.20666647, "yes": 29, "no": 30, "missing": 30, "children": [{"nodeid": 29, "depth": 4, "split": "selected_pct", "split_condition": 4.01375008, "yes": 59, "no": 60, "missing": 60, "children": [{"nodeid": 59, "depth": 5, "split": "selected_pct", "split_condition": 1.57824004, "yes": 107, "no": 108, "missing": 108, "children": [{"nodeid": 107, "leaf": 0.0892364606}, {"nodeid": 108, "leaf": -0.194544658}]}, {"nodeid": 60, "depth": 5, "split": "bonus_per90", "split_condition": 0.534831464, "yes": 109, "no": 110, "missing": 110, "children": [{"nodeid": 109, "leaf": 0.0240865964}, {"nodeid": 110, "leaf": -0.276738405}]}]}, {"nodeid": 30, "depth": 4, "split": "xa_per90", "split_condition": 0.111168832, "yes": 61, "no": 62, "missing": 62, "children": [{"nodeid": 61, "depth": 5, "split": "clean_sheets_per90", "split_condition": 0.193548381, "yes": 111, "no": 112, "missing": 112, "children": [{"nodeid": 111, "leaf": 0.171228781}, {"nodeid": 112, "leaf": -0.0887822211}]}, {"nodeid": 62, "depth": 5, "split": "clean_sheets_per90", "split_condition": 0.13333334, "yes": 113, "no": 114, "missing": 114, "children": [{"nodeid": 113, "leaf": -0.20082812}, {"nodeid": 114, "leaf": 0.113648735}]}]}]}]}]}]}, {"nodeid": 0, "depth": 0, "split": "selected_pct", "split_condition": 4.86089993, "yes": 1, "no": 2, "missing": 2, "children": [{"nodeid": 1, "depth": 1, "split": "xgc_per90", "split_condition": 1.74877203, "yes": 3, "no": 4, "missing": 4, "children": [{"nodeid": 3, "depth": 2, "split": "minutes_per90", "split_condition": 88.5999985, "yes": 7, "no": 8, "missing": 8, "children": [{"nodeid": 7, "depth": 3, "split": "selected_pct", "split_condition": 0.0708800033, "yes": 15, "no": 16, "missing": 16, "children": [{"nodeid": 15, "depth": 4, "split": "form", "split_condition": 1.79999995, "yes": 29, "no": 30, "missing": 30, "children": [{"nodeid": 29, "depth": 5, "split": "value", "split_condition": 4.5, "yes": 55, "no": 56, "missing": 56, "children": [{"nodeid": 55, "leaf": -0.270740688}, {"nodeid": 56, "leaf": -0.172657251}]}, {"nodeid": 30, "depth": 5, "split": "value", "split_condition": 4.4000001, "yes": 57, "no": 58, "missing": 58, "children": [{"nodeid": 57, "leaf": 0.0511889532}, {"nodeid": 58, "leaf": -0.204808384}]}]}, {"nodeid": 16, "depth": 4, "split": "value", "split_condition": 4.4000001, "yes": 31, "no": 32, "missing": 32, "children": [{"nodeid": 31, "depth": 5, "split": "xa_per90", "split_condition": 0.0132289156, "yes": 59, "no": 60, "missing": 60, "children": [{"nodeid": 59, "leaf": -0.0636520162}, {"nodeid": 60, "leaf": -0.166878805}]}, {"nodeid": 32, "depth": 5, "split": "assists_per90", "split_condition": 0.176470593, "yes": 61, "no": 62, "missing": 62, "children": [{"nodeid": 61, "leaf": -0.024989767}, {"nodeid": 62, "leaf": 0.114644244}]}]}]}, {"nodeid": 8, "depth": 3, "split": "selected_pct", "split_condition": 0.514310002, "yes": 17, "no": 18, "missing": 18, "children": [{"nodeid": 17, "depth": 4, "split": "xa_per90", "split_condition": 0.0108253332, "yes": 33, "no": 34, "missing": 34, "children": [{"nodeid": 33, "depth": 5, "split": "selected_pct", "split_condition": 0.113030002, "yes": 63, "no": 64, "missing": 64, "children": [{"nodeid": 63, "leaf": 0.142240509}, {"nodeid": 64, "leaf": -0.106585853}]}, {"nodeid": 34, "depth": 5, "split": "xgc_per90", "split_condition": 1.57799995, "yes": 65, "no": 66, "missing": 66, "children": [{"nodeid": 65, "leaf": 0.141489014}, {"nodeid": 66, "leaf": -0.169540599}]}]}, {"nodeid": 18, "depth": 4, "split": "selected_pct", "split_condition": 3.6066699, "yes": 35, "no": 36, "missing": 36, "children": [{"nodeid": 35, "depth": 5, "split": "xa_per90", "split_condition": 0.111168832, "yes": 67, "no": 68, "missing": 68, "children": [{"nodeid": 67, "leaf": 0.114970915}, {"nodeid": 68, "leaf": 0.433192104}]}, {"nodeid": 36, "depth": 5, "split": "assists_per90", "split_condition": 0.13333334, "yes": 69, "no": 70, "missing": 70, "children": [{"nodeid": 69, "leaf": -0.0453414358}, {"nodeid": 70, "leaf": 0.222274467}]}]}]}]}, {"nodeid": 4, "depth": 2, "split": "value", "split_condition": 4.0999999, "yes": 9, "no": 10, "missing": 10, "children": [{"nodeid": 9, "depth": 3, "split": "clean_sheets_per90", "split_condition": 0.222222224, "yes": 19, "no": 20, "missing": 20, "children": [{"nodeid": 19, "depth": 4, "split": "minutes_per90", "split_condition": 87.1999969, "yes": 37, "no": 38, "missing": 38, "children": [{"nodeid": 37, "depth": 5, "split": "xgc_per90", "split_condition": 3.64400005, "yes": 71, "no": 72, "missing": 72, "children": [{"nodeid": 71, "leaf": -0.279458642}, {"nodeid": 72, "leaf": -0.172611415}]}, {"nodeid": 38, "depth": 5, "split": "selected_pct", "split_condition": 0.636699975, "yes": 73, "no": 74, "missing": 74, "children": [{"nodeid": 73, "leaf": 0.033043053}, {"nodeid": 74, "leaf": -0.223353371}]}]}, {"nodeid": 20, "leaf": -0.0311400574}]}, {"nodeid": 10, "depth": 3, "split": "selected_pct", "split_condition": 0.0333600007, "yes": 21, "no": 22, "missing": 22, "children": [{"nodeid": 21, "depth": 4, "split": "minutes_per90", "split_condition": 79, "yes": 39, "no": 40, "missing": 40, "children": [{"nodeid": 39, "depth": 5, "split": "form", "split_condition": 1.20000005, "yes": 75, "no": 76, "missing": 76, "children": [{"nodeid": 75, "leaf": 0.313668996}, {"nodeid": 76, "leaf": 0.077027671}]}, {"nodeid": 40, "leaf": -0.118222594}]}, {"nodeid": 22, "depth": 4, "split": "selected_pct", "split_condition": 0.0965299979, "yes": 41, "no": 42, "missing": 42, "children": [{"nodeid": 41, "depth": 5, "split": "xa_per90", "split_condition": 0.0199999996, "yes": 77, "no": 78, "missing": 78, "children": [{"nodeid": 77, "leaf": -0.228683993}, {"nodeid": 78, "leaf": -0.130958557}]}, {"nodeid": 42, "depth": 5, "split": "xa_per90", "split_condition": 0.00326666678, "yes": 79, "no": 80, "missing": 80, "children": [{"nodeid": 79, "leaf": -0.183958307}, {"nodeid": 80, "leaf": -0.0628677383}]}]}]}]}]}, {"nodeid": 2, "depth": 1, "split": "value", "split_condition": 4.0999999, "yes": 5, "no": 6, "missing": 6, "children": [{"nodeid": 5, "depth": 2, "split": "minutes_per90", "split_condition": 80.1999969, "yes": 11, "no": 12, "missing": 12, "children": [{"nodeid": 11, "depth": 3, "split": "npxg_per90", "split_condition": 0.0106666666, "yes": 23, "no": 24, "missing": 24, "children": [{"nodeid": 23, "depth": 4, "split": "selected_pct", "split_condition": 11.2954102, "yes": 43, "no": 44, "missing": 44, "children": [{"nodeid": 43, "leaf": -0.362683624}, {"nodeid": 44, "leaf": -0.193565026}]}, {"nodeid": 24, "depth": 4, "split": "xa_per90", "split_condition": 0.0439999998, "yes": 45, "no": 46, "missing": 46, "children": [{"nodeid": 45, "leaf": -0.186263427}, {"nodeid": 46, "leaf": -0.0813764855}]}]}, {"nodeid": 12, "leaf": -0.036868345}]}, {"nodeid": 6, "depth": 2, "split": "npxg_per90", "split_condition": 0.00200000009, "yes": 13, "no": 14, "missing": 14, "children": [{"nodeid": 13, "depth": 3, "split": "clean_sheets_per90", "split_condition": 0.546341479, "yes": 25, "no": 26, "missing": 26, "children": [{"nodeid": 25, "depth": 4, "split": "xgc_per90", "split_condition": 1.93200004, "yes": 47, "no": 48, "missing": 48, "children": [{"nodeid": 47, "depth": 5, "split": "xgc_per90", "split_condition": 1.31222987, "yes": 81, "no": 82, "missing": 82, "children": [{"nodeid": 81, "leaf": 0.196255237}, {"nodeid": 82, "leaf": 0.431302458}]}, {"nodeid": 48, "depth": 5, "split": "minutes_per90", "split_condition": 52.5999985, "yes": 83, "no": 84, "missing": 84, "children": [{"nodeid": 83, "leaf": 0.0159383621}, {"nodeid": 84, "leaf": -0.321786761}]}]}, {"nodeid": 26, "depth": 4, "split": "assists_per90", "split_condition": 0.170454547, "yes": 49, "no": 50, "missing": 50, "children": [{"nodeid": 49, "depth": 5, "split": "selected_pct", "split_condition": 11.7794304, "yes": 85, "no": 86, "missing": 86, "children": [{"nodeid": 85, "leaf": 0.208490968}, {"nodeid": 86, "leaf": 0.470746726}]}, {"nodeid": 50, "leaf": 1.24483633}]}]}, {"nodeid": 14, "depth": 3, "split": "value", "split_condition": 7.30000019, "yes": 27, "no": 28, "missing": 28, "children": [{"nodeid": 27, "depth": 4, "split": "xa_per90", "split_condition": 0.0277093332, "yes": 51, "no": 52, "missing": 52, "children": [{"nodeid": 51, "depth": 5, "split": "selected_pct", "split_condition": 15.3487196, "yes": 87, "no": 88, "missing": 88, "children": [{"nodeid": 87, "leaf": 0.0798269957}, {"nodeid": 88, "leaf": 0.344196588}]}, {"nodeid": 52, "depth": 5, "split": "selected_pct", "split_condition": 5.8607502, "yes": 89, "no": 90, "missing": 90, "children": [{"nodeid": 89, "leaf": 0.189845845}, {"nodeid": 90, "leaf": 0.021531513}]}]}, {"nodeid": 28, "depth": 4, "split": "npxg_per90", "split_condition": 0.0492974371, "yes": 53, "no": 54, "missing": 54, "children": [{"nodeid": 53, "depth": 5, "split": "npxg_per90", "split_condition": 0.0357829444, "yes": 91, "no": 92, "missing": 92, "children": [{"nodeid": 91, "leaf": 0.464406461}, {"nodeid": 92, "leaf": 0.980018139}]}, {"nodeid": 54, "leaf": 0.0159269553}]}]}]}]}]}, {"nodeid": 0, "depth": 0, "split": "value", "split_condition": 4.4000001, "yes": 1, "no": 2, "missing": 2, "children": [{"nodeid": 1, "depth": 1, "split": "minutes_per90", "split_condition": 89, "yes": 3, "no": 4, "missing": 4, "children": [{"nodeid": 3, "depth": 2, "split": "value", "split_condition": 4.0999999, "yes": 7, "no": 8, "missing": 8, "children": [{"nodeid": 7, "depth": 3, "split": "minutes_per90", "split_condition": 47.7999992, "yes": 15, "no": 16, "missing": 16, "children": [{"nodeid": 15, "depth": 4, "split": "bps_per90", "split_condition": 26.7148457, "yes": 31, "no": 32, "missing": 32, "children": [{"nodeid": 31, "depth": 5, "split": "ict_per90", "split_condition": 2.58666658, "yes": 59, "no": 60, "missing": 60, "children": [{"nodeid": 59, "leaf": -0.25551042}, {"nodeid": 60, "leaf": 0.00621830067}]}, {"nodeid": 32, "depth": 5, "split": "ict_per90", "split_condition": 6.67999983, "yes": 61, "no": 62, "missing": 62, "children": [{"nodeid": 61, "leaf": -0.352371603}, {"nodeid": 62, "leaf": -0.2482761}]}]}, {"nodeid": 16, "depth": 4, "split": "xgc_per90", "split_condition": 1.16798139, "yes": 33, "no": 34, "missing": 34, "children": [{"nodeid": 33, "depth": 5, "split": "bps_per90", "split_condition": 12.95541, "yes": 63, "no": 64, "missing": 64, "children": [{"nodeid": 63, "leaf": -0.179069281}, {"nodeid": 64, "leaf": 0.0345986895}]}, {"nodeid": 34, "depth": 5, "split": "value", "split_condition": 3.9000001, "yes": 65, "no": 66, "missing": 66, "children": [{"nodeid": 65, "leaf": -0.0679690838}, {"nodeid": 66, "leaf": -0.217489004}]}]}]}, {"nodeid": 8, "depth": 3, "split": "ict_per90", "split_condition": 6.41240311, "yes": 17, "no": 18, "missing": 18, "children": [{"nodeid": 17, "depth": 4, "split": "assists_per90", "split_condition": 0.46875, "yes": 35, "no": 36, "missing": 36, "children": [{"nodeid": 35, "depth": 5, "split": "minutes_per90", "split_condition": 84.5999985, "yes": 67, "no": 68, "missing": 68, "children": [{"nodeid": 67, "leaf": -0.0854876786}, {"nodeid": 68, "leaf": -0.223280668}]}, {"nodeid": 36, "leaf": 0.264198512}]}, {"nodeid": 18, "depth": 4, "split": "bonus_per90", "split_condition": 0.270270258, "yes": 37, "no": 38, "missing": 38, "children": [{"nodeid": 37, "depth": 5, "split": "xgc_per90", "split_condition": 0.098559998, "yes": 69, "no": 70, "missing": 70, "children": [{"nodeid": 69, "leaf": -0.362285733}, {"nodeid": 70, "leaf": -0.22518003}]}, {"nodeid": 38, "leaf": -0.0864092037}]}]}]}, {"nodeid": 4, "depth": 2, "split": "xgc_per90", "split_condition": 1.9605217, "yes": 9, "no": 10, "missing": 10, "children": [{"nodeid": 9, "depth": 3, "split": "bps_per90", "split_condition": 11.996748, "yes": 19, "no": 20, "missing": 20, "children": [{"nodeid": 19, "depth": 4, "split": "form", "split_condition": 1.20000005, "yes": 39, "no": 40, "missing": 40, "children": [{"nodeid": 39, "depth": 5, "split": "bps_per90", "split_condition": 10.8808022, "yes": 71, "no": 72, "missing": 72, "children": [{"nodeid": 71, "leaf": 0.19096981}, {"nodeid": 72, "leaf": -0.113781787}]}, {"nodeid": 40, "depth": 5, "split": "ict_per90", "split_condition": 2.77999997, "yes": 73, "no": 74, "missing": 74, "children": [{"nodeid": 73, "leaf": -0.21752803}, {"nodeid": 74, "leaf": 0.00739875669}]}]}, {"nodeid": 20, "depth": 4, "split": "clean_sheets_per90", "split_condition": 0.411244988, "yes": 41, "no": 42, "missing": 42, "children": [{"nodeid": 41, "depth": 5, "split": "value", "split_condition": 4.30000019, "yes": 75, "no": 76, "missing": 76, "children": [{"nodeid": 75, "leaf": 0.0551679544}, {"nodeid": 76, "leaf": 0.237633213}]}, {"nodeid": 42, "depth": 5, "split": "value", "split_condition": 4.30000019, "yes": 77, "no": 78, "missing": 78, "children": [{"nodeid": 77, "leaf": 0.0893568844}, {"nodeid": 78, "leaf": -0.291514963}]}]}]}, {"nodeid": 10, "depth": 3, "split": "ict_per90", "split_condition": 2.0999999, "yes": 21, "no": 22, "missing": 22, "children": [{"nodeid": 21, "leaf": -0.0181594472}, {"nodeid": 22, "depth": 4, "split": "form", "split_condition": 2.20000005, "yes": 43, "no": 44, "missing": 44, "children": [{"nodeid": 43, "leaf": -0.274717629}, {"nodeid": 44, "leaf": -0.162877157}]}]}]}]}, {"nodeid": 2, "depth": 1, "split": "value", "split_condition": 5.5999999, "yes": 5, "no": 6, "missing": 6, "children": [{"nodeid": 5, "depth": 2, "split": "xgc_per90", "split_condition": 1.67200005, "yes": 11, "no": 12, "missing": 12, "children": [{"nodeid": 11, "depth": 3, "split": "bonus_per90", "split_condition": 0.13333334, "yes": 23, "no": 24, "missing": 24, "children": [{"nodeid": 23, "depth": 4, "split": "minutes_per90", "split_condition": 22.2000008, "yes": 45, "no": 46, "missing": 46, "children": [{"nodeid": 45, "depth": 5, "split": "ict_per90", "split_condition": 1.60363638, "yes": 79, "no": 80, "missing": 80, "children": [{"nodeid": 79, "leaf": -0.0911413953}, {"nodeid": 80, "leaf": -0.231026173}]}, {"nodeid": 46, "depth": 5, "split": "ict_per90", "split_condition": 2.58666658, "yes": 81, "no": 82, "missing": 82, "children": [{"nodeid": 81, "leaf": -0.0212385915}, {"nodeid": 82, "leaf": 0.0575252362}]}]}, {"nodeid": 24, "depth": 4, "split": "bonus_per90", "split_condition": 0.833333313, "yes": 47, "no": 48, "missing": 48, "children": [{"nodeid": 47, "depth": 5, "split": "xgc_per90", "split_condition": 0.607649982, "yes": 83, "no": 84, "missing": 84, "children": [{"nodeid": 83, "leaf": 0.131253958}, {"nodeid": 84, "leaf": 0.0557335392}]}, {"nodeid": 48, "depth": 5, "split": "avg_fixture_difficulty", "split_condition": 3, "yes": 85, "no": 86, "missing": 86, "children": [{"nodeid": 85, "leaf": 0.108072951}, {"nodeid": 86, "leaf": 0.351619691}]}]}]}, {"nodeid": 12, "depth": 3, "split": "ict_per90", "split_condition": 2.81333327, "yes": 25, "no": 26, "missing": 26, "children": [{"nodeid": 25, "depth": 4, "split": "value", "split_condition": 4.5, "yes": 49, "no": 50, "missing": 50, "children": [{"nodeid": 49, "depth": 5, "split": "minutes_per90", "split_condition": 86, "yes": 87, "no": 88, "missing": 88, "children": [{"nodeid": 87, "leaf": -0.105449498}, {"nodeid": 88, "leaf": -0.316670626}]}, {"nodeid": 50, "depth": 5, "split": "ict_per90", "split_condition": 2.26666665, "yes": 89, "no": 90, "missing": 90, "children": [{"nodeid": 89, "leaf": 0.0064589032}, {"nodeid": 90, "leaf": -0.129658908}]}]}, {"nodeid": 26, "depth": 4, "split": "minutes_per90", "split_condition": 71.75, "yes": 51, "no": 52, "missing": 52, "children": [{"nodeid": 51, "depth": 5, "split": "value", "split_condition": 5, "yes": 91, "no": 92, "missing": 92, "children": [{"nodeid": 91, "leaf": -0.0617949553}, {"nodeid": 92, "leaf": -0.294214427}]}, {"nodeid": 52, "depth": 5, "split": "ict_per90", "split_condition": 4.91333342, "yes": 93, "no": 94, "missing": 94, "children": [{"nodeid": 93, "leaf": -0.0218735542}, {"nodeid": 94, "leaf": 0.114287272}]}]}]}]}, {"nodeid": 6, "depth": 2, "split": "bps_per90", "split_condition": 20.8666668, "yes": 13, "no": 14, "missing": 14, "children": [{"nodeid": 13, "depth": 3, "split": "value", "split_condition": 5.69999981, "yes": 27, "no": 28, "missing": 28, "children": [{"nodeid": 27, "leaf": 0.419742405}, {"nodeid": 28, "depth": 4, "split": "xgc_per90", "split_condition": 1.347, "yes": 53, "no": 54, "missing": 54, "children": [{"nodeid": 53, "depth": 5, "split": "form", "split_condition": 4.66666651, "yes": 95, "no": 96, "missing": 96, "children": [{"nodeid": 95, "leaf": -0.0630667433}, {"nodeid": 96, "leaf": 0.379874676}]}, {"nodeid": 54, "depth": 5, "split": "ict_per90", "split_condition": 5.66769218, "yes": 97, "no": 98, "missing": 98, "children": [{"nodeid": 97, "leaf": 0.438674271}, {"nodeid": 98, "leaf": 0.106977098}]}]}]}, {"nodeid": 14, "depth": 3, "split": "goals_per90", "split_condition": 0.13333334, "yes": 29, "no": 30, "missing": 30, "children": [{"nodeid": 29, "depth": 4, "split": "xgc_per90", "split_condition": 0.312440008, "yes": 55, "no": 56, "missing": 56, "children": [{"nodeid": 55, "depth": 5, "split": "minutes_per90", "split_condition": 76.5999985, "yes": 99, "no": 100, "missing": 100, "children": [{"nodeid": 99, "leaf": 0.298073322}, {"nodeid": 100, "leaf": 1.127635}]}, {"nodeid": 56, "depth": 5, "split": "bonus_per90", "split_condition": 0.966666639, "yes": 101, "no": 102, "missing": 102, "children": [{"nodeid": 101, "leaf": 0.399267584}, {"nodeid": 102, "leaf": 0.0528909564}]}]}, {"nodeid": 30, "depth": 4, "split": "goals_per90", "split_condition": 0.179104477, "yes": 57, "no": 58, "missing": 58, "children": [{"nodeid": 57, "leaf": -0.171355233}, {"nodeid": 58, "depth": 5, "split": "ict_per90", "split_condition": 6.30000019, "yes": 103, "no": 104, "missing": 104, "children": [{"nodeid": 103, "leaf": 0.549578249}, {"nodeid": 104, "leaf": -0.0384492986}]}]}]}]}]}]}, {"nodeid": 0, "depth": 0, "split": "form", "split_condition": 2, "yes": 1, "no": 2, "missing": 2, "children": [{"nodeid": 1, "depth": 1, "split": "value", "split_condition": 4.30000019, "yes": 3, "no": 4, "missing": 4, "children": [{"nodeid": 3, "depth": 2, "split": "minutes_per90", "split_condition": 87.8000031, "yes": 7, "no": 8, "missing": 8, "children": [{"nodeid": 7, "depth": 3, "split": "value", "split_condition": 4.0999999, "yes": 15, "no": 16, "missing": 16, "children": [{"nodeid": 15, "depth": 4, "split": "minutes_per90", "split_condition": 72.1999969, "yes": 31, "no": 32, "missing": 32, "children": [{"nodeid": 31, "depth": 5, "split": "form", "split_condition": 1, "yes": 59, "no": 60, "missing": 60, "children": [{"nodeid": 59, "leaf": -0.282402635}, {"nodeid": 60, "leaf": -0.211542889}]}, {"nodeid": 32, "depth": 5, "split": "minutes_per90", "split_condition": 80, "yes": 61, "no": 62, "missing": 62, "children": [{"nodeid": 61, "leaf": -0.070097439}, {"nodeid": 62, "leaf": -0.234106928}]}]}, {"nodeid": 16, "depth": 4, "split": "value", "split_condition": 4.19999981, "yes": 33, "no": 34, "missing": 34, "children": [{"nodeid": 33, "leaf": 0.0176262017}, {"nodeid": 34, "depth": 5, "split": "ict_per90", "split_condition": 4.11846161, "yes": 63, "no": 64, "missing": 64, "children": [{"nodeid": 63, "leaf": -0.145490393}, {"nodeid": 64, "leaf": -0.321371257}]}]}]}, {"nodeid": 8, "depth": 3, "split": "xgc_per90", "split_condition": 1.44400001, "yes": 17, "no": 18, "missing": 18, "children": [{"nodeid": 17, "leaf": 0.201330692}, {"nodeid": 18, "depth": 4, "split": "xa_per90", "split_condition": 0.0303214286, "yes": 35, "no": 36, "missing": 36, "children": [{"nodeid": 35, "depth": 5, "split": "npxg_per90", "split_condition": 0.00833333377, "yes": 65, "no": 66, "missing": 66, "children": [{"nodeid": 65, "leaf": -0.149768993}, {"nodeid": 66, "leaf": 0.0219156798}]}, {"nodeid": 36, "leaf": -0.256860971}]}]}]}, {"nodeid": 4, "depth": 2, "split": "minutes_per90", "split_condition": 22.2000008, "yes": 9, "no": 10, "missing": 10, "children": [{"nodeid": 9, "depth": 3, "split": "npxg_per90", "split_condition": 0.0300292447, "yes": 19, "no": 20, "missing": 20, "children": [{"nodeid": 19, "depth": 4, "split": "ict_per90", "split_condition": 1.43902445, "yes": 37, "no": 38, "missing": 38, "children": [{"nodeid": 37, "leaf": 0.0273572411}, {"nodeid": 38, "depth": 5, "split": "value", "split_condition": 4.80000019, "yes": 67, "no": 68, "missing": 68, "children": [{"nodeid": 67, "leaf": -0.26314643}, {"nodeid": 68, "leaf": -0.069835268}]}]}, {"nodeid": 20, "leaf": 0.0551833473}]}, {"nodeid": 10, "depth": 3, "split": "xgc_per90", "split_condition": 1.66400003, "yes": 21, "no": 22, "missing": 22, "children": [{"nodeid": 21, "depth": 4, "split": "minutes_per90", "split_condition": 90, "yes": 39, "no": 40, "missing": 40, "children": [{"nodeid": 39, "depth": 5, "split": "minutes_per90", "split_condition": 25.7999992, "yes": 69, "no": 70, "missing": 70, "children": [{"nodeid": 69, "leaf": 0.186249569}, {"nodeid": 70, "leaf": -0.0472309887}]}, {"nodeid": 40, "depth": 5, "split": "ict_per90", "split_condition": 3.52129626, "yes": 71, "no": 72, "missing": 72, "children": [{"nodeid": 71, "leaf": 0.0297988392}, {"nodeid": 72, "leaf": 0.26370427}]}]}, {"nodeid": 22, "depth": 4, "split": "xa_per90", "split_condition": 0.00770175457, "yes": 41, "no": 42, "missing": 42, "children": [{"nodeid": 41, "depth": 5, "split": "minutes_per90", "split_condition": 83.4000015, "yes": 73, "no": 74, "missing": 74, "children": [{"nodeid": 73, "leaf": -0.097236827}, {"nodeid": 74, "leaf": -0.285191864}]}, {"nodeid": 42, "depth": 5, "split": "ict_per90", "split_condition": 4.4048357, "yes": 75, "no": 76, "missing": 76, "children": [{"nodeid": 75, "leaf": -0.030786071}, {"nodeid": 76, "leaf": -0.132617891}]}]}]}]}]}, {"nodeid": 2, "depth": 1, "split": "value", "split_condition": 5.5999999, "yes": 5, "no": 6, "missing": 6, "children": [{"nodeid": 5, "depth": 2, "split": "minutes_per90", "split_condition": 88, "yes": 11, "no": 12, "missing": 12, "children": [{"nodeid": 11, "depth": 3, "split": "value", "split_condition": 4.4000001, "yes": 23, "no": 24, "missing": 24, "children": [{"nodeid": 23, "depth": 4, "split": "minutes_per90", "split_condition": 73.8000031, "yes": 43, "no": 44, "missing": 44, "children": [{"nodeid": 43, "depth": 5, "split": "xa_per90", "split_condition": 0.062242426, "yes": 77, "no": 78, "missing": 78, "children": [{"nodeid": 77, "leaf": -0.0391077027}, {"nodeid": 78, "leaf": -0.160389677}]}, {"nodeid": 44, "depth": 5, "split": "xa_per90", "split_condition": 0.00821647048, "yes": 79, "no": 80, "missing": 80, "children": [{"nodeid": 79, "leaf": -0.0811084434}, {"nodeid": 80, "leaf": -0.206102893}]}]}, {"nodeid": 24, "depth": 4, "split": "xgc_per90", "split_condition": 1.12870586, "yes": 45, "no": 46, "missing": 46, "children": [{"nodeid": 45, "depth": 5, "split": "npxg_per90", "split_condition": 0.128000006, "yes": 81, "no": 82, "missing": 82, "children": [{"nodeid": 81, "leaf": 0.0406247005}, {"nodeid": 82, "leaf": 0.264167875}]}, {"nodeid": 46, "depth": 5, "split": "clean_sheets_per90", "split_condition": 0.193548381, "yes": 83, "no": 84, "missing": 84, "children": [{"nodeid": 83, "leaf": 0.0259224121}, {"nodeid": 84, "leaf": -0.0742404461}]}]}]}, {"nodeid": 12, "depth": 3, "split": "xgc_per90", "split_condition": 1.62800002, "yes": 25, "no": 26, "missing": 26, "children": [{"nodeid": 25, "depth": 4, "split": "bonus_per90", "split_condition": 0.93483144, "yes": 47, "no": 48, "missing": 48, "children": [{"nodeid": 47, "depth": 5, "split": "ict_per90", "split_condition": 2.51333332, "yes": 85, "no": 86, "missing": 86, "children": [{"nodeid": 85, "leaf": 0.0476301722}, {"nodeid": 86, "leaf": 0.121271029}]}, {"nodeid": 48, "depth": 5, "split": "clean_sheets_per90", "split_condition": 0.475968987, "yes": 87, "no": 88, "missing": 88, "children": [{"nodeid": 87, "leaf": 0.493064553}, {"nodeid": 88, "leaf": 0.0476213209}]}]}, {"nodeid": 26, "depth": 4, "split": "value", "split_condition": 5.30000019, "yes": 49, "no": 50, "missing": 50, "children": [{"nodeid": 49, "depth": 5, "split": "ict_per90", "split_condition": 1.75333333, "yes": 89, "no": 90, "missing": 90, "children": [{"nodeid": 89, "leaf": 0.291514158}, {"nodeid": 90, "leaf": -0.0137964729}]}, {"nodeid": 50, "leaf": 0.332357466}]}]}]}, {"nodeid": 6, "depth": 2, "split": "goals_per90", "split_condition": 0.13333334, "yes": 13, "no": 14, "missing": 14, "children": [{"nodeid": 13, "depth": 3, "split": "ict_per90", "split_condition": 5.48833323, "yes": 27, "no": 28, "missing": 28, "children": [{"nodeid": 27, "depth": 4, "split": "value", "split_condition": 5.69999981, "yes": 51, "no": 52, "missing": 52, "children": [{"nodeid": 51, "leaf": 0.588607252}, {"nodeid": 52, "depth": 5, "split": "form", "split_condition": 4.5, "yes": 91, "no": 92, "missing": 92, "children": [{"nodeid": 91, "leaf": 0.0437088571}, {"nodeid": 92, "leaf": 0.370044827}]}]}, {"nodeid": 28, "depth": 4, "split": "minutes_per90", "split_condition": 88, "yes": 53, "no": 54, "missing": 54, "children": [{"nodeid": 53, "depth": 5, "split": "minutes_per90", "split_condition": 85.8000031, "yes": 93, "no": 94, "missing": 94, "children": [{"nodeid": 93, "leaf": 0.477851927}, {"nodeid": 94, "leaf": 0.911169946}]}, {"nodeid": 54, "depth": 5, "split": "npxg_per90", "split_condition": 0.0271705426, "yes": 95, "no": 96, "missing": 96, "children": [{"nodeid": 95, "leaf": 0.466006815}, {"nodeid": 96, "leaf": -0.0142877018}]}]}]}, {"nodeid": 14, "depth": 3, "split": "clean_sheets_per90", "split_condition": 0.209302321, "yes": 29, "no": 30, "missing": 30, "children": [{"nodeid": 29, "depth": 4, "split": "form", "split_condition": 4.19999981, "yes": 55, "no": 56, "missing": 56, "children": [{"nodeid": 55, "depth": 5, "split": "ict_per90", "split_condition": 5.91098022, "yes": 97, "no": 98, "missing": 98, "children": [{"nodeid": 97, "leaf": 0.0233255234}, {"nodeid": 98, "leaf": -0.196314976}]}, {"nodeid": 56, "leaf": -0.276924431}]}, {"nodeid": 30, "depth": 4, "split": "xgc_per90", "split_condition": 0.589999974, "yes": 57, "no": 58, "missing": 58, "children": [{"nodeid": 57, "depth": 5, "split": "value", "split_condition": 6, "yes": 99, "no": 100, "missing": 100, "children": [{"nodeid": 99, "leaf": 0.756589353}, {"nodeid": 100, "leaf": 0.130716026}]}, {"nodeid": 58, "depth": 5, "split": "clean_sheets_per90", "split_condition": 0.337931037, "yes": 101, "no": 102, "missing": 102, "children": [{"nodeid": 101, "leaf": 0.184472024}, {"nodeid": 102, "leaf": -0.220695689}]}]}]}]}]}]}, {"nodeid": 0, "depth": 0, "split": "selected_pct", "split_condition": 5.38594007, "yes": 1, "no": 2, "missing": 2, "children": [{"nodeid": 1, "depth": 1, "split": "minutes_per90", "split_condition": 87, "yes": 3, "no": 4, "missing": 4, "children": [{"nodeid": 3, "depth": 2, "split": "assists_per90", "split_condition": 0.15384616, "yes": 7, "no": 8, "missing": 8, "children": [{"nodeid": 7, "depth": 3, "split": "value", "split_condition": 4.30000019, "yes": 15, "no": 16, "missing": 16, "children": [{"nodeid": 15, "depth": 4, "split": "clean_sheets_per90", "split_condition": 0.333333343, "yes": 31, "no": 32, "missing": 32, "children": [{"nodeid": 31, "depth": 5, "split": "selected_pct", "split_condition": 0.595960021, "yes": 57, "no": 58, "missing": 58, "children": [{"nodeid": 57, "leaf": -0.22605291}, {"nodeid": 58, "leaf": -0.14481695}]}, {"nodeid": 32, "depth": 5, "split": "clean_sheets_per90", "split_condition": 0.411244988, "yes": 59, "no": 60, "missing": 60, "children": [{"nodeid": 59, "leaf": 0.155986652}, {"nodeid": 60, "leaf": -0.249614}]}]}, {"nodeid": 16, "depth": 4, "split": "selected_pct", "split_condition": 0.118950002, "yes": 33, "no": 34, "missing": 34, "children": [{"nodeid": 33, "depth": 5, "split": "bps_per90", "split_condition": 97.3333359, "yes": 61, "no": 62, "missing": 62, "children": [{"nodeid": 61, "leaf": -0.158021227}, {"nodeid": 62, "leaf": 0.0184824709}]}, {"nodeid": 34, "depth": 5, "split": "minutes_per90", "split_condition": 29.3999996, "yes": 63, "no": 64, "missing": 64, "children": [{"nodeid": 63, "leaf": -0.185100794}, {"nodeid": 64, "leaf": -0.036822103}]}]}]}, {"nodeid": 8, "depth": 3, "split": "minutes_per90", "split_condition": 31.2000008, "yes": 17, "no": 18, "missing": 18, "children": [{"nodeid": 17, "depth": 4, "split": "bps_per90", "split_condition": 97.3333359, "yes": 35, "no": 36, "missing": 36, "children": [{"nodeid": 35, "depth": 5, "split": "bps_per90", "split_condition": 47.7471695, "yes": 65, "no": 66, "missing": 66, "children": [{"nodeid": 65, "leaf": -0.18941991}, {"nodeid": 66, "leaf": -0.30102697}]}, {"nodeid": 36, "leaf": 0.0185557511}]}, {"nodeid": 18, "depth": 4, "split": "selected_pct", "split_condition": 0.232460007, "yes": 37, "no": 38, "missing": 38, "children": [{"nodeid": 37, "depth": 5, "split": "ict_per90", "split_condition": 5.3435545, "yes": 67, "no": 68, "missing": 68, "children": [{"nodeid": 67, "leaf": -0.0915522501}, {"nodeid": 68, "leaf": 0.333410025}]}, {"nodeid": 38, "depth": 5, "split": "selected_pct", "split_condition": 1.72686994, "yes": 69, "no": 70, "missing": 70, "children": [{"nodeid": 69, "leaf": 0.216274008}, {"nodeid": 70, "leaf": 0.024263693}]}]}]}]}, {"nodeid": 4, "depth": 2, "split": "selected_pct", "split_condition": 0.358429998, "yes": 9, "no": 10, "missing": 10, "children": [{"nodeid": 9, "depth": 3, "split": "goals_per90", "split_condition": 0.13333334, "yes": 19, "no": 20, "missing": 20, "children": [{"nodeid": 19, "depth": 4, "split": "form", "split_condition": 1.66666663, "yes": 39, "no": 40, "missing": 40, "children": [{"nodeid": 39, "depth": 5, "split": "selected_pct", "split_condition": 0.208240002, "yes": 71, "no": 72, "missing": 72, "children": [{"nodeid": 71, "leaf": -0.0418400429}, {"nodeid": 72, "leaf": -0.202846751}]}, {"nodeid": 40, "depth": 5, "split": "npxg_per90", "split_condition": 0.0386307687, "yes": 73, "no": 74, "missing": 74, "children": [{"nodeid": 73, "leaf": -0.0257837232}, {"nodeid": 74, "leaf": 0.132513747}]}]}, {"nodeid": 20, "depth": 4, "split": "bps_per90", "split_condition": 17.8666668, "yes": 41, "no": 42, "missing": 42, "children": [{"nodeid": 41, "depth": 5, "split": "selected_pct", "split_condition": 0.208240002, "yes": 75, "no": 76, "missing": 76, "children": [{"nodeid": 75, "leaf": -0.337561607}, {"nodeid": 76, "leaf": -0.196015522}]}, {"nodeid": 42, "leaf": -0.00799624529}]}]}, {"nodeid": 10, "depth": 3, "split": "npxg_per90", "split_condition": 0.218166664, "yes": 21, "no": 22, "missing": 22, "children": [{"nodeid": 21, "depth": 4, "split": "npxg_per90", "split_condition": 0.0639641061, "yes": 43, "no": 44, "missing": 44, "children": [{"nodeid": 43, "depth": 5, "split": "bps_per90", "split_condition": 13.1333332, "yes": 77, "no": 78, "missing": 78, "children": [{"nodeid": 77, "leaf": -0.0147259133}, {"nodeid": 78, "leaf": 0.0689805076}]}, {"nodeid": 44, "depth": 5, "split": "selected_pct", "split_condition": 0.681389987, "yes": 79, "no": 80, "missing": 80, "children": [{"nodeid": 79, "leaf": -0.214975476}, {"nodeid": 80, "leaf": 0.225867972}]}]}, {"nodeid": 22, "leaf": -0.351928741}]}]}]}, {"nodeid": 2, "depth": 1, "split": "value", "split_condition": 4.4000001, "yes": 5, "no": 6, "missing": 6, "children": [{"nodeid": 5, "depth": 2, "split": "minutes_per90", "split_condition": 89.1999969, "yes": 11, "no": 12, "missing": 12, "children": [{"nodeid": 11, "depth": 3, "split": "ict_per90", "split_condition": 3.22000003, "yes": 23, "no": 24, "missing": 24, "children": [{"nodeid": 23, "depth": 4, "split": "xa_per90", "split_condition": 0.00737999985, "yes": 45, "no": 46, "missing": 46, "children": [{"nodeid": 45, "leaf": -0.148362666}, {"nodeid": 46, "leaf": -0.297014773}]}, {"nodeid": 24, "depth": 4, "split": "bps_per90", "split_condition": 15.5333338, "yes": 47, "no": 48, "missing": 48, "children": [{"nodeid": 47, "leaf": 0.0532511957}, {"nodeid": 48, "depth": 5, "split": "selected_pct", "split_condition": 7.9667201, "yes": 81, "no": 82, "missing": 82, "children": [{"nodeid": 81, "leaf": -0.0403101146}, {"nodeid": 82, "leaf": -0.230700657}]}]}]}, {"nodeid": 12, "depth": 3, "split": "bps_per90", "split_condition": 13.9714289, "yes": 25, "no": 26, "missing": 26, "children": [{"nodeid": 25, "depth": 4, "split": "form", "split_condition": 2.25, "yes": 49, "no": 50, "missing": 50, "children": [{"nodeid": 49, "leaf": -0.00583920907}, {"nodeid": 50, "leaf": -0.169168055}]}, {"nodeid": 26, "leaf": 0.321417302}]}]}, {"nodeid": 6, "depth": 2, "split": "ict_per90", "split_condition": 7.09653473, "yes": 13, "no": 14, "missing": 14, "children": [{"nodeid": 13, "depth": 3, "split": "value", "split_condition": 7.0999999, "yes": 27, "no": 28, "missing": 28, "children": [{"nodeid": 27, "depth": 4, "split": "npxg_per90", "split_condition": 0.00200000009, "yes": 51, "no": 52, "missing": 52, "children": [{"nodeid": 51, "depth": 5, "split": "clean_sheets_per90", "split_condition": 0.166666672, "yes": 83, "no": 84, "missing": 84, "children": [{"nodeid": 83, "leaf": -0.00130889472}, {"nodeid": 84, "leaf": 0.284349293}]}, {"nodeid": 52, "depth": 5, "split": "xa_per90", "split_condition": 0.171779111, "yes": 85, "no": 86, "missing": 86, "children": [{"nodeid": 85, "leaf": 0.0899334773}, {"nodeid": 86, "leaf": -0.0860272944}]}]}, {"nodeid": 28, "depth": 4, "split": "xa_per90", "split_condition": 0.155000001, "yes": 53, "no": 54, "missing": 54, "children": [{"nodeid": 53, "depth": 5, "split": "bps_per90", "split_condition": 18.2666664, "yes": 87, "no": 88, "missing": 88, "children": [{"nodeid": 87, "leaf": 0.0282525104}, {"nodeid": 88, "leaf": 0.353591502}]}, {"nodeid": 54, "leaf": 0.626543999}]}]}, {"nodeid": 14, "depth": 3, "split": "clean_sheets_per90", "split_condition": 0.475968987, "yes": 29, "no": 30, "missing": 30, "children": [{"nodeid": 29, "depth": 4, "split": "value", "split_condition": 6.19999981, "yes": 55, "no": 56, "missing": 56, "children": [{"nodeid": 55, "depth": 5, "split": "selected_pct", "split_condition": 23.1743698, "yes": 89, "no": 90, "missing": 90, "children": [{"nodeid": 89, "leaf": 0.221520618}, {"nodeid": 90, "leaf": 0.0393636487}]}, {"nodeid": 56, "depth": 5, "split": "value", "split_condition": 6.9000001, "yes": 91, "no": 92, "missing": 92, "children": [{"nodeid": 91, "leaf": 0.851147294}, {"nodeid": 92, "leaf": 0.253718168}]}]}, {"nodeid": 30, "leaf": 0.785237312}]}]}]}]}, {"nodeid": 0, "depth": 0, "split": "value", "split_condition": 4.80000019, "yes": 1, "no": 2, "missing": 2, "children": [{"nodeid": 1, "depth": 1, "split": "minutes_per90", "split_condition": 89.4000015, "yes": 3, "no": 4, "missing": 4, "children": [{"nodeid": 3, "depth": 2, "split": "value", "split_condition": 4.30000019, "yes": 7, "no": 8, "missing": 8, "children": [{"nodeid": 7, "depth": 3, "split": "npxg_per90", "split_condition": 0.29733333, "yes": 15, "no": 16, "missing": 16, "children": [{"nodeid": 15, "depth": 4, "split": "xgc_per90", "split_condition": 0.972000003, "yes": 31, "no": 32, "missing": 32, "children": [{"nodeid": 31, "depth": 5, "split": "minutes_per90", "split_condition": 71.4000015, "yes": 61, "no": 62, "missing": 62, "children": [{"nodeid": 61, "leaf": -0.132814944}, {"nodeid": 62, "leaf": 0.0961943418}]}, {"nodeid": 32, "depth": 5, "split": "npxg_per90", "split_condition": 0.0103866663, "yes": 63, "no": 64, "missing": 64, "children": [{"nodeid": 63, "leaf": -0.140263274}, {"nodeid": 64, "leaf": -0.197476059}]}]}, {"nodeid": 16, "leaf": 0.138977632}]}, {"nodeid": 8, "depth": 3, "split": "xgc_per90", "split_condition": 0.711380005, "yes": 17, "no": 18, "missing": 18, "children": [{"nodeid": 17, "depth": 4, "split": "minutes_per90", "split_condition": 29.3999996, "yes": 33, "no": 34, "missing": 34, "children": [{"nodeid": 33, "depth": 5, "split": "bps_per90", "split_condition": 54.9810944, "yes": 65, "no": 66, "missing": 66, "children": [{"nodeid": 65, "leaf": -0.079272598}, {"nodeid": 66, "leaf": -0.221432686}]}, {"nodeid": 34, "depth": 5, "split": "bps_per90", "split_condition": 12.8901405, "yes": 67, "no": 68, "missing": 68, "children": [{"nodeid": 67, "leaf": -0.0501536541}, {"nodeid": 68, "leaf": 0.116409712}]}]}, {"nodeid": 18, "depth": 4, "split": "assists_per90", "split_condition": 0.485232055, "yes": 35, "no": 36, "missing": 36, "children": [{"nodeid": 35, "depth": 5, "split": "xgc_per90", "split_condition": 5.09098816, "yes": 69, "no": 70, "missing": 70, "children": [{"nodeid": 69, "leaf": -0.0647766516}, {"nodeid": 70, "leaf": -0.184374139}]}, {"nodeid": 36, "depth": 5, "split": "assists_per90", "split_condition": 0.693150699, "yes": 71, "no": 72, "missing": 72, "children": [{"nodeid": 71, "leaf": 0.347643703}, {"nodeid": 72, "leaf": 0.0289207306}]}]}]}]}, {"nodeid": 4, "depth": 2, "split": "xgc_per90", "split_condition": 1.67728531, "yes": 9, "no": 10, "missing": 10, "children": [{"nodeid": 9, "depth": 3, "split": "xa_per90", "split_condition": 0.0212294366, "yes": 19, "no": 20, "missing": 20, "children": [{"nodeid": 19, "depth": 4, "split": "assists_per90", "split_condition": 0.253521115, "yes": 37, "no": 38, "missing": 38, "children": [{"nodeid": 37, "depth": 5, "split": "bonus_per90", "split_condition": 0.739726007, "yes": 73, "no": 74, "missing": 74, "children": [{"nodeid": 73, "leaf": -0.00170212274}, {"nodeid": 74, "leaf": 0.26845026}]}, {"nodeid": 38, "depth": 5, "split": "ict_per90", "split_condition": 3.01652169, "yes": 75, "no": 76, "missing": 76, "children": [{"nodeid": 75, "leaf": 0.123683907}, {"nodeid": 76, "leaf": 0.489415646}]}]}, {"nodeid": 20, "depth": 4, "split": "xa_per90", "split_condition": 0.101599999, "yes": 39, "no": 40, "missing": 40, "children": [{"nodeid": 39, "depth": 5, "split": "bonus_per90", "split_condition": 0.134831458, "yes": 77, "no": 78, "missing": 78, "children": [{"nodeid": 77, "leaf": 0.139413819}, {"nodeid": 78, "leaf": 0.287708402}]}, {"nodeid": 40, "depth": 5, "split": "bonus_per90", "split_condition": 0.202702701, "yes": 79, "no": 80, "missing": 80, "children": [{"nodeid": 79, "leaf": -0.135910958}, {"nodeid": 80, "leaf": 0.0731711909}]}]}]}, {"nodeid": 10, "depth": 3, "split": "form", "split_condition": 1.79999995, "yes": 21, "no": 22, "missing": 22, "children": [{"nodeid": 21, "depth": 4, "split": "xgc_per90", "split_condition": 1.76400006, "yes": 41, "no": 42, "missing": 42, "children": [{"nodeid": 41, "leaf": -0.291800141}, {"nodeid": 42, "depth": 5, "split": "value", "split_condition": 4, "yes": 81, "no": 82, "missing": 82, "children": [{"nodeid": 81, "leaf": 0.0816798136}, {"nodeid": 82, "leaf": -0.148960218}]}]}, {"nodeid": 22, "depth": 4, "split": "npxg_per90", "split_condition": 0.00400000019, "yes": 43, "no": 44, "missing": 44, "children": [{"nodeid": 43, "depth": 5, "split": "bps_per90", "split_condition": 14.0666666, "yes": 83, "no": 84, "missing": 84, "children": [{"nodeid": 83, "leaf": 0.376451343}, {"nodeid": 84, "leaf": 0.0195778646}]}, {"nodeid": 44, "depth": 5, "split": "ict_per90", "split_condition": 4.87494373, "yes": 85, "no": 86, "missing": 86, "children": [{"nodeid": 85, "leaf": -0.0706902742}, {"nodeid": 86, "leaf": 0.139737427}]}]}]}]}]}, {"nodeid": 2, "depth": 1, "split": "value", "split_condition": 5.5999999, "yes": 5, "no": 6, "missing": 6, "children": [{"nodeid": 5, "depth": 2, "split": "minutes_per90", "split_condition": 87.8000031, "yes": 11, "no": 12, "missing": 12, "children": [{"nodeid": 11, "depth": 3, "split": "xa_per90", "split_condition": 0.0277093332, "yes": 23, "no": 24, "missing": 24, "children": [{"nodeid": 23, "depth": 4, "split": "ict_per90", "split_condition": 1.31666672, "yes": 45, "no": 46, "missing": 46, "children": [{"nodeid": 45, "leaf": 0.302378058}, {"nodeid": 46, "depth": 5, "split": "npxg_per90", "split_condition": 0.0516666658, "yes": 87, "no": 88, "missing": 88, "children": [{"nodeid": 87, "leaf": -0.080818668}, {"nodeid": 88, "leaf": 0.082494311}]}]}, {"nodeid": 24, "depth": 4, "split": "value", "split_condition": 5.19999981, "yes": 47, "no": 48, "missing": 48, "children": [{"nodeid": 47, "depth": 5, "split": "bps_per90", "split_condition": 19.333334, "yes": 89, "no": 90, "missing": 90, "children": [{"nodeid": 89, "leaf": 0.0381924994}, {"nodeid": 90, "leaf": 0.279011995}]}, {"nodeid": 48, "depth": 5, "split": "xa_per90", "split_condition": 0.0906666666, "yes": 91, "no": 92, "missing": 92, "children": [{"nodeid": 91, "leaf": 0.0969693065}, {"nodeid": 92, "leaf": -0.201076388}]}]}]}, {"nodeid": 12, "depth": 3, "split": "minutes_per90", "split_condition": 89.1999969, "yes": 25, "no": 26, "missing": 26, "children": [{"nodeid": 25, "depth": 4, "split": "ict_per90", "split_condition": 3.52129626, "yes": 49, "no": 50, "missing": 50, "children": [{"nodeid": 49, "depth": 5, "split": "form", "split_condition": 3, "yes": 93, "no": 94, "missing": 94, "children": [{"nodeid": 93, "leaf": 0.304685205}, {"nodeid": 94, "leaf": -0.00559213152}]}, {"nodeid": 50, "depth": 5, "split": "minutes_per90", "split_condition": 88.4000015, "yes": 95, "no": 96, "missing": 96, "children": [{"nodeid": 95, "leaf": 0.190580696}, {"nodeid": 96, "leaf": 0.631389081}]}]}, {"nodeid": 26, "depth": 4, "split": "xgc_per90", "split_condition": 0.949846148, "yes": 51, "no": 52, "missing": 52, "children": [{"nodeid": 51, "depth": 5, "split": "goals_per90", "split_condition": 0.268656731, "yes": 97, "no": 98, "missing": 98, "children": [{"nodeid": 97, "leaf": 0.143734351}, {"nodeid": 98, "leaf": 0.613357961}]}, {"nodeid": 52, "depth": 5, "split": "ict_per90", "split_condition": 3.07904768, "yes": 99, "no": 100, "missing": 100, "children": [{"nodeid": 99, "leaf": -0.0192673411}, {"nodeid": 100, "leaf": 0.0854150876}]}]}]}]}, {"nodeid": 6, "depth": 2, "split": "goals_per90", "split_condition": 0.13333334, "yes": 13, "no": 14, "missing": 14, "children": [{"nodeid": 13, "depth": 3, "split": "bps_per90", "split_condition": 24.1333332, "yes": 27, "no": 28, "missing": 28, "children": [{"nodeid": 27, "depth": 4, "split": "value", "split_condition": 5.69999981, "yes": 53, "no": 54, "missing": 54, "children": [{"nodeid": 53, "leaf": 0.557993948}, {"nodeid": 54, "depth": 5, "split": "value", "split_condition": 6, "yes": 101, "no": 102, "missing": 102, "children": [{"nodeid": 101, "leaf": -0.0523673408}, {"nodeid": 102, "leaf": 0.224931359}]}]}, {"nodeid": 28, "depth": 4, "split": "bps_per90", "split_condition": 32.7333336, "yes": 55, "no": 56, "missing": 56, "children": [{"nodeid": 55, "depth": 5, "split": "xa_per90", "split_condition": 0.210083336, "yes": 103, "no": 104, "missing": 104, "children": [{"nodeid": 103, "leaf": 0.876223564}, {"nodeid": 104, "leaf": 0.264407039}]}, {"nodeid": 56, "leaf": 0.136631742}]}]}, {"nodeid": 14, "depth": 3, "split": "ict_per90", "split_condition": 4.91333342, "yes": 29, "no": 30, "missing": 30, "children": [{"nodeid": 29, "depth": 4, "split": "npxg_per90", "split_condition": 0.00133333332, "yes": 57, "no": 58, "missing": 58, "children": [{"nodeid": 57, "leaf": 0.511742353}, {"nodeid": 58, "depth": 5, "split": "bps_per90", "split_condition": 18.1333332, "yes": 105, "no": 106, "missing": 106, "children": [{"nodeid": 105, "leaf": -0.151476294}, {"nodeid": 106, "leaf": 0.145155475}]}]}, {"nodeid": 30, "depth": 4, "split": "value", "split_condition": 7.9000001, "yes": 59, "no": 60, "missing": 60, "children": [{"nodeid": 59, "depth": 5, "split": "value", "split_condition": 5.9000001, "yes": 107, "no": 108, "missing": 108, "children": [{"nodeid": 107, "leaf": 0.0203960035}, {"nodeid": 108, "leaf": -0.191026419}]}, {"nodeid": 60, "leaf": 0.156875268}]}]}]}]}]}, {"nodeid": 0, "depth": 0, "split": "form", "split_condition": 2, "yes": 1, "no": 2, "missing": 2, "children": [{"nodeid": 1, "depth": 1, "split": "minutes_per90", "split_condition": 76.8000031, "yes": 3, "no": 4, "missing": 4, "children": [{"nodeid": 3, "depth": 2, "split": "minutes_per90", "split_condition": 19.7999992, "yes": 7, "no": 8, "missing": 8, "children": [{"nodeid": 7, "depth": 3, "split": "games_played", "split_condition": 3, "yes": 15, "no": 16, "missing": 16, "children": [{"nodeid": 15, "depth": 4, "split": "xgc_per90", "split_condition": 2.17571425, "yes": 31, "no": 32, "missing": 32, "children": [{"nodeid": 31, "depth": 5, "split": "avg_fixture_difficulty", "split_condition": 3, "yes": 63, "no": 64, "missing": 64, "children": [{"nodeid": 63, "leaf": -0.219467476}, {"nodeid": 64, "leaf": -0.0414999239}]}, {"nodeid": 32, "leaf": 0.0866994783}]}, {"nodeid": 16, "depth": 4, "split": "bps_per90", "split_condition": 36.7855835, "yes": 33, "no": 34, "missing": 34, "children": [{"nodeid": 33, "leaf": -0.304854035}, {"nodeid": 34, "depth": 5, "split": "xa_per90", "split_condition": 0.00770175457, "yes": 65, "no": 66, "missing": 66, "children": [{"nodeid": 65, "leaf": -0.155458331}, {"nodeid": 66, "leaf": -0.247390494}]}]}]}, {"nodeid": 8, "depth": 3, "split": "bps_per90", "split_condition": 97.3333359, "yes": 17, "no": 18, "missing": 18, "children": [{"nodeid": 17, "depth": 4, "split": "xgc_per90", "split_condition": 0.972000003, "yes": 35, "no": 36, "missing": 36, "children": [{"nodeid": 35, "depth": 5, "split": "bps_per90", "split_condition": 8.50185204, "yes": 67, "no": 68, "missing": 68, "children": [{"nodeid": 67, "leaf": -0.233817413}, {"nodeid": 68, "leaf": -0.00291712373}]}, {"nodeid": 36, "depth": 5, "split": "xa_per90", "split_condition": 0.0212294366, "yes": 69, "no": 70, "missing": 70, "children": [{"nodeid": 69, "leaf": -0.165882811}, {"nodeid": 70, "leaf": -0.0740048513}]}]}, {"nodeid": 18, "depth": 4, "split": "npxg_per90", "split_condition": 0.00289156637, "yes": 37, "no": 38, "missing": 38, "children": [{"nodeid": 37, "depth": 5, "split": "xa_per90", "split_condition": 0.00335733336, "yes": 71, "no": 72, "missing": 72, "children": [{"nodeid": 71, "leaf": -0.188678846}, {"nodeid": 72, "leaf": 0.0729136616}]}, {"nodeid": 38, "leaf": 0.292411059}]}]}]}, {"nodeid": 4, "depth": 2, "split": "xgc_per90", "split_condition": 1.65713048, "yes": 9, "no": 10, "missing": 10, "children": [{"nodeid": 9, "depth": 3, "split": "minutes_per90", "split_condition": 90, "yes": 19, "no": 20, "missing": 20, "children": [{"nodeid": 19, "depth": 4, "split": "xa_per90", "split_condition": 0.0523448288, "yes": 39, "no": 40, "missing": 40, "children": [{"nodeid": 39, "depth": 5, "split": "bps_per90", "split_condition": 12.1333332, "yes": 73, "no": 74, "missing": 74, "children": [{"nodeid": 73, "leaf": -0.094490774}, {"nodeid": 74, "leaf": 0.0365992747}]}, {"nodeid": 40, "depth": 5, "split": "xa_per90", "split_condition": 0.0877170488, "yes": 75, "no": 76, "missing": 76, "children": [{"nodeid": 75, "leaf": -0.340949982}, {"nodeid": 76, "leaf": -0.0980040878}]}]}, {"nodeid": 20, "depth": 4, "split": "xa_per90", "split_condition": 0.0877170488, "yes": 41, "no": 42, "missing": 42, "children": [{"nodeid": 41, "depth": 5, "split": "bps_per90", "split_condition": 13.1999998, "yes": 77, "no": 78, "missing": 78, "children": [{"nodeid": 77, "leaf": 0.0218315255}, {"nodeid": 78, "leaf": 0.147770822}]}, {"nodeid": 42, "leaf": 0.435012579}]}]}, {"nodeid": 10, "depth": 3, "split": "minutes_per90", "split_condition": 90, "yes": 21, "no": 22, "missing": 22, "children": [{"nodeid": 21, "depth": 4, "split": "npxg_per90", "split_condition": 0.0253333338, "yes": 43, "no": 44, "missing": 44, "children": [{"nodeid": 43, "depth": 5, "split": "bps_per90", "split_condition": 11.770833, "yes": 79, "no": 80, "missing": 80, "children": [{"nodeid": 79, "leaf": -0.172142655}, {"nodeid": 80, "leaf": -0.00502106827}]}, {"nodeid": 44, "depth": 5, "split": "npxg_per90", "split_condition": 0.0419999994, "yes": 81, "no": 82, "missing": 82, "children": [{"nodeid": 81, "leaf": 0.165311813}, {"nodeid": 82, "leaf": -0.0370921716}]}]}, {"nodeid": 22, "depth": 4, "split": "form", "split_condition": 1.79999995, "yes": 45, "no": 46, "missing": 46, "children": [{"nodeid": 45, "depth": 5, "split": "bonus_per90", "split_condition": 0.13333334, "yes": 83, "no": 84, "missing": 84, "children": [{"nodeid": 83, "leaf": -0.166268378}, {"nodeid": 84, "leaf": 0.0435248427}]}, {"nodeid": 46, "depth": 5, "split": "xa_per90", "split_condition": 0.0346666649, "yes": 85, "no": 86, "missing": 86, "children": [{"nodeid": 85, "leaf": 0.0857819244}, {"nodeid": 86, "leaf": -0.0913372338}]}]}]}]}]}, {"nodeid": 2, "depth": 1, "split": "xgc_per90", "split_condition": 1.13499999, "yes": 5, "no": 6, "missing": 6, "children": [{"nodeid": 5, "depth": 2, "split": "bps_per90", "split_condition": 16.5473042, "yes": 11, "no": 12, "missing": 12, "children": [{"nodeid": 11, "depth": 3, "split": "minutes_per90", "split_condition": 81.1999969, "yes": 23, "no": 24, "missing": 24, "children": [{"nodeid": 23, "depth": 4, "split": "form", "split_condition": 2.4000001, "yes": 47, "no": 48, "missing": 48, "children": [{"nodeid": 47, "depth": 5, "split": "npxg_per90", "split_condition": 0.00627906993, "yes": 87, "no": 88, "missing": 88, "children": [{"nodeid": 87, "leaf": 0.200011283}, {"nodeid": 88, "leaf": -0.121052794}]}, {"nodeid": 48, "depth": 5, "split": "minutes_per90", "split_condition": 57.5999985, "yes": 89, "no": 90, "missing": 90, "children": [{"nodeid": 89, "leaf": 0.20218955}, {"nodeid": 90, "leaf": -0.136081859}]}]}, {"nodeid": 24, "depth": 4, "split": "npxg_per90", "split_condition": 0.0573333316, "yes": 49, "no": 50, "missing": 50, "children": [{"nodeid": 49, "depth": 5, "split": "xa_per90", "split_condition": 0.0946666673, "yes": 91, "no": 92, "missing": 92, "children": [{"nodeid": 91, "leaf": 0.021517776}, {"nodeid": 92, "leaf": 0.328827113}]}, {"nodeid": 50, "depth": 5, "split": "bps_per90", "split_condition": 12.0118933, "yes": 93, "no": 94, "missing": 94, "children": [{"nodeid": 93, "leaf": 0.501739442}, {"nodeid": 94, "leaf": 0.164755166}]}]}]}, {"nodeid": 12, "depth": 3, "split": "xgc_per90", "split_condition": 0.607649982, "yes": 25, "no": 26, "missing": 26, "children": [{"nodeid": 25, "depth": 4, "split": "minutes_per90", "split_condition": 75.5999985, "yes": 51, "no": 52, "missing": 52, "children": [{"nodeid": 51, "depth": 5, "split": "clean_sheets_per90", "split_condition": 0.13333334, "yes": 95, "no": 96, "missing": 96, "children": [{"nodeid": 95, "leaf": 0.205862433}, {"nodeid": 96, "leaf": 0.0260201879}]}, {"nodeid": 52, "depth": 5, "split": "assists_per90", "split_condition": 0.204545453, "yes": 97, "no": 98, "missing": 98, "children": [{"nodeid": 97, "leaf": 0.192715466}, {"nodeid": 98, "leaf": 0.466510296}]}]}, {"nodeid": 26, "depth": 4, "split": "clean_sheets_per90", "split_condition": 0.157894731, "yes": 53, "no": 54, "missing": 54, "children": [{"nodeid": 53, "depth": 5, "split": "minutes_per90", "split_condition": 73.5999985, "yes": 99, "no": 100, "missing": 100, "children": [{"nodeid": 99, "leaf": 0.128238425}, {"nodeid": 100, "leaf": 0.293993682}]}, {"nodeid": 54, "depth": 5, "split": "bonus_per90", "split_condition": 0.906666696, "yes": 101, "no": 102, "missing": 102, "children": [{"nodeid": 101, "leaf": 0.00687759137}, {"nodeid": 102, "leaf": 0.235812902}]}]}]}]}, {"nodeid": 6, "depth": 2, "split": "minutes_per90", "split_condition": 88, "yes": 13, "no": 14, "missing": 14, "children": [{"nodeid": 13, "depth": 3, "split": "assists_per90", "split_condition": 0.204545453, "yes": 27, "no": 28, "missing": 28, "children": [{"nodeid": 27, "depth": 4, "split": "npxg_per90", "split_condition": 0.074000001, "yes": 55, "no": 56, "missing": 56, "children": [{"nodeid": 55, "depth": 5, "split": "xa_per90", "split_condition": 0.00417000009, "yes": 103, "no": 104, "missing": 104, "children": [{"nodeid": 103, "leaf": -0.182912633}, {"nodeid": 104, "leaf": -0.0654595867}]}, {"nodeid": 56, "depth": 5, "split": "npxg_per90", "split_condition": 0.0906666666, "yes": 105, "no": 106, "missing": 106, "children": [{"nodeid": 105, "leaf": 0.179902017}, {"nodeid": 106, "leaf": -0.0324295834}]}]}, {"nodeid": 28, "depth": 4, "split": "bonus_per90", "split_condition": 0.740350902, "yes": 57, "no": 58, "missing": 58, "children": [{"nodeid": 57, "depth": 5, "split": "bps_per90", "split_condition": 17.6916676, "yes": 107, "no": 108, "missing": 108, "children": [{"nodeid": 107, "leaf": 0.138028428}, {"nodeid": 108, "leaf": -0.0552806742}]}, {"nodeid": 58, "depth": 5, "split": "xgc_per90", "split_condition": 1.80999994, "yes": 109, "no": 110, "missing": 110, "children": [{"nodeid": 109, "leaf": 0.362781733}, {"nodeid": 110, "leaf": -0.15427573}]}]}]}, {"nodeid": 14, "depth": 3, "split": "goals_per90", "split_condition": 0.13333334, "yes": 29, "no": 30, "missing": 30, "children": [{"nodeid": 29, "depth": 4, "split": "games_played", "split_condition": 5, "yes": 59, "no": 60, "missing": 60, "children": [{"nodeid": 59, "depth": 5, "split": "bps_per90", "split_condition": 16.0596199, "yes": 111, "no": 112, "missing": 112, "children": [{"nodeid": 111, "leaf": 0.0626017377}, {"nodeid": 112, "leaf": 0.422140926}]}, {"nodeid": 60, "depth": 5, "split": "xa_per90", "split_condition": 0.202000007, "yes": 113, "no": 114, "missing": 114, "children": [{"nodeid": 113, "leaf": 0.0492028296}, {"nodeid": 114, "leaf": 0.305277735}]}]}, {"nodeid": 30, "depth": 4, "split": "bonus_per90", "split_condition": 0.739726007, "yes": 61, "no": 62, "missing": 62, "children": [{"nodeid": 61, "depth": 5, "split": "minutes_per90", "split_condition": 89, "yes": 115, "no": 116, "missing": 116, "children": [{"nodeid": 115, "leaf": -0.266689509}, {"nodeid": 116, "leaf": -0.0449005291}]}, {"nodeid": 62, "depth": 5, "split": "clean_sheets_per90", "split_condition": 0.337931037, "yes": 117, "no": 118, "missing": 118, "children": [{"nodeid": 117, "leaf": 0.261863261}, {"nodeid": 118, "leaf": -0.0364788622}]}]}]}]}]}]}, {"nodeid": 0, "depth": 0, "split": "selected_pct", "split_condition": 1.15462995, "yes": 1, "no": 2, "missing": 2, "children": [{"nodeid": 1, "depth": 1, "split": "selected_pct", "split_condition": 0.120980002, "yes": 3, "no": 4, "missing": 4, "children": [{"nodeid": 3, "depth": 2, "split": "clean_sheets_per90", "split_condition": 0.509803951, "yes": 7, "no": 8, "missing": 8, "children": [{"nodeid": 7, "depth": 3, "split": "assists_per90", "split_condition": 0.246913582, "yes": 15, "no": 16, "missing": 16, "children": [{"nodeid": 15, "depth": 4, "split": "minutes_per90", "split_condition": 89.1999969, "yes": 29, "no": 30, "missing": 30, "children": [{"nodeid": 29, "depth": 5, "split": "bps_per90", "split_condition": 21.7333336, "yes": 55, "no": 56, "missing": 56, "children": [{"nodeid": 55, "leaf": -0.167536423}, {"nodeid": 56, "leaf": -0.0902107731}]}, {"nodeid": 30, "depth": 5, "split": "selected_pct", "split_condition": 0.113030002, "yes": 57, "no": 58, "missing": 58, "children": [{"nodeid": 57, "leaf": 0.00972368196}, {"nodeid": 58, "leaf": -0.256202847}]}]}, {"nodeid": 16, "depth": 4, "split": "ict_per90", "split_condition": 4.87494373, "yes": 31, "no": 32, "missing": 32, "children": [{"nodeid": 31, "depth": 5, "split": "minutes_per90", "split_condition": 78.6666641, "yes": 59, "no": 60, "missing": 60, "children": [{"nodeid": 59, "leaf": 0.0389966667}, {"nodeid": 60, "leaf": -0.167723536}]}, {"nodeid": 32, "leaf": 0.368135542}]}]}, {"nodeid": 8, "leaf": 0.172449097}]}, {"nodeid": 4, "depth": 2, "split": "value", "split_condition": 4.4000001, "yes": 9, "no": 10, "missing": 10, "children": [{"nodeid": 9, "depth": 3, "split": "minutes_per90", "split_condition": 39, "yes": 17, "no": 18, "missing": 18, "children": [{"nodeid": 17, "depth": 4, "split": "value", "split_condition": 4.0999999, "yes": 33, "no": 34, "missing": 34, "children": [{"nodeid": 33, "leaf": -0.268502742}, {"nodeid": 34, "depth": 5, "split": "minutes_per90", "split_condition": 19.7999992, "yes": 61, "no": 62, "missing": 62, "children": [{"nodeid": 61, "leaf": -0.0536519699}, {"nodeid": 62, "leaf": -0.173656806}]}]}, {"nodeid": 18, "depth": 4, "split": "selected_pct", "split_condition": 0.154589996, "yes": 35, "no": 36, "missing": 36, "children": [{"nodeid": 35, "depth": 5, "split": "value", "split_condition": 4.30000019, "yes": 63, "no": 64, "missing": 64, "children": [{"nodeid": 63, "leaf": -0.157022759}, {"nodeid": 64, "leaf": 0.210613847}]}, {"nodeid": 36, "depth": 5, "split": "xa_per90", "split_condition": 0.0363736264, "yes": 65, "no": 66, "missing": 66, "children": [{"nodeid": 65, "leaf": -0.0389345847}, {"nodeid": 66, "leaf": -0.152628601}]}]}]}, {"nodeid": 10, "depth": 3, "split": "xa_per90", "split_condition": 0.00873015914, "yes": 19, "no": 20, "missing": 20, "children": [{"nodeid": 19, "depth": 4, "split": "minutes_per90", "split_condition": 57.5999985, "yes": 37, "no": 38, "missing": 38, "children": [{"nodeid": 37, "depth": 5, "split": "selected_pct", "split_condition": 0.33919999, "yes": 67, "no": 68, "missing": 68, "children": [{"nodeid": 67, "leaf": -0.0249318983}, {"nodeid": 68, "leaf": -0.192491159}]}, {"nodeid": 38, "depth": 5, "split": "ict_per90", "split_condition": 4.37365484, "yes": 69, "no": 70, "missing": 70, "children": [{"nodeid": 69, "leaf": -0.0652045384}, {"nodeid": 70, "leaf": 0.125057727}]}]}, {"nodeid": 20, "depth": 4, "split": "minutes_per90", "split_condition": 90, "yes": 39, "no": 40, "missing": 40, "children": [{"nodeid": 39, "depth": 5, "split": "assists_per90", "split_condition": 0.182926834, "yes": 71, "no": 72, "missing": 72, "children": [{"nodeid": 71, "leaf": -0.0224288814}, {"nodeid": 72, "leaf": 0.0910104141}]}, {"nodeid": 40, "depth": 5, "split": "selected_pct", "split_condition": 0.187940001, "yes": 73, "no": 74, "missing": 74, "children": [{"nodeid": 73, "leaf": -0.100611508}, {"nodeid": 74, "leaf": 0.0995983407}]}]}]}]}]}, {"nodeid": 2, "depth": 1, "split": "value", "split_condition": 4.30000019, "yes": 5, "no": 6, "missing": 6, "children": [{"nodeid": 5, "depth": 2, "split": "minutes_per90", "split_condition": 89.8000031, "yes": 11, "no": 12, "missing": 12, "children": [{"nodeid": 11, "depth": 3, "split": "ict_per90", "split_condition": 4.23333311, "yes": 21, "no": 22, "missing": 22, "children": [{"nodeid": 21, "depth": 4, "split": "ict_per90", "split_condition": 1.76767492, "yes": 41, "no": 42, "missing": 42, "children": [{"nodeid": 41, "depth": 5, "split": "clean_sheets_per90", "split_condition": 0.134831458, "yes": 75, "no": 76, "missing": 76, "children": [{"nodeid": 75, "leaf": -0.165526077}, {"nodeid": 76, "leaf": 0.183504209}]}, {"nodeid": 42, "depth": 5, "split": "clean_sheets_per90", "split_condition": 0.13333334, "yes": 77, "no": 78, "missing": 78, "children": [{"nodeid": 77, "leaf": -0.129411191}, {"nodeid": 78, "leaf": -0.220470026}]}]}, {"nodeid": 22, "depth": 4, "split": "xa_per90", "split_condition": 0.0404497981, "yes": 43, "no": 44, "missing": 44, "children": [{"nodeid": 43, "depth": 5, "split": "bps_per90", "split_condition": 23.2974358, "yes": 79, "no": 80, "missing": 80, "children": [{"nodeid": 79, "leaf": 0.148522839}, {"nodeid": 80, "leaf": -0.0161445569}]}, {"nodeid": 44, "depth": 5, "split": "value", "split_condition": 4.0999999, "yes": 81, "no": 82, "missing": 82, "children": [{"nodeid": 81, "leaf": -0.230699062}, {"nodeid": 82, "leaf": 0.00845164806}]}]}]}, {"nodeid": 12, "depth": 3, "split": "selected_pct", "split_condition": 1.92630005, "yes": 23, "no": 24, "missing": 24, "children": [{"nodeid": 23, "leaf": -0.193167955}, {"nodeid": 24, "depth": 4, "split": "selected_pct", "split_condition": 3.76283002, "yes": 45, "no": 46, "missing": 46, "children": [{"nodeid": 45, "depth": 5, "split": "bps_per90", "split_condition": 15.7047615, "yes": 83, "no": 84, "missing": 84, "children": [{"nodeid": 83, "leaf": 0.0628930107}, {"nodeid": 84, "leaf": 0.347898811}]}, {"nodeid": 46, "depth": 5, "split": "bonus_per90", "split_condition": 0.169014081, "yes": 85, "no": 86, "missing": 86, "children": [{"nodeid": 85, "leaf": -0.143689141}, {"nodeid": 86, "leaf": 0.0631824955}]}]}]}]}, {"nodeid": 6, "depth": 2, "split": "selected_pct", "split_condition": 7.9667201, "yes": 13, "no": 14, "missing": 14, "children": [{"nodeid": 13, "depth": 3, "split": "value", "split_condition": 4.5999999, "yes": 25, "no": 26, "missing": 26, "children": [{"nodeid": 25, "depth": 4, "split": "goals_per90", "split_condition": 0.13333334, "yes": 47, "no": 48, "missing": 48, "children": [{"nodeid": 47, "depth": 5, "split": "minutes_per90", "split_condition": 63.7999992, "yes": 87, "no": 88, "missing": 88, "children": [{"nodeid": 87, "leaf": -0.0646791831}, {"nodeid": 88, "leaf": 0.142765671}]}, {"nodeid": 48, "depth": 5, "split": "ict_per90", "split_condition": 2.41666675, "yes": 89, "no": 90, "missing": 90, "children": [{"nodeid": 89, "leaf": 0.269068629}, {"nodeid": 90, "leaf": -0.0348092727}]}]}, {"nodeid": 26, "depth": 4, "split": "bps_per90", "split_condition": 21.6000004, "yes": 49, "no": 50, "missing": 50, "children": [{"nodeid": 49, "depth": 5, "split": "games_played", "split_condition": 4, "yes": 91, "no": 92, "missing": 92, "children": [{"nodeid": 91, "leaf": 0.142507359}, {"nodeid": 92, "leaf": -0.0238737091}]}, {"nodeid": 50, "depth": 5, "split": "ict_per90", "split_condition": 1.91999996, "yes": 93, "no": 94, "missing": 94, "children": [{"nodeid": 93, "leaf": 0.392358869}, {"nodeid": 94, "leaf": 0.0863373205}]}]}]}, {"nodeid": 14, "depth": 3, "split": "xa_per90", "split_condition": 0.0264712442, "yes": 27, "no": 28, "missing": 28, "children": [{"nodeid": 27, "depth": 4, "split": "minutes_per90", "split_condition": 86.3333359, "yes": 51, "no": 52, "missing": 52, "children": [{"nodeid": 51, "depth": 5, "split": "bonus_per90", "split_condition": 0.493150681, "yes": 95, "no": 96, "missing": 96, "children": [{"nodeid": 95, "leaf": 0.105050623}, {"nodeid": 96, "leaf": -0.145236894}]}, {"nodeid": 52, "depth": 5, "split": "minutes_per90", "split_condition": 88.8000031, "yes": 97, "no": 98, "missing": 98, "children": [{"nodeid": 97, "leaf": 0.60338372}, {"nodeid": 98, "leaf": 0.238441974}]}]}, {"nodeid": 28, "depth": 4, "split": "value", "split_condition": 7.30000019, "yes": 53, "no": 54, "missing": 54, "children": [{"nodeid": 53, "depth": 5, "split": "ict_per90", "split_condition": 7.80000019, "yes": 99, "no": 100, "missing": 100, "children": [{"nodeid": 99, "leaf": 0.0305154603}, {"nodeid": 100, "leaf": 0.35404861}]}, {"nodeid": 54, "depth": 5, "split": "value", "split_condition": 8.10000038, "yes": 101, "no": 102, "missing": 102, "children": [{"nodeid": 101, "leaf": 0.524894714}, {"nodeid": 102, "leaf": -0.0726645812}]}]}]}]}]}]}, {"nodeid": 0, "depth": 0, "split": "selected_pct", "split_condition": 2.88749003, "yes": 1, "no": 2, "missing": 2, "children": [{"nodeid": 1, "depth": 1, "split": "xgc_per90", "split_condition": 1.74877203, "yes": 3, "no": 4, "missing": 4, "children": [{"nodeid": 3, "depth": 2, "split": "minutes_per90", "split_condition": 22.2000008, "yes": 7, "no": 8, "missing": 8, "children": [{"nodeid": 7, "depth": 3, "split": "xgc_per90", "split_condition": 0.972000003, "yes": 15, "no": 16, "missing": 16, "children": [{"nodeid": 15, "depth": 4, "split": "minutes_per90", "split_condition": 8.33333302, "yes": 31, "no": 32, "missing": 32, "children": [{"nodeid": 31, "depth": 5, "split": "avg_fixture_difficulty", "split_condition": 3, "yes": 55, "no": 56, "missing": 56, "children": [{"nodeid": 55, "leaf": -0.173642337}, {"nodeid": 56, "leaf": -0.299893707}]}, {"nodeid": 32, "depth": 5, "split": "games_played", "split_condition": 3, "yes": 57, "no": 58, "missing": 58, "children": [{"nodeid": 57, "leaf": -0.034768533}, {"nodeid": 58, "leaf": -0.17240347}]}]}, {"nodeid": 16, "leaf": -0.311294317}]}, {"nodeid": 8, "depth": 3, "split": "selected_pct", "split_condition": 0.0583599992, "yes": 17, "no": 18, "missing": 18, "children": [{"nodeid": 17, "depth": 4, "split": "xgc_per90", "split_condition": 0.535279989, "yes": 33, "no": 34, "missing": 34, "children": [{"nodeid": 33, "depth": 5, "split": "value", "split_condition": 4.5, "yes": 59, "no": 60, "missing": 60, "children": [{"nodeid": 59, "leaf": -0.174298391}, {"nodeid": 60, "leaf": 0.110696629}]}, {"nodeid": 34, "depth": 5, "split": "xa_per90", "split_condition": 0.00231999997, "yes": 61, "no": 62, "missing": 62, "children": [{"nodeid": 61, "leaf": -0.323470235}, {"nodeid": 62, "leaf": -0.187043592}]}]}, {"nodeid": 18, "depth": 4, "split": "selected_pct", "split_condition": 1.12562001, "yes": 35, "no": 36, "missing": 36, "children": [{"nodeid": 35, "depth": 5, "split": "minutes_per90", "split_condition": 25.7999992, "yes": 63, "no": 64, "missing": 64, "children": [{"nodeid": 63, "leaf": 0.34137702}, {"nodeid": 64, "leaf": -0.0259760264}]}, {"nodeid": 36, "depth": 5, "split": "value", "split_condition": 4.4000001, "yes": 65, "no": 66, "missing": 66, "children": [{"nodeid": 65, "leaf": -0.0537080169}, {"nodeid": 66, "leaf": 0.0781295374}]}]}]}]}, {"nodeid": 4, "depth": 2, "split": "selected_pct", "split_condition": 1.96744001, "yes": 9, "no": 10, "missing": 10, "children": [{"nodeid": 9, "depth": 3, "split": "value", "split_condition": 4.0999999, "yes": 19, "no": 20, "missing": 20, "children": [{"nodeid": 19, "depth": 4, "split": "npxg_per90", "split_condition": 0.0219512191, "yes": 37, "no": 38, "missing": 38, "children": [{"nodeid": 37, "depth": 5, "split": "minutes_per90", "split_condition": 87.8000031, "yes": 67, "no": 68, "missing": 68, "children": [{"nodeid": 67, "leaf": -0.155206427}, {"nodeid": 68, "leaf": 0.0491308533}]}, {"nodeid": 38, "depth": 5, "split": "xgc_per90", "split_condition": 2.33599997, "yes": 69, "no": 70, "missing": 70, "children": [{"nodeid": 69, "leaf": -0.178849742}, {"nodeid": 70, "leaf": -0.29017064}]}]}, {"nodeid": 20, "depth": 4, "split": "selected_pct", "split_condition": 1.15462995, "yes": 39, "no": 40, "missing": 40, "children": [{"nodeid": 39, "depth": 5, "split": "selected_pct", "split_condition": 0.0333600007, "yes": 71, "no": 72, "missing": 72, "children": [{"nodeid": 71, "leaf": 0.111823224}, {"nodeid": 72, "leaf": -0.0783429965}]}, {"nodeid": 40, "depth": 5, "split": "value", "split_condition": 4.5, "yes": 73, "no": 74, "missing": 74, "children": [{"nodeid": 73, "leaf": 0.218629763}, {"nodeid": 74, "leaf": -0.0532460511}]}]}]}, {"nodeid": 10, "depth": 3, "split": "bonus_per90", "split_condition": 0.445021659, "yes": 21, "no": 22, "missing": 22, "children": [{"nodeid": 21, "depth": 4, "split": "form", "split_condition": 2.66666675, "yes": 41, "no": 42, "missing": 42, "children": [{"nodeid": 41, "depth": 5, "split": "avg_fixture_difficulty", "split_condition": 3, "yes": 75, "no": 76, "missing": 76, "children": [{"nodeid": 75, "leaf": -0.222061276}, 