{"feature_names": ["npxg_per90", "xa_per90", "saves_per90", "xgc_per90", "def_contrib_per90", "ict_per90", "minutes_per90", "form", "is_penalty_taker", "avg_fixture_difficulty", "games_played", "injury_risk", "is_home_next", "value", "selected_pct", "bps_per90", "goals_per90", "assists_per90", "clean_sheets_per90", "bonus_per90"], "trees": [{"nodeid": 0, "depth": 0, "split": "form", "split_condition": 3.20000005, "yes": 1, "no": 2, "missing": 2, "children": [{"nodeid": 1, "depth": 1, "split": "value", "split_condition": 5.30000019, "yes": 3, "no": 4, "missing": 4, "children": [{"nodeid": 3, "depth": 2, "split": "form", "split_condition": 1.75, "yes": 7, "no": 8, "missing": 8, "children": [{"nodeid": 7, "depth": 3, "split": "bps_per90", "split_condition": 16.5784054, "yes": 15, "no": 16, "missing": 16, "children": [{"nodeid": 15, "depth": 4, "split": "ict_per90", "split_condition": 2.48142862, "yes": 31, "no": 32, "missing": 32, "children": [{"nodeid": 31, "depth": 5, "split": "value", "split_condition": 4.5, "yes": 61, "no": 62, "missing": 62, "children": [{"nodeid": 61, "leaf": -0.383107543}, {"nodeid": 62, "leaf": -0.244610339}]}, {"nodeid": 32, "depth": 5, "split": "npxg_per90", "split_condition": 0.240636811, "yes": 63, "no": 64, "missing": 64, "children": [{"nodeid": 63, "leaf": -0.148879513}, {"nodeid": 64, "leaf": -0.347611845}]}]}, {"nodeid": 16, "depth": 4, "split": "selected_pct", "split_condition": 1.27555001, "yes": 33, "no": 34, "missing": 34, "children": [{"nodeid": 33, "depth": 5, "split": "assists_per90", "split_condition": 0.429883659, "yes": 65, "no": 66, "missing": 66, "children": [{"nodeid": 65, "leaf": -0.328374207}, {"nodeid": 66, "leaf": -0.141496107}]}, {"nodeid": 34, "depth": 5, "split": "selected_pct", "split_condition": 5.2209301, "yes": 67, "no": 68, "missing": 68, "children": [{"nodeid": 67, "leaf": 0.0559048615}, {"nodeid": 68, "leaf": -0.308909237}]}]}]}, {"nodeid": 8, "depth": 3, "split": "selected_pct", "split_condition": 0.376899987, "yes": 17, "no": 18, "missing": 18, "children": [{"nodeid": 17, "depth": 4, "split": "selected_pct", "split_condition": 0.0118699996, "yes": 35, "no": 36, "missing": 36, "children": [{"nodeid": 35, "leaf": 0.211923167}, {"nodeid": 36, "depth": 5, "split": "value", "split_condition": 4.5999999, "yes": 69, "no": 70, "missing": 70, "children": [{"nodeid": 69, "leaf": -0.23672922}, {"nodeid": 70, "leaf": -0.126811549}]}]}, {"nodeid": 18, "depth": 4, "split": "value", "split_condition": 4.4000001, "yes": 37, "no": 38, "missing": 38, "children": [{"nodeid": 37, "depth": 5, "split": "xgc_per90", "split_condition": 1.33311391, "yes": 71, "no": 72, "missing": 72, "children": [{"nodeid": 71, "leaf": -0.109864771}, {"nodeid": 72, "leaf": -0.314146727}]}, {"nodeid": 38, "depth": 5, "split": "bps_per90", "split_condition": 14.816227, "yes": 73, "no": 74, "missing": 74, "children": [{"nodeid": 73, "leaf": 0.0507028773}, {"nodeid": 74, "leaf": -0.0742598549}]}]}]}]}, {"nodeid": 4, "depth": 2, "split": "value", "split_condition": 7.9000001, "yes": 9, "no": 10, "missing": 10, "children": [{"nodeid": 9, "depth": 3, "split": "selected_pct", "split_condition": 0.207990006, "yes": 19, "no": 20, "missing": 20, "children": [{"nodeid": 19, "depth": 4, "split": "clean_sheets_per90", "split_condition": 0.13333334, "yes": 39, "no": 40, "missing": 40, "children": [{"nodeid": 39, "depth": 5, "split": "value", "split_condition": 5.5999999, "yes": 75, "no": 76, "missing": 76, "children": [{"nodeid": 75, "leaf": -0.149643272}, {"nodeid": 76, "leaf": -0.306516111}]}, {"nodeid": 40, "depth": 5, "split": "xgc_per90", "split_condition": 0.107979313, "yes": 77, "no": 78, "missing": 78, "children": [{"nodeid": 77, "leaf": 0.161486581}, {"nodeid": 78, "leaf": -0.0979286507}]}]}, {"nodeid": 20, "depth": 4, "split": "selected_pct", "split_condition": 4.82291985, "yes": 41, "no": 42, "missing": 42, "children": [{"nodeid": 41, "depth": 5, "split": "bps_per90", "split_condition": 15.8000002, "yes": 79, "no": 80, "missing": 80, "children": [{"nodeid": 79, "leaf": 0.0536954701}, {"nodeid": 80, "leaf": -0.0716636777}]}, {"nodeid": 42, "depth": 5, "split": "npxg_per90", "split_condition": 0.00266666664, "yes": 81, "no": 82, "missing": 82, "children": [{"nodeid": 81, "leaf": 0.441436857}, {"nodeid": 82, "leaf": 0.091173172}]}]}]}, {"nodeid": 10, "depth": 3, "split": "xgc_per90", "split_condition": 0.756743073, "yes": 21, "no": 22, "missing": 22, "children": [{"nodeid": 21, "depth": 4, "split": "bps_per90", "split_condition": 10.0870142, "yes": 43, "no": 44, "missing": 44, "children": [{"nodeid": 43, "leaf": 0.394708425}, {"nodeid": 44, "leaf": -0.0603845231}]}, {"nodeid": 22, "depth": 4, "split": "value", "split_condition": 8.80000019, "yes": 45, "no": 46, "missing": 46, "children": [{"nodeid": 45, "depth": 5, "split": "avg_fixture_difficulty", "split_condition": 3, "yes": 83, "no": 84, "missing": 84, "children": [{"nodeid": 83, "leaf": 0.281862825}, {"nodeid": 84, "leaf": 0.500384748}]}, {"nodeid": 46, "leaf": 0.802451074}]}]}]}]}, {"nodeid": 2, "depth": 1, "split": "selected_pct", "split_condition": 5.42892981, "yes": 5, "no": 6, "missing": 6, "children": [{"nodeid": 5, "depth": 2, "split": "selected_pct", "split_condition": 0.230389997, "yes": 11, "no": 12, "missing": 12, "children": [{"nodeid": 11, "depth": 3, "split": "selected_pct", "split_condition": 0.0956199989, "yes": 23, "no": 24, "missing": 24, "children": [{"nodeid": 23, "depth": 4, "split": "ict_per90", "split_condition": 10.9733334, "yes": 47, "no": 48, "missing": 48, "children": [{"nodeid": 47, "depth": 5, "split": "form", "split_condition": 4, "yes": 85, "no": 86, "missing": 86, "children": [{"nodeid": 85, "leaf": -0.176069856}, {"nodeid": 86, "leaf": -0.0281394403}]}, {"nodeid": 48, "depth": 5, "split": "selected_pct", "split_condition": 0.0557500012, "yes": 87, "no": 88, "missing": 88, "children": [{"nodeid": 87, "leaf": -0.23212114}, {"nodeid": 88, "leaf": -0.389097154}]}]}, {"nodeid": 24, "depth": 4, "split": "selected_pct", "split_condition": 0.120049998, "yes": 49, "no": 50, "missing": 50, "children": [{"nodeid": 49, "depth": 5, "split": "xgc_per90", "split_condition": 1.27894664, "yes": 89, "no": 90, "missing": 90, "children": [{"nodeid": 89, "leaf": 0.0311539378}, {"nodeid": 90, "leaf": 0.4920834}]}, {"nodeid": 50, "depth": 5, "split": "ict_per90", "split_condition": 11.9121571, "yes": 91, "no": 92, "missing": 92, "children": [{"nodeid": 91, "leaf": -0.0927706063}, {"nodeid": 92, "leaf": 0.297894806}]}]}]}, {"nodeid": 12, "depth": 3, "split": "value", "split_condition": 6.30000019, "yes": 25, "no": 26, "missing": 26, "children": [{"nodeid": 25, "depth": 4, "split": "ict_per90", "split_condition": 4.10102558, "yes": 51, "no": 52, "missing": 52, "children": [{"nodeid": 51, "depth": 5, "split": "ict_per90", "split_condition": 3.31707191, "yes": 93, "no": 94, "missing": 94, "children": [{"nodeid": 93, "leaf": -0.0654612109}, {"nodeid": 94, "leaf": 0.0619426668}]}, {"nodeid": 52, "depth": 5, "split": "goals_per90", "split_condition": 0.70588237, "yes": 95, "no": 96, "missing": 96, "children": [{"nodeid": 95, "leaf": 0.168991849}, {"nodeid": 96, "leaf": -0.0396119766}]}]}, {"nodeid": 26, "depth": 4, "split": "npxg_per90", "split_condition": 0.141023889, "yes": 53, "no": 54, "missing": 54, "children": [{"nodeid": 53, "depth": 5, "split": "selected_pct", "split_condition": 4.35235023, "yes": 97, "no": 98, "missing": 98, "children": [{"nodeid": 97, "leaf": 0.433534384}, {"nodeid": 98, "leaf": 0.125904858}]}, {"nodeid": 54, "depth": 5, "split": "clean_sheets_per90", "split_condition": 0.324383557, "yes": 99, "no": 100, "missing": 100, "children": [{"nodeid": 99, "leaf": 0.0125672994}, {"nodeid": 100, "leaf": 0.323925525}]}]}]}]}, {"nodeid": 6, "depth": 2, "split": "selected_pct", "split_condition": 30.4110394, "yes": 13, "no": 14, "missing": 14, "children": [{"nodeid": 13, "depth": 3, "split": "value", "split_condition": 11.8999996, "yes": 27, "no": 28, "missing": 28, "children": [{"nodeid": 27, "depth": 4, "split": "assists_per90", "split_condition": 0.649999976, "yes": 55, "no": 56, "missing": 56, "children": [{"nodeid": 55, "depth": 5, "split": "ict_per90", "split_condition": 5.36666679, "yes": 101, "no": 102, "missing": 102, "children": [{"nodeid": 101, "leaf": 0.180692062}, {"nodeid": 102, "leaf": 0.394943565}]}, {"nodeid": 56, "depth": 5, "split": "value", "split_condition": 7.4000001, "yes": 103, "no": 104, "missing": 104, "children": [{"nodeid": 103, "leaf": -0.135811865}, {"nodeid": 104, "leaf": 0.341436863}]}]}, {"nodeid": 28, "leaf": 0.845879674}]}, {"nodeid": 14, "depth": 3, "split": "assists_per90", "split_condition": 0.46875, "yes": 29, "no": 30, "missing": 30, "children": [{"nodeid": 29, "depth": 4, "split": "npxg_per90", "split_condition": 0.0545454547, "yes": 57, "no": 58, "missing": 58, "children": [{"nodeid": 57, "depth": 5, "split": "assists_per90", "split_condition": 0.150000006, "yes": 105, "no": 106, "missing": 106, "children": [{"nodeid": 105, "leaf": 0.152797714}, {"nodeid": 106, "leaf": 0.571579039}]}, {"nodeid": 58, "depth": 5, "split": "form", "split_condition": 4.5, "yes": 107, "no": 108, "missing": 108, "children": [{"nodeid": 107, "leaf": 0.451234668}, {"nodeid": 108, "leaf": 0.832866132}]}]}, {"nodeid": 30, "depth": 4, "split": "value", "split_condition": 12.3000002, "yes": 59, "no": 60, "missing": 60, "children": [{"nodeid": 59, "depth": 5, "split": "form", "split_condition": 7.25, "yes": 109, "no": 110, "missing": 110, "children": [{"nodeid": 109, "leaf": 0.0778410062}, {"nodeid": 110, "leaf": 0.461274594}]}, {"nodeid": 60, "leaf": 0.865769327}]}]}]}]}]}, {"nodeid": 0, "depth": 0, "split": "form", "split_condition": 3.20000005, "yes": 1, "no": 2, "missing": 2, "children": [{"nodeid": 1, "depth": 1, "split": "minutes_per90", "split_condition": 64.5999985, "yes": 3, "no": 4, "missing": 4, "children": [{"nodeid": 3, "depth": 2, "split": "value", "split_condition": 5.30000019, "yes": 7, "no": 8, "missing": 8, "children": [{"nodeid": 7, "depth": 3, "split": "form", "split_condition": 1.33333337, "yes": 15, "no": 16, "missing": 16, "children": [{"nodeid": 15, "depth": 4, "split": "bps_per90", "split_condition": 16.3999996, "yes": 31, "no": 32, "missing": 32, "children": [{"nodeid": 31, "depth": 5, "split": "bps_per90", "split_condition": 14.3542471, "yes": 61, "no": 62, "missing": 62, "children": [{"nodeid": 61, "leaf": -0.253382564}, {"nodeid": 62, "leaf": -0.0906663463}]}, {"nodeid": 32, "depth": 5, "split": "selected_pct", "split_condition": 0.660629988, "yes": 63, "no": 64, "missing": 64, "children": [{"nodeid": 63, "leaf": -0.325985998}, {"nodeid": 64, "leaf": -0.210232243}]}]}, {"nodeid": 16, "depth": 4, "split": "value", "split_condition": 4.5999999, "yes": 33, "no": 34, "missing": 34, "children": [{"nodeid": 33, "depth": 5, "split": "selected_pct", "split_condition": 1.42982996, "yes": 65, "no": 66, "missing": 66, "children": [{"nodeid": 65, "leaf": -0.321759164}, {"nodeid": 66, "leaf": -0.080790855}]}, {"nodeid": 34, "depth": 5, "split": "selected_pct", "split_condition": 0.174219996, "yes": 67, "no": 68, "missing": 68, "children": [{"nodeid": 67, "leaf": -0.169810459}, {"nodeid": 68, "leaf": -0.0621490963}]}]}]}, {"nodeid": 8, "depth": 3, "split": "selected_pct", "split_condition": 0.702629983, "yes": 17, "no": 18, "missing": 18, "children": [{"nodeid": 17, "depth": 4, "split": "selected_pct", "split_condition": 0.0707300007, "yes": 35, "no": 36, "missing": 36, "children": [{"nodeid": 35, "depth": 5, "split": "npxg_per90", "split_condition": 0.0573333316, "yes": 69, "no": 70, "missing": 70, "children": [{"nodeid": 69, "leaf": -0.152709097}, {"nodeid": 70, "leaf": -0.304843158}]}, {"nodeid": 36, "depth": 5, "split": "selected_pct", "split_condition": 0.376899987, "yes": 71, "no": 72, "missing": 72, "children": [{"nodeid": 71, "leaf": -0.0783564001}, {"nodeid": 72, "leaf": -0.209043548}]}]}, {"nodeid": 18, "depth": 4, "split": "npxg_per90", "split_condition": 0.171428576, "yes": 37, "no": 38, "missing": 38, "children": [{"nodeid": 37, "depth": 5, "split": "value", "split_condition": 7.4000001, "yes": 73, "no": 74, "missing": 74, "children": [{"nodeid": 73, "leaf": -0.0873534083}, {"nodeid": 74, "leaf": 0.124697782}]}, {"nodeid": 38, "depth": 5, "split": "value", "split_condition": 6.80000019, "yes": 75, "no": 76, "missing": 76, "children": [{"nodeid": 75, "leaf": 0.321989357}, {"nodeid": 76, "leaf": -0.00992074236}]}]}]}]}, {"nodeid": 4, "depth": 2, "split": "value", "split_condition": 5.4000001, "yes": 9, "no": 10, "missing": 10, "children": [{"nodeid": 9, "depth": 3, "split": "selected_pct", "split_condition": 0.353179991, "yes": 19, "no": 20, "missing": 20, "children": [{"nodeid": 19, "depth": 4, "split": "value", "split_condition": 5.30000019, "yes": 39, "no": 40, "missing": 40, "children": [{"nodeid": 39, "depth": 5, "split": "selected_pct", "split_condition": 0.157969996, "yes": 77, "no": 78, "missing": 78, "children": [{"nodeid": 77, "leaf": -0.0970546827}, {"nodeid": 78, "leaf": -0.159620449}]}, {"nodeid": 40, "depth": 5, "split": "form", "split_condition": 2.5, "yes": 79, "no": 80, "missing": 80, "children": [{"nodeid": 79, "leaf": 0.135266915}, {"nodeid": 80, "leaf": -0.123204805}]}]}, {"nodeid": 20, "depth": 4, "split": "bps_per90", "split_condition": 11.6000004, "yes": 41, "no": 42, "missing": 42, "children": [{"nodeid": 41, "depth": 5, "split": "assists_per90", "split_condition": 0.134831458, "yes": 81, "no": 82, "missing": 82, "children": [{"nodeid": 81, "leaf": 0.0231899321}, {"nodeid": 82, "leaf": 0.239504173}]}, {"nodeid": 42, "depth": 5, "split": "assists_per90", "split_condition": 0.13333334, "yes": 83, "no": 84, "missing": 84, "children": [{"nodeid": 83, "leaf": -0.130937561}, {"nodeid": 84, "leaf": 0.00870430097}]}]}]}, {"nodeid": 10, "depth": 3, "split": "minutes_per90", "split_condition": 85, "yes": 21, "no": 22, "missing": 22, "children": [{"nodeid": 21, "depth": 4, "split": "minutes_per90", "split_condition": 72.4000015, "yes": 43, "no": 44, "missing": 44, "children": [{"nodeid": 43, "depth": 5, "split": "selected_pct", "split_condition": 5.63403988, "yes": 85, "no": 86, "missing": 86, "children": [{"nodeid": 85, "leaf": -0.0133044971}, {"nodeid": 86, "leaf": 0.334392339}]}, {"nodeid": 44, "depth": 5, "split": "form", "split_condition": 2.20000005, "yes": 87, "no": 88, "missing": 88, "children": [{"nodeid": 87, "leaf": 0.0458727591}, {"nodeid": 88, "leaf": 0.192505047}]}]}, {"nodeid": 22, "depth": 4, "split": "selected_pct", "split_condition": 14.2783298, "yes": 45, "no": 46, "missing": 46, "children": [{"nodeid": 45, "depth": 5, "split": "value", "split_condition": 7.5, "yes": 89, "no": 90, "missing": 90, "children": [{"nodeid": 89, "leaf": 0.216522411}, {"nodeid": 90, "leaf": 0.415989459}]}, {"nodeid": 46, "leaf": 0.731625378}]}]}]}]}, {"nodeid": 2, "depth": 1, "split": "selected_pct", "split_condition": 1.27555001, "yes": 5, "no": 6, "missing": 6, "children": [{"nodeid": 5, "depth": 2, "split": "selected_pct", "split_condition": 0.0956199989, "yes": 11, "no": 12, "missing": 12, "children": [{"nodeid": 11, "depth": 3, "split": "minutes_per90", "split_condition": 32.5, "yes": 23, "no": 24, "missing": 24, "children": [{"nodeid": 23, "leaf": -0.344751865}, {"nodeid": 24, "depth": 4, "split": "bonus_per90", "split_condition": 0.461538464, "yes": 47, "no": 48, "missing": 48, "children": [{"nodeid": 47, "depth": 5, "split": "npxg_per90", "split_condition": 0.0198717248, "yes": 91, "no": 92, "missing": 92, "children": [{"nodeid": 91, "leaf": -0.0640852377}, {"nodeid": 92, "leaf": -0.257160008}]}, {"nodeid": 48, "depth": 5, "split": "minutes_per90", "split_condition": 67.8000031, "yes": 93, "no": 94, "missing": 94, "children": [{"nodeid": 93, "leaf": 0.107489541}, {"nodeid": 94, "leaf": -0.0971577168}]}]}]}, {"nodeid": 12, "depth": 3, "split": "value", "split_condition": 5.4000001, "yes": 25, "no": 26, "missing": 26, "children": [{"nodeid": 25, "depth": 4, "split": "minutes_per90", "split_condition": 89, "yes": 49, "no": 50, "missing": 50, "children": [{"nodeid": 49, "depth": 5, "split": "assists_per90", "split_condition": 0.203389823, "yes": 95, "no": 96, "missing": 96, "children": [{"nodeid": 95, "leaf": -0.0539087057}, {"nodeid": 96, "leaf": 0.073858358}]}, {"nodeid": 50, "depth": 5, "split": "bps_per90", "split_condition": 15.3999996, "yes": 97, "no": 98, "missing": 98, "children": [{"nodeid": 97, "leaf": 0.0462239198}, {"nodeid": 98, "leaf": 0.421227783}]}]}, {"nodeid": 26, "depth": 4, "split": "npxg_per90", "split_condition": 0.139064685, "yes": 51, "no": 52, "missing": 52, "children": [{"nodeid": 51, "depth": 5, "split": "minutes_per90", "split_condition": 80.8000031, "yes": 99, "no": 100, "missing": 100, "children": [{"nodeid": 99, "leaf": 0.0254206844}, {"nodeid": 100, "leaf": 0.206079364}]}, {"nodeid": 52, "depth": 5, "split": "selected_pct", "split_condition": 0.207990006, "yes": 101, "no": 102, "missing": 102, "children": [{"nodeid": 101, "leaf": 0.00390479388}, {"nodeid": 102, "leaf": 0.365650952}]}]}]}]}, {"nodeid": 6, "depth": 2, "split": "selected_pct", "split_condition": 16.1453991, "yes": 13, "no": 14, "missing": 14, "children": [{"nodeid": 13, "depth": 3, "split": "goals_per90", "split_condition": 0.874261618, "yes": 27, "no": 28, "missing": 28, "children": [{"nodeid": 27, "depth": 4, "split": "goals_per90", "split_condition": 0.25, "yes": 53, "no": 54, "missing": 54, "children": [{"nodeid": 53, "depth": 5, "split": "value", "split_condition": 9.80000019, "yes": 103, "no": 104, "missing": 104, "children": [{"nodeid": 103, "leaf": 0.188236251}, {"nodeid": 104, "leaf": 0.584196568}]}, {"nodeid": 54, "depth": 5, "split": "bonus_per90", "split_condition": 0.701298714, "yes": 105, "no": 106, "missing": 106, "children": [{"nodeid": 105, "leaf": 0.391924679}, {"nodeid": 106, "leaf": 0.189201698}]}]}, {"nodeid": 28, "depth": 4, "split": "bonus_per90", "split_condition": 0.529411793, "yes": 55, "no": 56, "missing": 56, "children": [{"nodeid": 55, "depth": 5, "split": "value", "split_condition": 7.80000019, "yes": 107, "no": 108, "missing": 108, "children": [{"nodeid": 107, "leaf": -0.239608869}, {"nodeid": 108, "leaf": 0.0490457863}]}, {"nodeid": 56, "depth": 5, "split": "bonus_per90", "split_condition": 1.74193549, "yes": 109, "no": 110, "missing": 110, "children": [{"nodeid": 109, "leaf": 0.313945383}, {"nodeid": 110, "leaf": 0.0486711115}]}]}]}, {"nodeid": 14, "depth": 3, "split": "value", "split_condition": 12.3000002, "yes": 29, "no": 30, "missing": 30, "children": [{"nodeid": 29, "depth": 4, "split": "assists_per90", "split_condition": 0.800000012, "yes": 57, "no": 58, "missing": 58, "children": [{"nodeid": 57, "depth": 5, "split": "bonus_per90", "split_condition": 0.594041228, "yes": 111, "no": 112, "missing": 112, "children": [{"nodeid": 111, "leaf": 0.369669944}, {"nodeid": 112, "leaf": 0.552561939}]}, {"nodeid": 58, "depth": 5, "split": "npxg_per90", "split_condition": 0.114, "yes": 113, "no": 114, "missing": 114, "children": [{"nodeid": 113, "leaf": 0.208307907}, {"nodeid": 114, "leaf": -0.368970692}]}]}, {"nodeid": 30, "depth": 4, "split": "bonus_per90", "split_condition": 0.675000012, "yes": 59, "no": 60, "missing": 60, "children": [{"nodeid": 59, "depth": 5, "split": "goals_per90", "split_condition": 0.202247187, "yes": 115, "no": 116, "missing": 116, "children": [{"nodeid": 115, "leaf": 0.662438989}, {"nodeid": 116, "leaf": 1.13641024}]}, {"nodeid": 60, "depth": 5, "split": "form", "split_condition": 8.19999981, "yes": 117, "no": 118, "missing": 118, "children": [{"nodeid": 117, "leaf": 0.196168467}, {"nodeid": 118, "leaf": 0.674058974}]}]}]}]}]}]}, {"nodeid": 0, "depth": 0, "split": "selected_pct", "split_condition": 1.01961994, "yes": 1, "no": 2, "missing": 2, "children": [{"nodeid": 1, "depth": 1, "split": "minutes_per90", "split_condition": 58.3333321, "yes": 3, "no": 4, "missing": 4, "children": [{"nodeid": 3, "depth": 2, "split": "value", "split_condition": 4.5999999, "yes": 7, "no": 8, "missing": 8, "children": [{"nodeid": 7, "depth": 3, "split": "bps_per90", "split_condition": 94.1666641, "yes": 15, "no": 16, "missing": 16, "children": [{"nodeid": 15, "depth": 4, "split": "goals_per90", "split_condition": 0.141176477, "yes": 31, "no": 32, "missing": 32, "children": [{"nodeid": 31, "depth": 5, "split": "value", "split_condition": 4.30000019, "yes": 61, "no": 62, "missing": 62, "children": [{"nodeid": 61, "leaf": -0.385790884}, {"nodeid": 62, "leaf": -0.306188792}]}, {"nodeid": 32, "depth": 5, "split": "selected_pct", "split_condition": 0.298130006, "yes": 63, "no": 64, "missing": 64, "children": [{"nodeid": 63, "leaf": -0.109320119}, {"nodeid": 64, "leaf": -0.305163354}]}]}, {"nodeid": 16, "leaf": -0.409919113}]}, {"nodeid": 8, "depth": 3, "split": "selected_pct", "split_condition": 0.101949997, "yes": 17, "no": 18, "missing": 18, "children": [{"nodeid": 17, "depth": 4, "split": "selected_pct", "split_condition": 0.0174800009, "yes": 33, "no": 34, "missing": 34, "children": [{"nodeid": 33, "depth": 5, "split": "bps_per90", "split_condition": 14.5848484, "yes": 65, "no": 66, "missing": 66, "children": [{"nodeid": 65, "leaf": -0.248397931}, {"nodeid": 66, "leaf": 0.00961474422}]}, {"nodeid": 34, "depth": 5, "split": "minutes_per90", "split_condition": 29.6000004, "yes": 67, "no": 68, "missing": 68, "children": [{"nodeid": 67, "leaf": -0.27809912}, {"nodeid": 68, "leaf": -0.204250455}]}]}, {"nodeid": 18, "depth": 4, "split": "npxg_per90", "split_condition": 0.264309883, "yes": 35, "no": 36, "missing": 36, "children": [{"nodeid": 35, "depth": 5, "split": "goals_per90", "split_condition": 1.27032006, "yes": 69, "no": 70, "missing": 70, "children": [{"nodeid": 69, "leaf": -0.145894945}, {"nodeid": 70, "leaf": 0.189512998}]}, {"nodeid": 36, "depth": 5, "split": "npxg_per90", "split_condition": 0.382373691, "yes": 71, "no": 72, "missing": 72, "children": [{"nodeid": 71, "leaf": 0.199665084}, {"nodeid": 72, "leaf": -0.110039704}]}]}]}]}, {"nodeid": 4, "depth": 2, "split": "value", "split_condition": 5.4000001, "yes": 9, "no": 10, "missing": 10, "children": [{"nodeid": 9, "depth": 3, "split": "ict_per90", "split_condition": 4.22991848, "yes": 19, "no": 20, "missing": 20, "children": [{"nodeid": 19, "depth": 4, "split": "ict_per90", "split_condition": 2.81476784, "yes": 37, "no": 38, "missing": 38, "children": [{"nodeid": 37, "depth": 5, "split": "minutes_per90", "split_condition": 72.8000031, "yes": 73, "no": 74, "missing": 74, "children": [{"nodeid": 73, "leaf": -0.222796872}, {"nodeid": 74, "leaf": -0.115971364}]}, {"nodeid": 38, "depth": 5, "split": "npxg_per90", "split_condition": 0.0230769236, "yes": 75, "no": 76, "missing": 76, "children": [{"nodeid": 75, "leaf": -0.0244147796}, {"nodeid": 76, "leaf": -0.117175378}]}]}, {"nodeid": 20, "depth": 4, "split": "assists_per90", "split_condition": 0.25, "yes": 39, "no": 40, "missing": 40, "children": [{"nodeid": 39, "depth": 5, "split": "minutes_per90", "split_condition": 87.75, "yes": 77, "no": 78, "missing": 78, "children": [{"nodeid": 77, "leaf": -0.0503778346}, {"nodeid": 78, "leaf": 0.11143519}]}, {"nodeid": 40, "depth": 5, "split": "bps_per90", "split_condition": 17.492363, "yes": 79, "no": 80, "missing": 80, "children": [{"nodeid": 79, "leaf": 0.25731346}, {"nodeid": 80, "leaf": -0.0202765521}]}]}]}, {"nodeid": 10, "depth": 3, "split": "minutes_per90", "split_condition": 67.1999969, "yes": 21, "no": 22, "missing": 22, "children": [{"nodeid": 21, "depth": 4, "split": "ict_per90", "split_condition": 6.55999994, "yes": 41, "no": 42, "missing": 42, "children": [{"nodeid": 41, "depth": 5, "split": "assists_per90", "split_condition": 0.137931034, "yes": 81, "no": 82, "missing": 82, "children": [{"nodeid": 81, "leaf": -0.194301471}, {"nodeid": 82, "leaf": 0.0147945257}]}, {"nodeid": 42, "leaf": 0.295064986}]}, {"nodeid": 22, "depth": 4, "split": "ict_per90", "split_condition": 2.86354971, "yes": 43, "no": 44, "missing": 44, "children": [{"nodeid": 43, "depth": 5, "split": "xgc_per90", "split_condition": 0.107979313, "yes": 83, "no": 84, "missing": 84, "children": [{"nodeid": 83, "leaf": 0.112561069}, {"nodeid": 84, "leaf": -0.165367693}]}, {"nodeid": 44, "depth": 5, "split": "selected_pct", "split_condition": 0.838379979, "yes": 85, "no": 86, "missing": 86, "children": [{"nodeid": 85, "leaf": 0.248564273}, {"nodeid": 86, "leaf": -0.0095218746}]}]}]}]}]}, {"nodeid": 2, "depth": 1, "split": "minutes_per90", "split_condition": 72.8000031, "yes": 5, "no": 6, "missing": 6, "children": [{"nodeid": 5, "depth": 2, "split": "value", "split_condition": 5.5, "yes": 11, "no": 12, "missing": 12, "children": [{"nodeid": 11, "depth": 3, "split": "selected_pct", "split_condition": 6.4924798, "yes": 23, "no": 24, "missing": 24, "children": [{"nodeid": 23, "depth": 4, "split": "bonus_per90", "split_condition": 0.675000012, "yes": 45, "no": 46, "missing": 46, "children": [{"nodeid": 45, "depth": 5, "split": "xgc_per90", "split_condition": 0.949556768, "yes": 87, "no": 88, "missing": 88, "children": [{"nodeid": 87, "leaf": 0.0564185791}, {"nodeid": 88, "leaf": -0.116571404}]}, {"nodeid": 46, "leaf": 0.280915737}]}, {"nodeid": 24, "depth": 4, "split": "selected_pct", "split_condition": 673, "yes": 47, "no": 48, "missing": 48, "children": [{"nodeid": 47, "depth": 5, "split": "ict_per90", "split_condition": 5.53571415, "yes": 89, "no": 90, "missing": 90, "children": [{"nodeid": 89, "leaf": -0.365967482}, {"nodeid": 90, "leaf": -0.222870931}]}, {"nodeid": 48, "depth": 5, "split": "games_played", "split_condition": 5, "yes": 91, "no": 92, "missing": 92, "children": [{"nodeid": 91, "leaf": 0.0922362506}, {"nodeid": 92, "leaf": -0.250376105}]}]}]}, {"nodeid": 12, "depth": 3, "split": "ict_per90", "split_condition": 5.55951786, "yes": 25, "no": 26, "missing": 26, "children": [{"nodeid": 25, "depth": 4, "split": "xgc_per90", "split_condition": 0.915923059, "yes": 49, "no": 50, "missing": 50, "children": [{"nodeid": 49, "depth": 5, "split": "selected_pct", "split_condition": 3.76430988, "yes": 93, "no": 94, "missing": 94, "children": [{"nodeid": 93, "leaf": -0.0382696502}, {"nodeid": 94, "leaf": -0.233135924}]}, {"nodeid": 50, "depth": 5, "split": "xgc_per90", "split_condition": 1.08326375, "yes": 95, "no": 96, "missing": 96, "children": [{"nodeid": 95, "leaf": 0.338398933}, {"nodeid": 96, "leaf": 0.0304451268}]}]}, {"nodeid": 26, "depth": 4, "split": "selected_pct", "split_condition": 33.0306015, "yes": 51, "no": 52, "missing": 52, "children": [{"nodeid": 51, "depth": 5, "split": "selected_pct", "split_condition": 1.84805, "yes": 97, "no": 98, "missing": 98, "children": [{"nodeid": 97, "leaf": 0.318868369}, {"nodeid": 98, "leaf": 0.134874985}]}, {"nodeid": 52, "leaf": 0.631583869}]}]}]}, {"nodeid": 6, "depth": 2, "split": "value", "split_condition": 7.80000019, "yes": 13, "no": 14, "missing": 14, "children": [{"nodeid": 13, "depth": 3, "split": "goals_per90", "split_condition": 0.190476194, "yes": 27, "no": 28, "missing": 28, "children": [{"nodeid": 27, "depth": 4, "split": "selected_pct", "split_condition": 10.1384201, "yes": 53, "no": 54, "missing": 54, "children": [{"nodeid": 53, "depth": 5, "split": "minutes_per90", "split_condition": 86.4000015, "yes": 99, "no": 100, "missing": 100, "children": [{"nodeid": 99, "leaf": 0.0474740937}, {"nodeid": 100, "leaf": 0.142817944}]}, {"nodeid": 54, "depth": 5, "split": "xgc_per90", "split_condition": 0.305257589, "yes": 101, "no": 102, "missing": 102, "children": [{"nodeid": 101, "leaf": 0.623679996}, {"nodeid": 102, "leaf": 0.167166024}]}]}, {"nodeid": 28, "depth": 4, "split": "selected_pct", "split_condition": 35.4640999, "yes": 55, "no": 56, "missing": 56, "children": [{"nodeid": 55, "depth": 5, "split": "xa_per90", "split_condition": 0.0932608694, "yes": 103, "no": 104, "missing": 104, "children": [{"nodeid": 103, "leaf": 0.220495373}, {"nodeid": 104, "leaf": 0.346157849}]}, {"nodeid": 56, "depth": 5, "split": "value", "split_condition": 6, "yes": 105, "no": 106, "missing": 106, "children": [{"nodeid": 105, "leaf": 1.12823582}, {"nodeid": 106, "leaf": 0.492317766}]}]}]}, {"nodeid": 14, "depth": 3, "split": "ict_per90", "split_condition": 8.10704517, "yes": 29, "no": 30, "missing": 30, "children": [{"nodeid": 29, "depth": 4, "split": "value", "split_condition": 11.8000002, "yes": 57, "no": 58, "missing": 58, "children": [{"nodeid": 57, "depth": 5, "split": "clean_sheets_per90", "split_condition": 0.300187618, "yes": 107, "no": 108, "missing": 108, "children": [{"nodeid": 107, "leaf": 0.213082865}, {"nodeid": 108, "leaf": 0.448055744}]}, {"nodeid": 58, "leaf": 0.897352993}]}, {"nodeid": 30, "depth": 4, "split": "bps_per90", "split_condition": 23.6460247, "yes": 59, "no": 60, "missing": 60, "children": [{"nodeid": 59, "depth": 5, "split": "assists_per90", "split_condition": 0.428571433, "yes": 109, "no": 110, "missing": 110, "children": [{"nodeid": 109, "leaf": 0.669095337}, {"nodeid": 110, "leaf": 1.13919938}]}, {"nodeid": 60, "depth": 5, "split": "clean_sheets_per90", "split_condition": 0.426666677, "yes": 111, "no": 112, "missing": 112, "children": [{"nodeid": 111, "leaf": 0.490243644}, {"nodeid": 112, "leaf": 0.0692001656}]}]}]}]}]}]}, {"nodeid": 0, "depth": 0, "split": "selected_pct", "split_condition": 1.01961994, "yes": 1, "no": 2, "missing": 2, "children": [{"nodeid": 1, "depth": 1, "split": "minutes_per90", "split_condition": 59.5999985, "yes": 3, "no": 4, "missing": 4, "children": [{"nodeid": 3, "depth": 2, "split": "goals_per90", "split_condition": 0.13333334, "yes": 7, "no": 8, "missing": 8, "children": [{"nodeid": 7, "depth": 3, "split": "minutes_per90", "split_condition": 18, "yes": 15, "no": 16, "missing": 16, "children": [{"nodeid": 15, "depth": 4, "split": "xa_per90", "split_condition": 0.0305882357, "yes": 31, "no": 32, "missing": 32, "children": [{"nodeid": 31, "depth": 5, "split": "minutes_per90", "split_condition": 13, "yes": 63, "no": 64, "missing": 64, "children": [{"nodeid": 63, "leaf": -0.355120748}, {"nodeid": 64, "leaf": -0.243207529}]}, {"nodeid": 32, "depth": 5, "split": "xgc_per90", "split_condition": 4.15752554, "yes": 65, "no": 66, "missing": 66, "children": [{"nodeid": 65, "leaf": -0.262109339}, {"nodeid": 66, "leaf": -0.0913327336}]}]}, {"nodeid": 16, "depth": 4, "split": "ict_per90", "split_condition": 2.86354971, "yes": 33, "no": 34, "missing": 34, "children": [{"nodeid": 33, "depth": 5, "split": "npxg_per90", "split_condition": 0.0858095214, "yes": 67, "no": 68, "missing": 68, "children": [{"nodeid": 67, "leaf": -0.259970993}, {"nodeid": 68, "leaf": -0.0999578014}]}, {"nodeid": 34, "depth": 5, "split": "minutes_per90", "split_condition": 30.2000008, "yes": 69, "no": 70, "missing": 70, "children": [{"nodeid": 69, "leaf": -0.221078277}, {"nodeid": 70, "leaf": -0.148767337}]}]}]}, {"nodeid": 8, "depth": 3, "split": "selected_pct", "split_condition": 0.0994499996, "yes": 17, "no": 18, "missing": 18, "children": [{"nodeid": 17, "depth": 4, "split": "selected_pct", "split_condition": 0.0174800009, "yes": 35, "no": 36, "missing": 36, "children": [{"nodeid": 35, "leaf": 0.099007085}, {"nodeid": 36, "depth": 5, "split": "minutes_per90", "split_condition": 55, "yes": 71, "no": 72, "missing": 72, "children": [{"nodeid": 71, "leaf": -0.238071352}, {"nodeid": 72, "leaf": 0.00110835407}]}]}, {"nodeid": 18, "depth": 4, "split": "ict_per90", "split_condition": 7.0333333, "yes": 37, "no": 38, "missing": 38, "children": [{"nodeid": 37, "depth": 5, "split": "ict_per90", "split_condition": 3.95408583, "yes": 73, "no": 74, "missing": 74, "children": [{"nodeid": 73, "leaf": -0.284156859}, {"nodeid": 74, "leaf": -0.115250789}]}, {"nodeid": 38, "depth": 5, "split": "bonus_per90", "split_condition": 1.20449436, "yes": 75, "no": 76, "missing": 76, "children": [{"nodeid": 75, "leaf": -0.0192928836}, {"nodeid": 76, "leaf": 0.310569316}]}]}]}]}, {"nodeid": 4, "depth": 2, "split": "ict_per90", "split_condition": 3.28952384, "yes": 9, "no": 10, "missing": 10, "children": [{"nodeid": 9, "depth": 3, "split": "selected_pct", "split_condition": 0.420679986, "yes": 19, "no": 20, "missing": 20, "children": [{"nodeid": 19, "depth": 4, "split": "xa_per90", "split_condition": 0.00800000038, "yes": 39, "no": 40, "missing": 40, "children": [{"nodeid": 39, "depth": 5, "split": "minutes_per90", "split_condition": 72.5999985, "yes": 77, "no": 78, "missing": 78, "children": [{"nodeid": 77, "leaf": -0.126779974}, {"nodeid": 78, "leaf": 0.0127693387}]}, {"nodeid": 40, "depth": 5, "split": "ict_per90", "split_condition": 2.13291073, "yes": 79, "no": 80, "missing": 80, "children": [{"nodeid": 79, "leaf": -0.251010507}, {"nodeid": 80, "leaf": -0.130874932}]}]}, {"nodeid": 20, "depth": 4, "split": "xgc_per90", "split_condition": 1.222, "yes": 41, "no": 42, "missing": 42, "children": [{"nodeid": 41, "depth": 5, "split": "xa_per90", "split_condition": 0.0780975968, "yes": 81, "no": 82, "missing": 82, "children": [{"nodeid": 81, "leaf": -0.100949004}, {"nodeid": 82, "leaf": -0.310140938}]}, {"nodeid": 42, "depth": 5, "split": "selected_pct", "split_condition": 0.838379979, "yes": 83, "no": 84, "missing": 84, "children": [{"nodeid": 83, "leaf": 0.141161606}, {"nodeid": 84, "leaf": -0.225061655}]}]}]}, {"nodeid": 10, "depth": 3, "split": "selected_pct", "split_condition": 0.193350002, "yes": 21, "no": 22, "missing": 22, "children": [{"nodeid": 21, "depth": 4, "split": "xa_per90", "split_condition": 0.246627584, "yes": 43, "no": 44, "missing": 44, "children": [{"nodeid": 43, "depth": 5, "split": "bonus_per90", "split_condition": 0.230769232, "yes": 85, "no": 86, "missing": 86, "children": [{"nodeid": 85, "leaf": -0.0034732658}, {"nodeid": 86, "leaf": -0.0973211974}]}, {"nodeid": 44, "depth": 5, "split": "selected_pct", "split_condition": 0.0822300017, "yes": 87, "no": 88, "missing": 88, "children": [{"nodeid": 87, "leaf": 0.431154728}, {"nodeid": 88, "leaf": -0.00297176605}]}]}, {"nodeid": 22, "depth": 4, "split": "minutes_per90", "split_condition": 81, "yes": 45, "no": 46, "missing": 46, "children": [{"nodeid": 45, "depth": 5, "split": "ict_per90", "split_condition": 8.3168211, "yes": 89, "no": 90, "missing": 90, "children": [{"nodeid": 89, "leaf": 0.00121978752}, {"nodeid": 90, "leaf": 0.286633879}]}, {"nodeid": 46, "depth": 5, "split": "goals_per90", "split_condition": 0.345098048, "yes": 91, "no": 92, "missing": 92, "children": [{"nodeid": 91, "leaf": 0.159699842}, {"nodeid": 92, "leaf": -0.131106004}]}]}]}]}]}, {"nodeid": 2, "depth": 1, "split": "minutes_per90", "split_condition": 64.5999985, "yes": 5, "no": 6, "missing": 6, "children": [{"nodeid": 5, "depth": 2, "split": "goals_per90", "split_condition": 0.134831458, "yes": 11, "no": 12, "missing": 12, "children": [{"nodeid": 11, "depth": 3, "split": "selected_pct", "split_condition": 30.4110394, "yes": 23, "no": 24, "missing": 24, "children": [{"nodeid": 23, "depth": 4, "split": "selected_pct", "split_condition": 6.4924798, "yes": 47, "no": 48, "missing": 48, "children": [{"nodeid": 47, "depth": 5, "split": "npxg_per90", "split_condition": 0.171428576, "yes": 93, "no": 94, "missing": 94, "children": [{"nodeid": 93, "leaf": -0.10470213}, {"nodeid": 94, "leaf": 0.0597744472}]}, {"nodeid": 48, "depth": 5, "split": "npxg_per90", "split_condition": 0.148666665, "yes": 95, "no": 96, "missing": 96, "children": [{"nodeid": 95, "leaf": 0.0617868677}, {"nodeid": 96, "leaf": 0.438337952}]}]}, {"nodeid": 24, "depth": 4, "split": "selected_pct", "split_condition": 673, "yes": 49, "no": 50, "missing": 50, "children": [{"nodeid": 49, "depth": 5, "split": "minutes_per90", "split_condition": 25.2000008, "yes": 97, "no": 98, "missing": 98, "children": [{"nodeid": 97, "leaf": -0.33930105}, {"nodeid": 98, "leaf": -0.210686401}]}, {"nodeid": 50, "depth": 5, "split": "games_played", "split_condition": 5, "yes": 99, "no": 100, "missing": 100, "children": [{"nodeid": 99, "leaf": 0.169822186}, {"nodeid": 100, "leaf": -0.224231169}]}]}]}, {"nodeid": 12, "depth": 3, "split": "xgc_per90", "split_condition": 1.51800001, "yes": 25, "no": 26, "missing": 26, "children": [{"nodeid": 25, "depth": 4, "split": "xgc_per90", "split_condition": 0.925084531, "yes": 51, "no": 52, "missing": 52, "children": [{"nodeid": 51, "depth": 5, "split": "selected_pct", "split_condition": 9.72379971, "yes": 101, "no": 102, "missing": 102, "children": [{"nodeid": 101, "leaf": 0.154003963}, {"nodeid": 102, "leaf": -0.213939592}]}, {"nodeid": 52, "depth": 5, "split": "xa_per90", "split_condition": 0.0466666669, "yes": 103, "no": 104, "missing": 104, "children": [{"nodeid": 103, "leaf": 0.686600387}, {"nodeid": 104, "leaf": 0.238946483}]}]}, {"nodeid": 26, "depth": 4, "split": "selected_pct", "split_condition": 5.02350998, "yes": 53, "no": 54, "missing": 54, "children": [{"nodeid": 53, "depth": 5, "split": "xgc_per90", "split_condition": 1.66359997, "yes": 105, "no": 106, "missing": 106, "children": [{"nodeid": 105, "leaf": -0.269773692}, {"nodeid": 106, "leaf": -0.0218293797}]}, {"nodeid": 54, "leaf": 0.269434839}]}]}]}, {"nodeid": 6, "depth": 2, "split": "ict_per90", "split_condition": 4.94215059, "yes": 13, "no": 14, "missing": 14, "children": [{"nodeid": 13, "depth": 3, "split": "minutes_per90", "split_condition": 88.1999969, "yes": 27, "no": 28, "missing": 28, "children": [{"nodeid": 27, "depth": 4, "split": "xgc_per90", "split_condition": 0.983671844, "yes": 55, "no": 56, "missing": 56, "children": [{"nodeid": 55, "depth": 5, "split": "selected_pct", "split_condition": 1.84805, "yes": 107, "no": 108, "missing": 108, "children": [{"nodeid": 107, "leaf": 0.337190121}, {"nodeid": 108, "leaf": 0.056087561}]}, {"nodeid": 56, "depth": 5, "split": "xa_per90", "split_condition": 0.0353261158, "yes": 109, "no": 110, "missing": 110, "children": [{"nodeid": 109, "leaf": -0.143573076}, {"nodeid": 110, "leaf": 0.0317806415}]}]}, {"nodeid": 28, "depth": 4, "split": "npxg_per90", "split_condition": 0.142830998, "yes": 57, "no": 58, "missing": 58, "children": [{"nodeid": 57, "depth": 5, "split": "xgc_per90", "split_condition": 1.63738668, "yes": 111, "no": 112, "missing": 112, "children": [{"nodeid": 111, "leaf": 0.182959482}, {"nodeid": 112, "leaf": -0.0125045022}]}, {"nodeid": 58, "depth": 5, "split": "selected_pct", "split_condition": 6.07504988, "yes": 113, "no": 114, "missing": 114, "children": [{"nodeid": 113, "leaf": 0.234848186}, {"nodeid": 114, "leaf": 0.800038159}]}]}]}, {"nodeid": 14, "depth": 3, "split": "selected_pct", "split_condition": 17.4053497, "yes": 29, "no": 30, "missing": 30, "children": [{"nodeid": 29, "depth": 4, "split": "xgc_per90", "split_condition": 1.54952943, "yes": 59, "no": 60, "missing": 60, "children": [{"nodeid": 59, "depth": 5, "split": "bonus_per90", "split_condition": 0.635294139, "yes": 115, "no": 116, "missing": 116, "children": [{"nodeid": 115, "leaf": 0.349631339}, {"nodeid": 116, "leaf": 0.196703881}]}, {"nodeid": 60, "depth": 5, "split": "minutes_per90", "split_condition": 78.4000015, "yes": 117, "no": 118, "missing": 118, "children": [{"nodeid": 117, "leaf": 0.0118740965}, {"nodeid": 118, "leaf": 0.197953805}]}]}, {"nodeid": 30, "depth": 4, "split": "minutes_per90", "split_condition": 88.5999985, "yes": 61, "no": 62, "missing": 62, "children": [{"nodeid": 61, "depth": 5, "split": "xgc_per90", "split_condition": 1.58454549, "yes": 119, "no": 120, "missing": 120, "children": [{"nodeid": 119, "leaf": 0.441429377}, {"nodeid": 120, "leaf": 0.133682415}]}, {"nodeid": 62, "depth": 5, "split": "selected_pct", "split_condition": 25.1302299, "yes": 121, "no": 122, "missing": 122, "children": [{"nodeid": 121, "leaf": 0.389374554}, {"nodeid": 122, "leaf": 0.732409656}]}]}]}]}]}]}, {"nodeid": 0, "depth": 0, "split": "form", "split_condition": 3.20000005, "yes": 1, "no": 2, "missing": 2, "children": [{"nodeid": 1, "depth": 1, "split": "value", "split_condition": 5.30000019, "yes": 3, "no": 4, "missing": 4, "children": [{"nodeid": 3, "depth": 2, "split": "minutes_per90", "split_condition": 53.7999992, "yes": 7, "no": 8, "missing": 8, "children": [{"nodeid": 7, "depth": 3, "split": "value", "split_condition": 4.69999981, "yes": 15, "no": 16, "missing": 16, "children": [{"nodeid": 15, "depth": 4, "split": "xa_per90", "split_condition": 0.375498861, "yes": 31, "no": 32, "missing": 32, "children": [{"nodeid": 31, "depth": 5, "split": "xgc_per90", "split_condition": 0.391499996, "yes": 63, "no": 64, "missing": 64, "children": [{"nodeid": 63, "leaf": -0.199611574}, {"nodeid": 64, "leaf": -0.301558226}]}, {"nodeid": 32, "depth": 5, "split": "selected_pct", "split_condition": 0.154709995, "yes": 65, "no": 66, "missing": 66, "children": [{"nodeid": 65, "leaf": -0.205177411}, {"nodeid": 66, "leaf": -0.038965445}]}]}, {"nodeid": 16, "depth": 4, "split": "assists_per90", "split_condition": 0.607213855, "yes": 33, "no": 34, "missing": 34, "children": [{"nodeid": 33, "depth": 5, "split": "npxg_per90", "split_condition": 1.46476626, "yes": 67, "no": 68, "missing": 68, "children": [{"nodeid": 67, "leaf": -0.203042254}, {"nodeid": 68, "leaf": 0.134555966}]}, {"nodeid": 34, "depth": 5, "split": "selected_pct", "split_condition": 0.0316199996, "yes": 69, "no": 70, "missing": 70, "children": [{"nodeid": 69, "leaf": 0.421510994}, {"nodeid": 70, "leaf": -0.0965680927}]}]}]}, {"nodeid": 8, "depth": 3, "split": "selected_pct", "split_condition": 0.376899987, "yes": 17, "no": 18, "missing": 18, "children": [{"nodeid": 17, "depth": 4, "split": "xgc_per90", "split_condition": 3.16471696, "yes": 35, "no": 36, "missing": 36, "children": [{"nodeid": 35, "depth": 5, "split": "minutes_per90", "split_condition": 72.8000031, "yes": 71, "no": 72, "missing": 72, "children": [{"nodeid": 71, "leaf": -0.165977761}, {"nodeid": 72, "leaf": -0.0972449556}]}, {"nodeid": 36, "depth": 5, "split": "xgc_per90", "split_condition": 3.68934059, "yes": 73, "no": 74, "missing": 74, "children": [{"nodeid": 73, "leaf": 0.190320745}, {"nodeid": 74, "leaf": 0.00454605697}]}]}, {"nodeid": 18, "depth": 4, "split": "value", "split_condition": 4.4000001, "yes": 37, "no": 38, "missing": 38, "children": [{"nodeid": 37, "depth": 5, "split": "selected_pct", "split_condition": 1.38748002, "yes": 75, "no": 76, "missing": 76, "children": [{"nodeid": 75, "leaf": -0.276621997}, {"nodeid": 76, "leaf": 0.0136572169}]}, {"nodeid": 38, "depth": 5, "split": "form", "split_condition": 2.20000005, "yes": 77, "no": 78, "missing": 78, "children": [{"nodeid": 77, "leaf": -0.0572239533}, {"nodeid": 78, "leaf": 0.0530383773}]}]}]}]}, {"nodeid": 4, "depth": 2, "split": "minutes_per90", "split_condition": 73, "yes": 9, "no": 10, "missing": 10, "children": [{"nodeid": 9, "depth": 3, "split": "selected_pct", "split_condition": 6.28970003, "yes": 19, "no": 20, "missing": 20, "children": [{"nodeid": 19, "depth": 4, "split": "selected_pct", "split_condition": 0.743929982, "yes": 39, "no": 40, "missing": 40, "children": [{"nodeid": 39, "depth": 5, "split": "xgc_per90", "split_condition": 2.93818188, "yes": 79, "no": 80, "missing": 80, "children": [{"nodeid": 79, "leaf": -0.131969482}, {"nodeid": 80, "leaf": 0.109979689}]}, {"nodeid": 40, "depth": 5, "split": "npxg_per90", "split_condition": 0.0468542241, "yes": 81, "no": 82, "missing": 82, "children": [{"nodeid": 81, "leaf": -0.0832658261}, {"nodeid": 82, "leaf": 0.0611387677}]}]}, {"nodeid": 20, "depth": 4, "split": "xgc_per90", "split_condition": 1.14873731, "yes": 41, "no": 42, "missing": 42, "children": [{"nodeid": 41, "depth": 5, "split": "selected_pct", "split_condition": 11.5190401, "yes": 83, "no": 84, "missing": 84, "children": [{"nodeid": 83, "leaf": 0.196526095}, {"nodeid": 84, "leaf": -0.257600397}]}, {"nodeid": 42, "depth": 5, "split": "xa_per90", "split_condition": 0.1435, "yes": 85, "no": 86, "missing": 86, "children": [{"nodeid": 85, "leaf": 0.598638117}, {"nodeid": 86, "leaf": 0.265383601}]}]}]}, {"nodeid": 10, "depth": 3, "split": "value", "split_condition": 7.69999981, "yes": 21, "no": 22, "missing": 22, "children": [{"nodeid": 21, "depth": 4, "split": "value", "split_condition": 7.0999999, "yes": 43, "no": 44, "missing": 44, "children": [{"nodeid": 43, "depth": 5, "split": "value", "split_condition": 5.4000001, "yes": 87, "no": 88, "missing": 88, "children": [{"nodeid": 87, "leaf": 0.0114081521}, {"nodeid": 88, "leaf": 0.163646325}]}, {"nodeid": 44, "leaf": -0.22347033}]}, {"nodeid": 22, "depth": 4, "split": "assists_per90", "split_condition": 0.134831458, "yes": 45, "no": 46, "missing": 46, "children": [{"nodeid": 45, "depth": 5, "split": "is_home_next", "split_condition": 1, "yes": 89, "no": 90, "missing": 90, "children": [{"nodeid": 89, "leaf": 0.63526082}, {"nodeid": 90, "leaf": 0.375814199}]}, {"nodeid": 46, "leaf": 0.203210518}]}]}]}]}, {"nodeid": 2, "depth": 1, "split": "selected_pct", "split_condition": 5.42892981, "yes": 5, "no": 6, "missing": 6, "children": [{"nodeid": 5, "depth": 2, "split": "value", "split_condition": 5.4000001, "yes": 11, "no": 12, "missing": 12, "children": [{"nodeid": 11, "depth": 3, "split": "selected_pct", "split_condition": 0.559560001, "yes": 23, "no": 24, "missing": 24, "children": [{"nodeid": 23, "depth": 4, "split": "minutes_per90", "split_condition": 37.5999985, "yes": 47, "no": 48, "missing": 48, "children": [{"nodeid": 47, "depth": 5, "split": "xgc_per90", "split_condition": 1.57039237, "yes": 91, "no": 92, "missing": 92, "children": [{"nodeid": 91, "leaf": -0.358646452}, {"nodeid": 92, "leaf": -0.0810545906}]}, {"nodeid": 48, "depth": 5, "split": "npxg_per90", "split_condition": 0.411466658, "yes": 93, "no": 94, "missing": 94, "children": [{"nodeid": 93, "leaf": -0.0406950302}, {"nodeid": 94, "leaf": 0.323040694}]}]}, {"nodeid": 24, "depth": 4, "split": "value", "split_condition": 5.30000019, "yes": 49, "no": 50, "missing": 50, "children": [{"nodeid": 49, "depth": 5, "split": "xa_per90", "split_condition": 0.0826666653, "yes": 95, "no": 96, "missing": 96, "children": [{"nodeid": 95, "leaf": 0.199802756}, {"nodeid": 96, "leaf": 0.0395619981}]}, {"nodeid": 50, "depth": 5, "split": "assists_per90", "split_condition": 0.15384616, "yes": 97, "no": 98, "missing": 98, "children": [{"nodeid": 97, "leaf": -0.0547088161}, {"nodeid": 98, "leaf": -0.20645237}]}]}]}, {"nodeid": 12, "depth": 3, "split": "xa_per90", "split_condition": 0.218259439, "yes": 25, "no": 26, "missing": 26, "children": [{"nodeid": 25, "depth": 4, "split": "value", "split_condition": 6.5, "yes": 51, "no": 52, "missing": 52, "children": [{"nodeid": 51, "depth": 5, "split": "assists_per90", "split_condition": 0.923076928, "yes": 99, "no": 100, "missing": 100, "children": [{"nodeid": 99, "leaf": 0.119916014}, {"nodeid": 100, "leaf": -0.297620118}]}, {"nodeid": 52, "depth": 5, "split": "xgc_per90", "split_condition": 1.54240501, "yes": 101, "no": 102, "missing": 102, "children": [{"nodeid": 101, "leaf": 0.33776173}, {"nodeid": 102, "leaf": 0.00301328278}]}]}, {"nodeid": 26, "depth": 4, "split": "npxg_per90", "split_condition": 0.158956856, "yes": 53, "no": 54, "missing": 54, "children": [{"nodeid": 53, "depth": 5, "split": "value", "split_condition": 5.5999999, "yes": 103, "no": 104, "missing": 104, "children": [{"nodeid": 103, "leaf": 0.238652781}, {"nodeid": 104, "leaf": 0.599574685}]}, {"nodeid": 54, "depth": 5, "split": "selected_pct", "split_condition": 0.928529978, "yes": 105, "no": 106, "missing": 106, "children": [{"nodeid": 105, "leaf": 0.707385004}, {"nodeid": 106, "leaf": 0.027452752}]}]}]}]}, {"nodeid": 6, "depth": 2, "split": "value", "split_condition": 11.8999996, "yes": 13, "no": 14, "missing": 14, "children": [{"nodeid": 13, "depth": 3, "split": "selected_pct", "split_condition": 35.4640999, "yes": 27, "no": 28, "missing": 28, "children": [{"nodeid": 27, "depth": 4, "split": "assists_per90", "split_condition": 0.649999976, "yes": 55, "no": 56, "missing": 56, "children": [{"nodeid": 55, "depth": 5, "split": "minutes_per90", "split_condition": 71.5, "yes": 107, "no": 108, "missing": 108, "children": [{"nodeid": 107, "leaf": 0.0976073965}, {"nodeid": 108, "leaf": 0.314851075}]}, {"nodeid": 56, "depth": 5, "split": "value", "split_condition": 7.5, "yes": 109, "no": 110, "missing": 110, "children": [{"nodeid": 109, "leaf": -0.175793067}, {"nodeid": 110, "leaf": 0.333191812}]}]}, {"nodeid": 28, "depth": 4, "split": "assists_per90", "split_condition": 0.46875, "yes": 57, "no": 58, "missing": 58, "children": [{"nodeid": 57, "depth": 5, "split": "minutes_per90", "split_condition": 84.5999985, "yes": 111, "no": 112, "missing": 112, "children": [{"nodeid": 111, "leaf": 0.413980931}, {"nodeid": 112, "leaf": 0.80603379}]}, {"nodeid": 58, "depth": 5, "split": "xgc_per90", "split_condition": 1.02081668, "yes": 113, "no": 114, "missing": 114, "children": [{"nodeid": 113, "leaf": 0.503254294}, {"nodeid": 114, "leaf": -0.0292849373}]}]}]}, {"nodeid": 14, "depth": 3, "split": "xgc_per90", "split_condition": 0.983671844, "yes": 29, "no": 30, "missing": 30, "children": [{"nodeid": 29, "depth": 4, "split": "npxg_per90", "split_condition": 0.00266666664, "yes": 59, "no": 60, "missing": 60, "children": [{"nodeid": 59, "leaf": 0.675603271}, {"nodeid": 60, "depth": 5, "split": "xgc_per90", "split_condition": 0.813555539, "yes": 115, "no": 116, "missing": 116, "children": [{"nodeid": 115, "leaf": -0.0736330748}, {"nodeid": 116, "leaf": 0.357218832}]}]}, {"nodeid": 30, "depth": 4, "split": "value", "split_condition": 13, "yes": 61, "no": 62, "missing": 62, "children": [{"nodeid": 61, "leaf": 1.22975123}, {"nodeid": 62, "leaf": 0.555774689}]}]}]}]}]}, {"nodeid": 0, "depth": 0, "split": "form", "split_condition": 3.20000005, "yes": 1, "no": 2, "missing": 2, "children": [{"nodeid": 1, "depth": 1, "split": "minutes_per90", "split_condition": 67.8000031, "yes": 3, "no": 4, "missing": 4, "children": [{"nodeid": 3, "depth": 2, "split": "value", "split_condition": 5.30000019, "yes": 7, "no": 8, "missing": 8, "children": [{"nodeid": 7, "depth": 3, "split": "form", "split_condition": 1.33333337, "yes": 15, "no": 16, "missing": 16, "children": [{"nodeid": 15, "depth": 4, "split": "bps_per90", "split_condition": 50.2507286, "yes": 31, "no": 32, "missing": 32, "children": [{"nodeid": 31, "depth": 5, "split": "xgc_per90", "split_condition": 0.342636138, "yes": 63, "no": 64, "missing": 64, "children": [{"nodeid": 63, "leaf": -0.153453022}, {"nodeid": 64, "leaf": -0.230230957}]}, {"nodeid": 32, "depth": 5, "split": "value", "split_condition": 4.9000001, "yes": 65, "no": 66, "missing": 66, "children": [{"nodeid": 65, "leaf": -0.318885297}, {"nodeid": 66, "leaf": -0.193392262}]}]}, {"nodeid": 16, "depth": 4, "split": "value", "split_condition": 4.5999999, "yes": 33, "no": 34, "missing": 34, "children": [{"nodeid": 33, "depth": 5, "split": "minutes_per90", "split_condition": 50.7999992, "yes": 67, "no": 68, "missing": 68, "children": [{"nodeid": 67, "leaf": -0.272635788}, {"nodeid": 68, "leaf": -0.165321991}]}, {"nodeid": 34, "depth": 5, "split": "ict_per90", "split_condition": 3.64666677, "yes": 69, "no": 70, "missing": 70, "children": [{"nodeid": 69, "leaf": -0.184531912}, {"nodeid": 70, "leaf": -0.0816434845}]}]}]}, {"nodeid": 8, "depth": 3, "split": "value", "split_condition": 6.19999981, "yes": 17, "no": 18, "missing": 18, "children": [{"nodeid": 17, "depth": 4, "split": "assists_per90", "split_condition": 0.358391613, "yes": 35, "no": 36, "missing": 36, "children": [{"nodeid": 35, "depth": 5, "split": "clean_sheets_per90", "split_condition": 0.295825779, "yes": 71, "no": 72, "missing": 72, "children": [{"nodeid": 71, "leaf": -0.1092216}, {"nodeid": 72, "leaf": -0.247965798}]}, {"nodeid": 36, "depth": 5, "split": "xgc_per90", "split_condition": 0.787991166, "yes": 73, "no": 74, "missing": 74, "children": [{"nodeid": 73, "leaf": -0.134897217}, {"nodeid": 74, "leaf": 0.137307599}]}]}, {"nodeid": 18, "depth": 4, "split": "form", "split_condition": 2, "yes": 37, "no": 38, "missing": 38, "children": [{"nodeid": 37, "depth": 5, "split": "xgc_per90", "split_condition": 2.00500011, "yes": 75, "no": 76, "missing": 76, "children": [{"nodeid": 75, "leaf": -0.125924334}, {"nodeid": 76, "leaf": 0.225953698}]}, {"nodeid": 38, "depth": 5, "split": "xgc_per90", "split_condition": 0.107979313, "yes": 77, "no": 78, "missing": 78, "children": [{"nodeid": 77, "leaf": 0.331241935}, {"nodeid": 78, "leaf": 0.0708763823}]}]}]}]}, {"nodeid": 4, "depth": 2, "split": "value", "split_condition": 5.4000001, "yes": 9, "no": 10, "missing": 10, "children": [{"nodeid": 9, "depth": 3, "split": "ict_per90", "split_condition": 3.28952384, "yes": 19, "no": 20, "missing": 20, "children": [{"nodeid": 19, "depth": 4, "split": "bps_per90", "split_condition": 5.68817186, "yes": 39, "no": 40, "missing": 40, "children": [{"nodeid": 39, "depth": 5, "split": "clean_sheets_per90", "split_condition": 0.268656731, "yes": 79, "no": 80, "missing": 80, "children": [{"nodeid": 79, "leaf": -0.0783993825}, {"nodeid": 80, "leaf": 0.284431577}]}, {"nodeid": 40, "depth": 5, "split": "bps_per90", "split_condition": 13.9161062, "yes": 81, "no": 82, "missing": 82, "children": [{"nodeid": 81, "leaf": -0.0903183147}, {"nodeid": 82, "leaf": -0.19878076}]}]}, {"nodeid": 20, "depth": 4, "split": "bps_per90", "split_condition": 11.4620686, "yes": 41, "no": 42, "missing": 42, "children": [{"nodeid": 41, "depth": 5, "split": "clean_sheets_per90", "split_condition": 0.523495436, "yes": 83, "no": 84, "missing": 84, "children": [{"nodeid": 83, "leaf": 0.0206206646}, {"nodeid": 84, "leaf": 0.228642941}]}, {"nodeid": 42, "depth": 5, "split": "xgc_per90", "split_condition": 2.66559434, "yes": 85, "no": 86, "missing": 86, "children": [{"nodeid": 85, "leaf": -0.0713149533}, {"nodeid": 86, "leaf": 0.155328289}]}]}]}, {"nodeid": 10, "depth": 3, "split": "ict_per90", "split_condition": 3.06135964, "yes": 21, "no": 22, "missing": 22, "children": [{"nodeid": 21, "depth": 4, "split": "xgc_per90", "split_condition": 0.107979313, "yes": 43, "no": 44, "missing": 44, "children": [{"nodeid": 43, "depth": 5, "split": "minutes_per90", "split_condition": 75.5999985, "yes": 87, "no": 88, "missing": 88, "children": [{"nodeid": 87, "leaf": -0.039099928}, {"nodeid": 88, "leaf": 0.227520034}]}, {"nodeid": 44, "depth": 5, "split": "form", "split_condition": 1.66666663, "yes": 89, "no": 90, "missing": 90, "children": [{"nodeid": 89, "leaf": 0.0677874014}, {"nodeid": 90, "leaf": -0.107170403}]}]}, {"nodeid": 22, "depth": 4, "split": "ict_per90", "split_condition": 8.53574085, "yes": 45, "no": 46, "missing": 46, "children": [{"nodeid": 45, "depth": 5, "split": "minutes_per90", "split_condition": 81, "yes": 91, "no": 92, "missing": 92, "children": [{"nodeid": 91, "leaf": 0.0984830186}, {"nodeid": 92, "leaf": 0.230049878}]}, {"nodeid": 46, "leaf": 0.599305391}]}]}]}]}, {"nodeid": 2, "depth": 1, "split": "value", "split_condition": 6.5999999, "yes": 5, "no": 6, "missing": 6, "children": [{"nodeid": 5, "depth": 2, "split": "minutes_per90", "split_condition": 59.5999985, "yes": 11, "no": 12, "missing": 12, "children": [{"nodeid": 11, "depth": 3, "split": "minutes_per90", "split_condition": 32, "yes": 23, "no": 24, "missing": 24, "children": [{"nodeid": 23, "depth": 4, "split": "bonus_per90", "split_condition": 0.13333334, "yes": 47, "no": 48, "missing": 48, "children": [{"nodeid": 47, "leaf": -0.0816450641}, {"nodeid": 48, "depth": 5, "split": "goals_per90", "split_condition": 1.41176474, "yes": 93, "no": 94, "missing": 94, "children": [{"nodeid": 93, "leaf": -0.325243056}, {"nodeid": 94, "leaf": -0.173907846}]}]}, {"nodeid": 24, "depth": 4, "split": "bonus_per90", "split_condition": 0.864578307, "yes": 49, "no": 50, "missing": 50, "children": [{"nodeid": 49, "depth": 5, "split": "goals_per90", "split_condition": 0.13333334, "yes": 95, "no": 96, "missing": 96, "children": [{"nodeid": 95, "leaf": -0.265027493}, {"nodeid": 96, "leaf": -0.0168187227}]}, {"nodeid": 50, "depth": 5, "split": "xgc_per90", "split_condition": 0.856617033, "yes": 97, "no": 98, "missing": 98, "children": [{"nodeid": 97, "leaf": -0.163619369}, {"nodeid": 98, "leaf": 0.350827128}]}]}]}, {"nodeid": 12, "depth": 3, "split": "ict_per90", "split_condition": 5.55951786, "yes": 25, "no": 26, "missing": 26, "children": [{"nodeid": 25, "depth": 4, "split": "value", "split_condition": 5.4000001, "yes": 51, "no": 52, "missing": 52, "children": [{"nodeid": 51, "depth": 5, "split": "xgc_per90", "split_condition": 0.423999995, "yes": 99, "no": 100, "missing": 100, "children": [{"nodeid": 99, "leaf": 0.131485745}, {"nodeid": 100, "leaf": -0.0237596985}]}, {"nodeid": 52, "depth": 5, "split": "ict_per90", "split_condition": 3.1400001, "yes": 101, "no": 102, "missing": 102, "children": [{"nodeid": 101, "leaf": -0.19315809}, {"nodeid": 102, "leaf": 0.133092716}]}]}, {"nodeid": 26, "depth": 4, "split": "xgc_per90", "split_condition": 1.296, "yes": 53, "no": 54, "missing": 54, "children": [{"nodeid": 53, "depth": 5, "split": "bps_per90", "split_condition": 23.1530666, "yes": 103, "no": 104, "missing": 104, "children": [{"nodeid": 103, "leaf": 0.311709851}, {"nodeid": 104, "leaf": 0.103322051}]}, {"nodeid": 54, "depth": 5, "split": "form", "split_condition": 7.5999999, "yes": 105, "no": 106, "missing": 106, "children": [{"nodeid": 105, "leaf": 0.114540987}, {"nodeid": 106, "leaf": 0.536341846}]}]}]}]}, {"nodeid": 6, "depth": 2, "split": "minutes_per90", "split_condition": 86.4000015, "yes": 13, "no": 14, "missing": 14, "children": [{"nodeid": 13, "depth": 3, "split": "value", "split_condition": 11.8999996, "yes": 27, "no": 28, "missing": 28, "children": [{"nodeid": 27, "depth": 4, "split": "clean_sheets_per90", "split_condition": 0.13333334, "yes": 55, "no": 56, "missing": 56, "children": [{"nodeid": 55, "depth": 5, "split": "ict_per90", "split_condition": 7.54102564, "yes": 107, "no": 108, "missing": 108, "children": [{"nodeid": 107, "leaf": 0.14470838}, {"nodeid": 108, "leaf": -0.0952200517}]}, {"nodeid": 56, "depth": 5, "split": "ict_per90", "split_condition": 6.19710159, "yes": 109, "no": 110, "missing": 110, "children": [{"nodeid": 109, "leaf": 0.119890369}, {"nodeid": 110, "leaf": 0.294906348}]}]}, {"nodeid": 28, "depth": 4, "split": "bonus_per90", "split_condition": 0.936329603, "yes": 57, "no": 58, "missing": 58, "children": [{"nodeid": 57, "depth": 5, "split": "value", "split_condition": 12.8999996, "yes": 111, "no": 112, "missing": 112, "children": [{"nodeid": 111, "leaf": 0.935009778}, {"nodeid": 112, "leaf": 0.48286435}]}, {"nodeid": 58, "leaf": -0.076956965}]}]}, {"nodeid": 14, "depth": 3, "split": "xgc_per90", "split_condition": 1.37798154, "yes": 29, "no": 30, "missing": 30, "children": [{"nodeid": 29, "depth": 4, "split": "bps_per90", "split_condition": 15.8000002, "yes": 59, "no": 60, "missing": 60, "children": [{"nodeid": 59, "depth": 5, "split": "is_penalty_taker", "split_condition": 1, "yes": 113, "no": 114, "missing": 114, "children": [{"nodeid": 113, "leaf": 0.464909792}, {"nodeid": 114, "leaf": 0.0504086278}]}, {"nodeid": 60, "depth": 5, "split": "clean_sheets_per90", "split_condition": 0.486274511, "yes": 115, "no": 116, "missing": 116, "children": [{"nodeid": 115, "leaf": 0.631949127}, {"nodeid": 116, "leaf": 0.389687002}]}]}, {"nodeid": 30, "depth": 4, "split": "minutes_per90", "split_condition": 89.4000015, "yes": 61, "no": 62, "missing": 62, "children": [{"nodeid": 61, "depth": 5, "split": "bonus_per90", "split_condition": 0.300000012, "yes": 117, "no": 118, "missing": 118, "children": [{"nodeid": 117, "leaf": 0.214473829}, {"nodeid": 118, "leaf": -0.136513576}]}, {"nodeid": 62, "depth": 5, "split": "bonus_per90", "split_condition": 0.675000012, "yes": 119, "no": 120, "missing": 120, "children": [{"nodeid": 119, "leaf": 0.451832384}, {"nodeid": 120, "leaf": 0.130399317}]}]}]}]}]}]}, {"nodeid": 0, "depth": 0, "split": "value", "split_condition": 5.4000001, "yes": 1, "no": 2, "missing": 2, "children": [{"nodeid": 1, "depth": 1, "split": "minutes_per90", "split_condition": 57.2000008, "yes": 3, "no": 4, "missing": 4, "children": [{"nodeid": 3, "depth": 2, "split": "value", "split_condition": 4.5999999, "yes": 7, "no": 8, "missing": 8, "children": [{"nodeid": 7, "depth": 3, "split": "xgc_per90", "split_condition": 0.423999995, "yes": 15, "no": 16, "missing": 16, "children": [{"nodeid": 15, "depth": 4, "split": "ict_per90", "split_condition": 4.25968456, "yes": 31, "no": 32, "missing": 32, "children": [{"nodeid": 31, "depth": 5, "split": "ict_per90", "split_condition": 2.04637671, "yes": 61, "no": 62, "missing": 62, "children": [{"nodeid": 61, "leaf": -0.231869653}, {"nodeid": 62, "leaf": 0.0415537991}]}, {"nodeid": 32, "depth": 5, "split": "form", "split_condition": 2.20000005, "yes": 63, "no": 64, "missing": 64, "children": [{"nodeid": 63, "leaf": -0.275717288}, {"nodeid": 64, "leaf": -0.0748462901}]}]}, {"nodeid": 16, "depth": 4, "split": "value", "split_condition": 4.19999981, "yes": 33, "no": 34, "missing": 34, "children": [{"nodeid": 33, "depth": 5, "split": "form", "split_condition": 1.5, "yes": 65, "no": 66, "missing": 66, "children": [{"nodeid": 65, "leaf": 0.11162778}, {"nodeid": 66, "leaf": -0.236218616}]}, {"nodeid": 34, "depth": 5, "split": "xa_per90", "split_condition": 0.958689094, "yes": 67, "no": 68, "missing": 68, "children": [{"nodeid": 67, "leaf": -0.285258263}, {"nodeid": 68, "leaf": -0.0557071567}]}]}]}, {"nodeid": 8, "depth": 3, "split": "form", "split_condition": 1.33333337, "yes": 17, "no": 18, "missing": 18, "children": [{"nodeid": 17, "depth": 4, "split": "npxg_per90", "split_condition": 0.0579399988, "yes": 35, "no": 36, "missing": 36, "children": [{"nodeid": 35, "depth": 5, "split": "xgc_per90", "split_condition": 8.82413769, "yes": 69, "no": 70, "missing": 70, "children": [{"nodeid": 69, "leaf": -0.242924675}, {"nodeid": 70, "leaf": -0.0863175616}]}, {"nodeid": 36, "depth": 5, "split": "ict_per90", "split_condition": 14.8060608, "yes": 71, "no": 72, "missing": 72, "children": [{"nodeid": 71, "leaf": -0.133507177}, {"nodeid": 72, "leaf": -0.313434452}]}]}, {"nodeid": 18, "depth": 4, "split": "ict_per90", "split_condition": 4.81677437, "yes": 37, "no": 38, "missing": 38, "children": [{"nodeid": 37, "depth": 5, "split": "xa_per90", "split_condition": 0.211585611, "yes": 73, "no": 74, "missing": 74, "children": [{"nodeid": 73, "leaf": -0.166731298}, {"nodeid": 74, "leaf": 0.0397059135}]}, {"nodeid": 38, "depth": 5, "split": "clean_sheets_per90", "split_condition": 0.493872315, "yes": 75, "no": 76, "missing": 76, "children": [{"nodeid": 75, "leaf": -0.0768195838}, {"nodeid": 76, "leaf": 0.20152913}]}]}]}]}, {"nodeid": 4, "depth": 2, "split": "ict_per90", "split_condition": 3.28952384, "yes": 9, "no": 10, "missing": 10, "children": [{"nodeid": 9, "depth": 3, "split": "ict_per90", "split_condition": 2.13291073, "yes": 19, "no": 20, "missing": 20, "children": [{"nodeid": 19, "depth": 4, "split": "minutes_per90", "split_condition": 71.5999985, "yes": 39, "no": 40, "missing": 40, "children": [{"nodeid": 39, "depth": 5, "split": "xa_per90", "split_condition": 0.00197599991, "yes": 77, "no": 78, "missing": 78, "children": [{"nodeid": 77, "leaf": -0.16061376}, {"nodeid": 78, "leaf": -0.297161907}]}, {"nodeid": 40, "depth": 5, "split": "xa_per90", "split_condition": 0.0109629631, "yes": 79, "no": 80, "missing": 80, "children": [{"nodeid": 79, "leaf": -0.00480990997}, {"nodeid": 80, "leaf": -0.171891272}]}]}, {"nodeid": 20, "depth": 4, "split": "xgc_per90", "split_condition": 2.42277884, "yes": 41, "no": 42, "missing": 42, "children": [{"nodeid": 41, "depth": 5, "split": "xa_per90", "split_condition": 0.00693434337, "yes": 81, "no": 82, "missing": 82, "children": [{"nodeid": 81, "leaf": -0.0165028218}, {"nodeid": 82, "leaf": -0.101060949}]}, {"nodeid": 42, "depth": 5, "split": "npxg_per90", "split_condition": 0.009333333, "yes": 83, "no": 84, "missing": 84, "children": [{"nodeid": 83, "leaf": 0.211350352}, {"nodeid": 84, "leaf": -0.0779830441}]}]}]}, {"nodeid": 10, "depth": 3, "split": "xa_per90", "split_condition": 0.00693434337, "yes": 21, "no": 22, "missing": 22, "children": [{"nodeid": 21, "depth": 4, "split": "form", "split_condition": 3.20000005, "yes": 43, "no": 44, "missing": 44, "children": [{"nodeid": 43, "depth": 5, "split": "minutes_per90", "split_condition": 84, "yes": 85, "no": 86, "missing": 86, "children": [{"nodeid": 85, "leaf": -0.0481351726}, {"nodeid": 86, "leaf": 0.165183246}]}, {"nodeid": 44, "depth": 5, "split": "ict_per90", "split_condition": 4.54666662, "yes": 87, "no": 88, "missing": 88, "children": [{"nodeid": 87, "leaf": 0.0114889024}, {"nodeid": 88, "leaf": 0.33008194}]}]}, {"nodeid": 22, "depth": 4, "split": "form", "split_condition": 3.66666675, "yes": 45, "no": 46, "missing": 46, "children": [{"nodeid": 45, "depth": 5, "split": "xgc_per90", "split_condition": 2.88002968, "yes": 89, "no": 90, "missing": 90, "children": [{"nodeid": 89, "leaf": -0.0526492372}, {"nodeid": 90, "leaf": 0.177126408}]}, {"nodeid": 46, "depth": 5, "split": "minutes_per90", "split_condition": 82.1999969, "yes": 91, "no": 92, "missing": 92, "children": [{"nodeid": 91, "leaf": -0.0140857268}, {"nodeid": 92, "leaf": 0.141396806}]}]}]}]}]}, {"nodeid": 2, "depth": 1, "split": "minutes_per90", "split_condition": 67.5999985, "yes": 5, "no": 6, "missing": 6, "children": [{"nodeid": 5, "depth": 2, "split": "form", "split_condition": 2.20000005, "yes": 11, "no": 12, "missing": 12, "children": [{"nodeid": 11, "depth": 3, "split": "value", "split_condition": 7.9000001, "yes": 23, "no": 24, "missing": 24, "children": [{"nodeid": 23, "depth": 4, "split": "ict_per90", "split_condition": 5.08533335, "yes": 47, "no": 48, "missing": 48, "children": [{"nodeid": 47, "depth": 5, "split": "npxg_per90", "split_condition": 0.101666667, "yes": 93, "no": 94, "missing": 94, "children": [{"nodeid": 93, "leaf": -0.121184163}, {"nodeid": 94, "leaf": -0.254848331}]}, {"nodeid": 48, "depth": 5, "split": "minutes_per90", "split_condition": 50, "yes": 95, "no": 96, "missing": 96, "children": [{"nodeid": 95, "leaf": -0.0975607783}, {"nodeid": 96, "leaf": 0.085942179}]}]}, {"nodeid": 24, "leaf": 0.381347746}]}, {"nodeid": 12, "depth": 3, "split": "ict_per90", "split_condition": 6.85176468, "yes": 25, "no": 26, "missing": 26, "children": [{"nodeid": 25, "depth": 4, "split": "form", "split_condition": 5, "yes": 49, "no": 50, "missing": 50, "children": [{"nodeid": 49, "depth": 5, "split": "bonus_per90", "split_condition": 0.239999995, "yes": 97, "no": 98, "missing": 98, "children": [{"nodeid": 97, "leaf": 0.0317124687}, {"nodeid": 98, "leaf": -0.134293526}]}, {"nodeid": 50, "leaf": 0.292175353}]}, {"nodeid": 26, "depth": 4, "split": "minutes_per90", "split_condition": 54.2000008, "yes": 51, "no": 52, "missing": 52, "children": [{"nodeid": 51, "depth": 5, "split": "xgc_per90", "split_condition": 0.717954516, "yes": 99, "no": 100, "missing": 100, "children": [{"nodeid": 99, "leaf": -0.104578175}, {"nodeid": 100, "leaf": 0.141122237}]}, {"nodeid": 52, "depth": 5, "split": "xgc_per90", "split_condition": 1.51016605, "yes": 101, "no": 102, "missing": 102, "children": [{"nodeid": 101, "leaf": 0.358824432}, {"nodeid": 102, "leaf": -0.0356737711}]}]}]}]}, {"nodeid": 6, "depth": 2, "split": "ict_per90", "split_condition": 4.97477436, "yes": 13, "no": 14, "missing": 14, "children": [{"nodeid": 13, "depth": 3, "split": "minutes_per90", "split_condition": 85.1999969, "yes": 27, "no": 28, "missing": 28, "children": [{"nodeid": 27, "depth": 4, "split": "ict_per90", "split_condition": 3.0314641, "yes": 53, "no": 54, "missing": 54, "children": [{"nodeid": 53, "depth": 5, "split": "form", "split_condition": 2.66666675, "yes": 103, "no": 104, "missing": 104, "children": [{"nodeid": 103, "leaf": -0.0572509952}, {"nodeid": 104, "leaf": -0.243923709}]}, {"nodeid": 54, "depth": 5, "split": "minutes_per90", "split_condition": 84.4000015, "yes": 105, "no": 106, "missing": 106, "children": [{"nodeid": 105, "leaf": 0.104301147}, {"nodeid": 106, "leaf": -0.170226783}]}]}, {"nodeid": 28, "depth": 4, "split": "form", "split_condition": 3.25, "yes": 55, "no": 56, "missing": 56, "children": [{"nodeid": 55, "depth": 5, "split": "ict_per90", "split_condition": 3.0314641, "yes": 107, "no": 108, "missing": 108, "children": [{"nodeid": 107, "leaf": 0.0932882652}, {"nodeid": 108, "leaf": 0.31236735}]}, {"nodeid": 56, "depth": 5, "split": "bonus_per90", "split_condition": 0.404494375, "yes": 109, "no": 110, "missing": 110, "children": [{"nodeid": 109, "leaf": 0.0562234595}, {"nodeid": 110, "leaf": 0.275112361}]}]}]}, {"nodeid": 14, "depth": 3, "split": "value", "split_condition": 8, "yes": 29, "no": 30, "missing": 30, "children": [{"nodeid": 29, "depth": 4, "split": "assists_per90", "split_condition": 0.649999976, "yes": 57, "no": 58, "missing": 58, "children": [{"nodeid": 57, "depth": 5, "split": "form", "split_condition": 3, "yes": 111, "no": 112, "missing": 112, "children": [{"nodeid": 111, "leaf": 0.102386408}, {"nodeid": 112, "leaf": 0.279083103}]}, {"nodeid": 58, "depth": 5, "split": "minutes_per90", "split_condition": 71.5, "yes": 113, "no": 114, "missing": 114, "children": [{"nodeid": 113, "leaf": 0.375167817}, {"nodeid": 114, "leaf": -0.0613095537}]}]}, {"nodeid": 30, "depth": 4, "split": "ict_per90", "split_condition": 8.10704517, "yes": 59, "no": 60, "missing": 60, "children": [{"nodeid": 59, "depth": 5, "split": "clean_sheets_per90", "split_condition": 0.470411986, "yes": 115, "no": 116, "missing": 116, "children": [{"nodeid": 115, "leaf": 0.214550123}, {"nodeid": 116, "leaf": 0.553730071}]}, {"nodeid": 60, "depth": 5, "split": "bonus_per90", "split_condition": 1.08571434, "yes": 117, "no": 118, "missing": 118, "children": [{"nodeid": 117, "leaf": 0.595204532}, {"nodeid": 118, "leaf": 0.153120935}]}]}]}]}]}]}, {"nodeid": 0, "depth": 0, "split": "form", "split_condition": 3.20000005, "yes": 1, "no": 2, "missing": 2, "children": [{"nodeid": 1, "depth": 1, "split": "minutes_per90", "split_condition": 72.1999969, "yes": 3, "no": 4, "missing": 4, "children": [{"nodeid": 3, "depth": 2, "split": "value", "split_condition": 5.30000019, "yes": 7, "no": 8, "missing": 8, "children": [{"nodeid": 7, "depth": 3, "split": "form", "split_condition": 1.5, "yes": 15, "no": 16, "missing": 16, "children": [{"nodeid": 15, "depth": 4, "split": "selected_pct", "split_condition": 1.17175996, "yes": 31, "no": 32, "missing": 32, "children": [{"nodeid": 31, "depth": 5, "split": "bps_per90", "split_condition": 50.2507286, "yes": 61, "no": 62, "missing": 62, "children": [{"nodeid": 61, "leaf": -0.194371358}, {"nodeid": 62, "leaf": -0.279523641}]}, {"nodeid": 32, "depth": 5, "split": "selected_pct", "split_condition": 5.85032988, "yes": 63, "no": 64, "missing": 64, "children": [{"nodeid": 63, "leaf": 0.106726013}, {"nodeid": 64, "leaf": -0.194869921}]}]}, {"nodeid": 16, "depth": 4, "split": "value", "split_condition": 4.5, "yes": 33, "no": 34, "missing": 34, "children": [{"nodeid": 33, "depth": 5, "split": "selected_pct", "split_condition": 1.42982996, "yes": 65, "no": 66, "missing": 66, "children": [{"nodeid": 65, "leaf": -0.263411015}, {"nodeid": 66, "leaf": -0.109093882}]}, {"nodeid": 34, "depth": 5, "split": "selected_pct", "split_condition": 0.146730006, "yes": 67, "no": 68, "missing": 68, "children": [{"nodeid": 67, "leaf": -0.128473103}, {"nodeid": 68, "leaf": -0.04097436}]}]}]}, {"nodeid": 8, "depth": 3, "split": "selected_pct", "split_condition": 5.63403988, "yes": 17, "no": 18, "missing": 18, "children": [{"nodeid": 17, "depth": 4, "split": "selected_pct", "split_condition": 0.0707300007, "yes": 35, "no": 36, "missing": 36, "children": [{"nodeid": 35, "depth": 5, "split": "npxg_per90", "split_condition": 0.0538181812, "yes": 69, "no": 70, "missing": 70, "children": [{"nodeid": 69, "leaf": -0.117769718}, {"nodeid": 70, "leaf": -0.252305001}]}, {"nodeid": 36, "depth": 5, "split": "selected_pct", "split_condition": 3.11328006, "yes": 71, "no": 72, "missing": 72, "children": [{"nodeid": 71, "leaf": -0.0377804153}, {"nodeid": 72, "leaf": -0.159747154}]}]}, {"nodeid": 18, "depth": 4, "split": "clean_sheets_per90", "split_condition": 0.166666672, "yes": 37, "no": 38, "missing": 38, "children": [{"nodeid": 37, "depth": 5, "split": "minutes_per90", "split_condition": 59.25, "yes": 73, "no": 74, "missing": 74, "children": [{"nodeid": 73, "leaf": 0.188083813}, {"nodeid": 74, "leaf": -0.181524962}]}, {"nodeid": 38, "depth": 5, "split": "minutes_per90", "split_condition": 56, "yes": 75, "no": 76, "missing": 76, "children": [{"nodeid": 75, "leaf": 0.0765727609}, {"nodeid": 76, "leaf": 0.585277796}]}]}]}]}, {"nodeid": 4, "depth": 2, "split": "value", "split_condition": 5.4000001, "yes": 9, "no": 10, "missing": 10, "children": [{"nodeid": 9, "depth": 3, "split": "selected_pct", "split_condition": 0.353179991, "yes": 19, "no": 20, "missing": 20, "children": [{"nodeid": 19, "depth": 4, "split": "ict_per90", "split_condition": 3.28952384, "yes": 39, "no": 40, "missing": 40, "children": [{"nodeid": 39, "depth": 5, "split": "xa_per90", "split_condition": 0.0109629631, "yes": 77, "no": 78, "missing": 78, "children": [{"nodeid": 77, "leaf": -0.0359216593}, {"nodeid": 78, "leaf": -0.147314355}]}, {"nodeid": 40, "depth": 5, "split": "assists_per90", "split_condition": 0.13333334, "yes": 79, "no": 80, "missing": 80, "children": [{"nodeid": 79, "leaf": -0.000912111078}, {"nodeid": 80, "leaf": -0.107810639}]}]}, {"nodeid": 20, "depth": 4, "split": "assists_per90", "split_condition": 0.200000003, "yes": 41, "no": 42, "missing": 42, "children": [{"nodeid": 41, "depth": 5, "split": "bps_per90", "split_condition": 11.5333338, "yes": 81, "no": 82, "missing": 82, "children": [{"nodeid": 81, "leaf": 0.0423719026}, {"nodeid": 82, "leaf": -0.0709532201}]}, {"nodeid": 42, "depth": 5, "split": "xa_per90", "split_condition": 0.0503973104, "yes": 83, "no": 84, "missing": 84, "children": [{"nodeid": 83, "leaf": 0.572715104}, {"nodeid": 84, "leaf": 0.0391452722}]}]}]}, {"nodeid": 10, "depth": 3, "split": "ict_per90", "split_condition": 8.46606064, "yes": 21, "no": 22, "missing": 22, "children": [{"nodeid": 21, "depth": 4, "split": "ict_per90", "split_condition": 2.73187184, "yes": 43, "no": 44, "missing": 44, "children": [{"nodeid": 43, "depth": 5, "split": "xa_per90", "split_condition": 0.000988474581, "yes": 85, "no": 86, "missing": 86, "children": [{"nodeid": 85, "leaf": 0.0885292292}, {"nodeid": 86, "leaf": -0.0903434902}]}, {"nodeid": 44, "depth": 5, "split": "value", "split_condition": 7.69999981, "yes": 87, "no": 88, "missing": 88, "children": [{"nodeid": 87, "leaf": 0.151487842}, {"nodeid": 88, "leaf": 0.340908587}]}]}, {"nodeid": 22, "leaf": 0.658020079}]}]}]}, {"nodeid": 2, "depth": 1, "split": "selected_pct", "split_condition": 16.1453991, "yes": 5, "no": 6, "missing": 6, "children": [{"nodeid": 5, "depth": 2, "split": "selected_pct", "split_condition": 0.20194, "yes": 11, "no": 12, "missing": 12, "children": [{"nodeid": 11, "depth": 3, "split": "selected_pct", "split_condition": 0.0956199989, "yes": 23, "no": 24, "missing": 24, "children": [{"nodeid": 23, "depth": 4, "split": "ict_per90", "split_condition": 7.71333313, "yes": 45, "no": 46, "missing": 46, "children": [{"nodeid": 45, "depth": 5, "split": "goals_per90", "split_condition": 0.155844152, "yes": 89, "no": 90, "missing": 90, "children": [{"nodeid": 89, "leaf": -0.188575119}, {"nodeid": 90, "leaf": 0.012254037}]}, {"nodeid": 46, "depth": 5, "split": "selected_pct", "split_condition": 0.0547600016, "yes": 91, "no": 92, "missing": 92, "children": [{"nodeid": 91, "leaf": -0.175382003}, {"nodeid": 92, "leaf": -0.293190211}]}]}, {"nodeid": 24, "depth": 4, "split": "selected_pct", "split_condition": 0.116760001, "yes": 47, "no": 48, "missing": 48, "children": [{"nodeid": 47, "depth": 5, "split": "minutes_per90", "split_condition": 73.5, "yes": 93, "no": 94, "missing": 94, "children": [{"nodeid": 93, "leaf": 0.0940520614}, {"nodeid": 94, "leaf": 0.401386797}]}, {"nodeid": 48, "depth": 5, "split": "value", "split_condition": 5.5, "yes": 95, "no": 96, "missing": 96, "children": [{"nodeid": 95, "leaf": -0.0813036263}, {"nodeid": 96, "leaf": 0.0752859637}]}]}]}, {"nodeid": 12, "depth": 3, "split": "ict_per90", "split_condition": 5.34619045, "yes": 25, "no": 26, "missing": 26, "children": [{"nodeid": 25, "depth": 4, "split": "minutes_per90", "split_condition": 82.4000015, "yes": 49, "no": 50, "missing": 50, "children": [{"nodeid": 49, "depth": 5, "split": "npxg_per90", "split_condition": 0.0205714293, "yes": 97, "no": 98, "missing": 98, "children": [{"nodeid": 97, "leaf": -0.0921421498}, {"nodeid": 98, "leaf": 0.0628498942}]}, {"nodeid": 50, "depth": 5, "split": "value", "split_condition": 7, "yes": 99, "no": 100, "missing": 100, "children": [{"nodeid": 99, "leaf": 0.0912828296}, {"nodeid": 100, "leaf": 0.319563597}]}]}, {"nodeid": 26, "depth": 4, "split": "minutes_per90", "split_condition": 79, "yes": 51, "no": 52, "missing": 52, "children": [{"nodeid": 51, "depth": 5, "split": "value", "split_condition": 5.4000001, "yes": 101, "no": 102, "missing": 102, "children": [{"nodeid": 101, "leaf": 0.0269380566}, {"nodeid": 102, "leaf": 0.187051579}]}, {"nodeid": 52, "depth": 5, "split": "minutes_per90", "split_condition": 80, "yes": 103, "no": 104, "missing": 104, "children": [{"nodeid": 103, "leaf": 0.526365817}, {"nodeid": 104, "leaf": 0.224285886}]}]}]}]}, {"nodeid": 6, "depth": 2, "split": "bps_per90", "split_condition": 24.6275864, "yes": 13, "no": 14, "missing": 14, "children": [{"nodeid": 13, "depth": 3, "split": "xa_per90", "split_condition": 0.123333335, "yes": 27, "no": 28, "missing": 28, "children": [{"nodeid": 27, "depth": 4, "split": "clean_sheets_per90", "split_condition": 0.305744886, "yes": 53, "no": 54, "missing": 54, "children": [{"nodeid": 53, "depth": 5, "split": "value", "split_condition": 10, "yes": 105, "no": 106, "missing": 106, "children": [{"nodeid": 105, "leaf": 0.114381075}, {"nodeid": 106, "leaf": 0.459528059}]}, {"nodeid": 54, "depth": 5, "split": "value", "split_condition": 6.4000001, "yes": 107, "no": 108, "missing": 108, "children": [{"nodeid": 107, "leaf": 0.131731614}, {"nodeid": 108, "leaf": 0.553723752}]}]}, {"nodeid": 28, "depth": 4, "split": "goals_per90", "split_condition": 0.222222224, "yes": 55, "no": 56, "missing": 56, "children": [{"nodeid": 55, "depth": 5, "split": "minutes_per90", "split_condition": 88.1999969, "yes": 109, "no": 110, "missing": 110, "children": [{"nodeid": 109, "leaf": 0.102643095}, {"nodeid": 110, "leaf": 0.761977315}]}, {"nodeid": 56, "depth": 5, "split": "npxg_per90", "split_condition": 0.0689090937, "yes": 111, "no": 112, "missing": 112, "children": [{"nodeid": 111, "leaf": 0.262307018}, {"nodeid": 112, "leaf": 0.691167057}]}]}]}, {"nodeid": 14, "depth": 3, "split": "xa_per90", "split_condition": 0.318597794, "yes": 29, "no": 30, "missing": 30, "children": [{"nodeid": 29, "depth": 4, "split": "minutes_per90", "split_condition": 78.5999985, "yes": 57, "no": 58, "missing": 58, "children": [{"nodeid": 57, "leaf": 0.496276826}, {"nodeid": 58, "depth": 5, "split": "minutes_per90", "split_condition": 83.8000031, "yes": 113, "no": 114, "missing": 114, "children": [{"nodeid": 113, "leaf": -0.0942782313}, {"nodeid": 114, "leaf": 0.294578344}]}]}, {"nodeid": 30, "depth": 4, "split": "npxg_per90", "split_condition": 0.153333336, "yes": 59, "no": 60, "missing": 60, "children": [{"nodeid": 59, "leaf": -0.234808683}, {"nodeid": 60, "leaf": 0.0962995812}]}]}]}]}]}, {"nodeid": 0, "depth": 0, "split": "value", "split_condition": 5.4000001, "yes": 1, "no": 2, "missing": 2, "children": [{"nodeid": 1, "depth": 1, "split": "minutes_per90", "split_condition": 56, "yes": 3, "no": 4, "missing": 4, "children": [{"nodeid": 3, "depth": 2, "split": "value", "split_condition": 4.5999999, "yes": 7, "no": 8, "missing": 8, "children": [{"nodeid": 7, "depth": 3, "split": "xgc_per90", "split_condition": 0.391499996, "yes": 15, "no": 16, "missing": 16, "children": [{"nodeid": 15, "depth": 4, "split": "bps_per90", "split_condition": 36.2975388, "yes": 31, "no": 32, "missing": 32, "children": [{"nodeid": 31, "depth": 5, "split": "ict_per90", "split_condition": 1.61573398, "yes": 63, "no": 64, "missing": 64, "children": [{"nodeid": 63, "leaf": -0.289835632}, {"nodeid": 64, "leaf": -0.0568274371}]}, {"nodeid": 32, "depth": 5, "split": "xa_per90", "split_condition": 0.000988474581, "yes": 65, "no": 66, "missing": 66, "children": [{"nodeid": 65, "leaf": -0.322903216}, {"nodeid": 66, "leaf": -0.175979376}]}]}, {"nodeid": 16, "depth": 4, "split": "xa_per90", "split_condition": 0.598160565, "yes": 33, "no": 34, "missing": 34, "children": [{"nodeid": 33, "depth": 5, "split": "value", "split_condition": 4.19999981, "yes": 67, "no": 68, "missing": 68, "children": [{"nodeid": 67, "leaf": -0.121323802}, {"nodeid": 68, "leaf": -0.261202246}]}, {"nodeid": 34, "depth": 5, "split": "npxg_per90", "split_condition": 0.0336207598, "yes": 69, "no": 70, "missing": 70, "children": [{"nodeid": 69, "leaf": 0.00111067097}, {"nodeid": 70, "leaf": -0.176448137}]}]}]}, {"nodeid": 8, "depth": 3, "split": "form", "split_condition": 1.39999998, "yes": 17, "no": 18, "missing": 18, "children": [{"nodeid": 17, "depth": 4, "split": "value", "split_condition": 5.30000019, "yes": 35, "no": 36, "missing": 36, "children": [{"nodeid": 35, "depth": 5, "split": "value", "split_condition": 5, "yes": 71, "no": 72, "missing": 72, "children": [{"nodeid": 71, "leaf": -0.172789618}, {"nodeid": 72, "leaf": -0.247204453}]}, {"nodeid": 36, "depth": 5, "split": "npxg_per90", "split_condition": 0.00266666664, "yes": 73, "no": 74, "missing": 74, "children": [{"nodeid": 73, "leaf": -0.282802463}, {"nodeid": 74, "leaf": 0.0156655274}]}]}, {"nodeid": 18, "depth": 4, "split": "ict_per90", "split_condition": 4.45927429, "yes": 37, "no": 38, "missing": 38, "children": [{"nodeid": 37, "depth": 5, "split": "xgc_per90", "split_condition": 1.6481539, "yes": 75, "no": 76, "missing": 76, "children": [{"nodeid": 75, "leaf": -0.19661504}, {"nodeid": 76, "leaf": -0.0976423174}]}, {"nodeid": 38, "depth": 5, "split": "avg_fixture_difficulty", "split_condition": 5, "yes": 77, "no": 78, "missing": 78, "children": [{"nodeid": 77, "leaf": -0.0908214524}, {"nodeid": 78, "leaf": 0.069882229}]}]}]}]}, {"nodeid": 4, "depth": 2, "split": "form", "split_condition": 3.66666675, "yes": 9, "no": 10, "missing": 10, "children": [{"nodeid": 9, "depth": 3, "split": "ict_per90", "split_condition": 2.97903943, "yes": 19, "no": 20, "missing": 20, "children": [{"nodeid": 19, "depth": 4, "split": "minutes_per90", "split_condition": 72.8000031, "yes": 39, "no": 40, "missing": 40, "children": [{"nodeid": 39, "depth": 5, "split": "assists_per90", "split_condition": 0.13333334, "yes": 79, "no": 80, "missing": 80, "children": [{"nodeid": 79, "leaf": -0.176414624}, {"nodeid": 80, "leaf": 0.000810350699}]}, {"nodeid": 40, "depth": 5, "split": "xa_per90", "split_condition": 0.00800000038, "yes": 81, "no": 82, "missing": 82, "children": [{"nodeid": 81, "leaf": 0.0196795277}, {"nodeid": 82, "leaf": -0.0919936225}]}]}, {"nodeid": 20, "depth": 4, "split": "xa_per90", "split_condition": 0.0518253967, "yes": 41, "no": 42, "missing": 42, "children": [{"nodeid": 41, "depth": 5, "split": "assists_per90", "split_condition": 0.134831458, "yes": 83, "no": 84, "missing": 84, "children": [{"nodeid": 83, "leaf": -0.00749144936}, {"nodeid": 84, "leaf": 0.124880075}]}, {"nodeid": 42, "depth": 5, "split": "xgc_per90", "split_condition": 1.16250169, "yes": 85, "no": 86, "missing": 86, "children": [{"nodeid": 85, "leaf": -0.164212376}, {"nodeid": 86, "leaf": -0.0310974848}]}]}]}, {"nodeid": 10, "depth": 3, "split": "minutes_per90", "split_condition": 82.5999985, "yes": 21, "no": 22, "missing": 22, "children": [{"nodeid": 21, "depth": 4, "split": "xa_per90", "split_condition": 0.0226666667, "yes": 43, "no": 44, "missing": 44, "children": [{"nodeid": 43, "depth": 5, "split": "xgc_per90", "split_condition": 0.797999978, "yes": 87, "no": 88, "missing": 88, "children": [{"nodeid": 87, "leaf": 0.0451208837}, {"nodeid": 88, "leaf": 0.2582165}]}, {"nodeid": 44, "depth": 5, "split": "xa_per90", "split_condition": 0.0734545439, "yes": 89, "no": 90, "missing": 90, "children": [{"nodeid": 89, "leaf": -0.160459563}, {"nodeid": 90, "leaf": 0.0236993302}]}]}, {"nodeid": 22, "depth": 4, "split": "value", "split_condition": 5.0999999, "yes": 45, "no": 46, "missing": 46, "children": [{"nodeid": 45, "depth": 5, "split": "value", "split_condition": 4.80000019, "yes": 91, "no": 92, "missing": 92, "children": [{"nodeid": 91, "leaf": -0.0654646307}, {"nodeid": 92, "leaf": 0.132111534}]}, {"nodeid": 46, "depth": 5, "split": "assists_per90", "split_condition": 0.134831458, "yes": 93, "no": 94, "missing": 94, "children": [{"nodeid": 93, "leaf": 0.585932255}, {"nodeid": 94, "leaf": 0.22244516}]}]}]}]}]}, {"nodeid": 2, "depth": 1, "split": "minutes_per90", "split_condition": 67.5999985, "yes": 5, "no": 6, "missing": 6, "children": [{"nodeid": 5, "depth": 2, "split": "form", "split_condition": 2.20000005, "yes": 11, "no": 12, "missing": 12, "children": [{"nodeid": 11, "depth": 3, "split": "xa_per90", "split_condition": 0.242818177, "yes": 23, "no": 24, "missing": 24, "children": [{"nodeid": 23, "depth": 4, "split": "ict_per90", "split_condition": 5.75857782, "yes": 47, "no": 48, "missing": 48, "children": [{"nodeid": 47, "depth": 5, "split": "bps_per90", "split_condition": 19.1333332, "yes": 95, "no": 96, "missing": 96, "children": [{"nodeid": 95, "leaf": -0.0847232416}, {"nodeid": 96, "leaf": -0.185257271}]}, {"nodeid": 48, "depth": 5, "split": "bps_per90", "split_condition": 8.80000019, "yes": 97, "no": 98, "missing": 98, "children": [{"nodeid": 97, "leaf": 0.177434847}, {"nodeid": 98, "leaf": -0.0605337024}]}]}, {"nodeid": 24, "depth": 4, "split": "value", "split_condition": 6.19999981, "yes": 49, "no": 50, "missing": 50, "children": [{"nodeid": 49, "depth": 5, "split": "xgc_per90", "split_condition": 1.5971514, "yes": 99, "no": 100, "missing": 100, "children": [{"nodeid": 99, "leaf": -0.380767405}, {"nodeid": 100, "leaf": -0.237301871}]}, {"nodeid": 50, "depth": 5, "split": "value", "split_condition": 6.9000001, "yes": 101, "no": 102, "missing": 102, "children": [{"nodeid": 101, "leaf": -0.0556098819}, {"nodeid": 102, "leaf": -0.305761546}]}]}]}, {"nodeid": 12, "depth": 3, "split": "ict_per90", "split_condition": 5.85821581, "yes": 25, "no": 26, "missing": 26, "children": [{"nodeid": 25, "depth": 4, "split": "npxg_per90", "split_condition": 0.337166667, "yes": 51, "no": 52, "missing": 52, "children": [{"nodeid": 51, "depth": 5, "split": "goals_per90", "split_condition": 0.401990056, "yes": 103, "no": 104, "missing": 104, "children": [{"nodeid": 103, "leaf": -0.0955457017}, {"nodeid": 104, "leaf": 0.205699846}]}, {"nodeid": 52, "leaf": 0.252197236}]}, {"nodeid": 26, "depth": 4, "split": "minutes_per90", "split_condition": 54.2000008, "yes": 53, "no": 54, "missing": 54, "children": [{"nodeid": 53, "depth": 5, "split": "xgc_per90", "split_condition": 0.717954516, "yes": 105, "no": 106, "missing": 106, "children": [{"nodeid": 105, "leaf": -0.0924188122}, {"nodeid": 106, "leaf": 0.113740578}]}, {"nodeid": 54, "depth": 5, "split": "xgc_per90", "split_condition": 1.51016605, "yes": 107, "no": 108, "missing": 108, "children": [{"nodeid": 107, "leaf": 0.264609933}, {"nodeid": 108, "leaf": -0.0435099714}]}]}]}]}, {"nodeid": 6, "depth": 2, "split": "value", "split_condition": 9, "yes": 13, "no": 14, "missing": 14, "children": [{"nodeid": 13, "depth": 3, "split": "ict_per90", "split_condition": 4.37923813, "yes": 27, "no": 28, "missing": 28, "children": [{"nodeid": 27, "depth": 4, "split": "minutes_per90", "split_condition": 80.5999985, "yes": 55, "no": 56, "missing": 56, "children": [{"nodeid": 55, "depth": 5, "split": "bps_per90", "split_condition": 8.80000019, "yes": 109, "no": 110, "missing": 110, "children": [{"nodeid": 109, "leaf": 0.0518957078}, {"nodeid": 110, "leaf": -0.105042748}]}, {"nodeid": 56, "depth": 5, "split": "value", "split_condition": 7.5, "yes": 111, "no": 112, "missing": 112, "children": [{"nodeid": 111, "leaf": 0.154157877}, {"nodeid": 112, "leaf": 0.48476091}]}]}, {"nodeid": 28, "depth": 4, "split": "assists_per90", "split_condition": 0.825136602, "yes": 57, "no": 58, "missing": 58, "children": [{"nodeid": 57, "depth": 5, "split": "ict_per90", "split_condition": 8.0439558, "yes": 113, "no": 114, "missing": 114, "children": [{"nodeid": 113, "leaf": 0.190918848}, {"nodeid": 114, "leaf": 0.314380795}]}, {"nodeid": 58, "depth": 5, "split": "form", "split_condition": 5.33333349, "yes": 115, "no": 116, "missing": 116, "children": [{"nodeid": 115, "leaf": 0.112217166}, {"nodeid": 116, "leaf": -0.371092319}]}]}]}, {"nodeid": 14, "depth": 3, "split": "xgc_per90", "split_condition": 0.949556768, "yes": 29, "no": 30, "missing": 30, "children": [{"nodeid": 29, "depth": 4, "split": "goals_per90", "split_condition": 0.337878793, "yes": 59, "no": 60, "missing": 60, "children": [{"nodeid": 59, "depth": 5, "split": "form", "split_condition": 3.25, "yes": 117, "no": 118, "missing": 118, "children": [{"nodeid": 117, "leaf": 0.230541691}, {"nodeid": 118, "leaf": 0.568862438}]}, {"nodeid": 60, "depth": 5, "split": "npxg_per90", "split_condition": 0.253878802, "yes": 119, "no": 120, "missing": 120, "children": [{"nodeid": 119, "leaf": -0.046067711}, {"nodeid": 120, "leaf": 0.319817454}]}]}, {"nodeid": 30, "depth": 4, "split": "value", "split_condition": 11.6999998, "yes": 61, "no": 62, "missing": 62, "children": [{"nodeid": 61, "depth": 5, "split": "value", "split_condition": 9.80000019, "yes": 121, "no": 122, "missing": 122, "children": [{"nodeid": 121, "leaf": 0.671619892}, {"nodeid": 122, "leaf": 0.176865444}]}, {"nodeid": 62, "depth": 5, "split": "value", "split_condition": 12.8999996, "yes": 123, "no": 124, "missing": 124, "children": [{"nodeid": 123, "leaf": 1.04650962}, {"nodeid": 124, "leaf": 0.645062804}]}]}]}]}]}]}, {"nodeid": 0, "depth": 0, "split": "form", "split_condition": 3.20000005, "yes": 1, "no": 2, "missing": 2, "children": [{"nodeid": 1, "depth": 1, "split": "minutes_per90", "split_condition": 70.5999985, "yes": 3, "no": 4, "missing": 4, "children": [{"nodeid": 3, "depth": 2, "split": "form", "split_condition": 1.60000002, "yes": 7, "no": 8, "missing": 8, "children": [{"nodeid": 7, "depth": 3, "split": "minutes_per90", "split_condition": 11.8000002, "yes": 15, "no": 16, "missing": 16, "children": [{"nodeid": 15, "depth": 4, "split": "xa_per90", "split_condition": 0.0470964722, "yes": 31, "no": 32, "missing": 32, "children": [{"nodeid": 31, "depth": 5, "split": "xgc_per90", "split_condition": 1.16250169, "yes": 63, "no": 64, "missing": 64, "children": [{"nodeid": 63, "leaf": -0.231208727}, {"nodeid": 64, "leaf": -0.306004256}]}, {"nodeid": 32, "depth": 5, "split": "bps_per90", "split_condition": 52.8848495, "yes": 65, "no": 66, "missing": 66, "children": [{"nodeid": 65, "leaf": -0.0823944658}, {"nodeid": 66, "leaf": -0.256251186}]}]}, {"nodeid": 16, "depth": 4, "split": "form", "split_condition": 1, "yes": 33, "no": 34, "missing": 34, "children": [{"nodeid": 33, "depth": 5, "split": "npxg_per90", "split_condition": 0.477499992, "yes": 67, "no": 68, "missing": 68, "children": [{"nodeid": 67, "leaf": -0.211339042}, {"nodeid": 68, "leaf": 0.0239706356}]}, {"nodeid": 34, "depth": 5, "split": "npxg_per90", "split_condition": 0.40200001, "yes": 69, "no": 70, "missing": 70, "children": [{"nodeid": 69, "leaf": -0.127907097}, {"nodeid": 70, "leaf": -0.244302899}]}]}]}, {"nodeid": 8, "depth": 3, "split": "npxg_per90", "split_condition": 0.168952167, "yes": 17, "no": 18, "missing": 18, "children": [{"nodeid": 17, "depth": 4, "split": "xgc_per90", "split_condition": 0.107979313, "yes": 35, "no": 36, "missing": 36, "children": [{"nodeid": 35, "depth": 5, "split": "clean_sheets_per90", "split_condition": 0.260869563, "yes": 71, "no": 72, "missing": 72, "children": [{"nodeid": 71, "leaf": 0.00131207868}, {"nodeid": 72, "leaf": -0.116969578}]}, {"nodeid": 36, "depth": 5, "split": "npxg_per90", "split_condition": 0.00266666664, "yes": 73, "no": 74, "missing": 74, "children": [{"nodeid": 73, "leaf": -0.191920146}, {"nodeid": 74, "leaf": -0.0868063197}]}]}, {"nodeid": 18, "depth": 4, "split": "assists_per90", "split_condition": 0.144578308, "yes": 37, "no": 38, "missing": 38, "children": [{"nodeid": 37, "depth": 5, "split": "goals_per90", "split_condition": 1.71428573, "yes": 75, "no": 76, "missing": 76, "children": [{"nodeid": 75, "leaf": -0.0567359813}, {"nodeid": 76, "leaf": -0.281413138}]}, {"nodeid": 38, "depth": 5, "split": "xgc_per90", "split_condition": 1.20882761, "yes": 77, "no": 78, "missing": 78, "children": [{"nodeid": 77, "leaf": 0.285954118}, {"nodeid": 78, "leaf": -0.0440572761}]}]}]}]}, {"nodeid": 4, "depth": 2, "split": "xa_per90", "split_condition": 0.189572573, "yes": 9, "no": 10, "missing": 10, "children": [{"nodeid": 9, "depth": 3, "split": "xa_per90", "split_condition": 0.00800000038, "yes": 19, "no": 20, "missing": 20, "children": [{"nodeid": 19, "depth": 4, "split": "assists_per90", "split_condition": 0.233766228, "yes": 39, "no": 40, "missing": 40, "children": [{"nodeid": 39, "depth": 5, "split": "bps_per90", "split_condition": 14.5848484, "yes": 79, "no": 80, "missing": 80, "children": [{"nodeid": 79, "leaf": 0.0727456734}, {"nodeid": 80, "leaf": -0.145088837}]}, {"nodeid": 40, "leaf": 0.449577808}]}, {"nodeid": 20, "depth": 4, "split": "npxg_per90", "split_condition": 0.0162666664, "yes": 41, "no": 42, "missing": 42, "children": [{"nodeid": 41, "depth": 5, "split": "xa_per90", "split_condition": 0.0906666666, "yes": 81, "no": 82, "missing": 82, "children": [{"nodeid": 81, "leaf": -0.103602044}, {"nodeid": 82, "leaf": -0.241507173}]}, {"nodeid": 42, "depth": 5, "split": "xa_per90", "split_condition": 0.0367725194, "yes": 83, "no": 84, "missing": 84, "children": [{"nodeid": 83, "leaf": -0.0733601972}, {"nodeid": 84, "leaf": 0.0194138568}]}]}]}, {"nodeid": 10, "depth": 3, "split": "form", "split_condition": 2, "yes": 21, "no": 22, "missing": 22, "children": [{"nodeid": 21, "depth": 4, "split": "minutes_per90", "split_condition": 74.1999969, "yes": 43, "no": 44, "missing": 44, "children": [{"nodeid": 43, "leaf": -0.143185213}, {"nodeid": 44, "leaf": 0.105787985}]}, {"nodeid": 22, "depth": 4, "split": "bps_per90", "split_condition": 12.2793541, "yes": 45, "no": 46, "missing": 46, "children": [{"nodeid": 45, "depth": 5, "split": "assists_per90", "split_condition": 0.13333334, "yes": 85, "no": 86, "missing": 86, "children": [{"nodeid": 85, "leaf": 0.788129091}, {"nodeid": 86, "leaf": 0.231320843}]}, {"nodeid": 46, "depth": 5, "split": "xa_per90", "split_condition": 0.270481706, "yes": 87, "no": 88, "missing": 88, "children": [{"nodeid": 87, "leaf": 0.0726749972}, {"nodeid": 88, "leaf": 0.287355751}]}]}]}]}]}, {"nodeid": 2, "depth": 1, "split": "minutes_per90", "split_condition": 70.8000031, "yes": 5, "no": 6, "missing": 6, "children": [{"nodeid": 5, "depth": 2, "split": "minutes_per90", "split_condition": 37.5999985, "yes": 11, "no": 12, "missing": 12, "children": [{"nodeid": 11, "depth": 3, "split": "xgc_per90", "split_condition": 1.16999996, "yes": 23, "no": 24, "missing": 24, "children": [{"nodeid": 23, "depth": 4, "split": "xgc_per90", "split_condition": 0.540311694, "yes": 47, "no": 48, "missing": 48, "children": [{"nodeid": 47, "depth": 5, "split": "bps_per90", "split_condition": 59.4445877, "yes": 89, "no": 90, "missing": 90, "children": [{"nodeid": 89, "leaf": -0.240732342}, {"nodeid": 90, "leaf": -0.0669184104}]}, {"nodeid": 48, "leaf": -0.296576977}]}, {"nodeid": 24, "depth": 4, "split": "bps_per90", "split_condition": 33.6985588, "yes": 49, "no": 50, "missing": 50, "children": [{"nodeid": 49, "leaf": 0.11252027}, {"nodeid": 50, "depth": 5, "split": "goals_per90", "split_condition": 1.41176474, "yes": 91, "no": 92, "missing": 92, "children": [{"nodeid": 91, "leaf": -0.239484191}, {"nodeid": 92, "leaf": -0.002545889}]}]}]}, {"nodeid": 12, "depth": 3, "split": "xgc_per90", "split_condition": 1.53201497, "yes": 25, "no": 26, "missing": 26, "children": [{"nodeid": 25, "depth": 4, "split": "npxg_per90", "split_condition": 0.0305342861, "yes": 51, "no": 52, "missing": 52, "children": [{"nodeid": 51, "depth": 5, "split": "minutes_per90", "split_condition": 60.5999985, "yes": 93, "no": 94, "missing": 94, "children": [{"nodeid": 93, "leaf": -0.0941191167}, {"nodeid": 94, "leaf": 0.0682518631}]}, {"nodeid": 52, "depth": 5, "split": "bonus_per90", "split_condition": 0.833766222, "yes": 95, "no": 96, "missing": 96, "children": [{"nodeid": 95, "leaf": 0.104170792}, {"nodeid": 96, "leaf": 0.353207678}]}]}, {"nodeid": 26, "depth": 4, "split": "npxg_per90", "split_condition": 0.391430974, "yes": 53, "no": 54, "missing": 54, "children": [{"nodeid": 53, "depth": 5, "split": "xa_per90", "split_condition": 0.0257874522, "yes": 97, "no": 98, "missing": 98, "children": [{"nodeid": 97, "leaf": 0.0918205082}, {"nodeid": 98, "leaf": -0.0928216204}]}, {"nodeid": 54, "depth": 5, "split": "bonus_per90", "split_condition": 0.272727281, "yes": 99, "no": 100, "missing": 100, "children": [{"nodeid": 99, "leaf": 0.280698091}, {"nodeid": 100, "leaf": 0.0100610713}]}]}]}]}, {"nodeid": 6, "depth": 2, "split": "xa_per90", "split_condition": 0.102823853, "yes": 13, "no": 14, "missing": 14, "children": [{"nodeid": 13, "depth": 3, "split": "assists_per90", "split_condition": 0.424561411, "yes": 27, "no": 28, "missing": 28, "children": [{"nodeid": 27, "depth": 4, "split": "xgc_per90", "split_condition": 1.61748004, "yes": 55, "no": 56, "missing": 56, "children": [{"nodeid": 55, "depth": 5, "split": "clean_sheets_per90", "split_condition": 0.800000012, "yes": 101, "no": 102, "missing": 102, "children": [{"nodeid": 101, "leaf": 0.132710189}, {"nodeid": 102, "leaf": -0.303570122}]}, {"nodeid": 56, "depth": 5, "split": "npxg_per90", "split_condition": 0.429469705, "yes": 103, "no": 104, "missing": 104, "children": [{"nodeid": 103, "leaf": -0.0667518079}, {"nodeid": 104, "leaf": 0.291655868}]}]}, {"nodeid": 28, "depth": 4, "split": "xgc_per90", "split_condition": 0.556752384, "yes": 57, "no": 58, "missing": 58, "children": [{"nodeid": 57, "depth": 5, "split": "assists_per90", "split_condition": 0.825136602, "yes": 105, "no": 106, "missing": 106, "children": [{"nodeid": 105, "leaf": 0.526903331}, {"nodeid": 106, "leaf": 0.0282446183}]}, {"nodeid": 58, "depth": 5, "split": "avg_fixture_difficulty", "split_condition": 3, "yes": 107, "no": 108, "missing": 108, "children": [{"nodeid": 107, "leaf": 0.326797813}, {"nodeid": 108, "leaf": -0.0356054977}]}]}]}, {"nodeid": 14, "depth": 3, "split": "assists_per90", "split_condition": 0.649999976, "yes": 29, "no": 30, "missing": 30, "children": [{"nodeid": 29, "depth": 4, "split": "form", "split_condition": 4.66666651, "yes": 59, "no": 60, "missing": 60, "children": [{"nodeid": 59, "depth": 5, "split": "clean_sheets_per90", "split_condition": 0.13333334, "yes": 109, "no": 110, "missing": 110, "children": [{"nodeid": 109, "leaf": 0.0438755341}, {"nodeid": 110, "leaf": 0.241330549}]}, {"nodeid": 60, "depth": 5, "split": "bps_per90", "split_condition": 23.4275856, "yes": 111, "no": 112, "missing": 112, "children": [{"nodeid": 111, "leaf": 0.393543839}, {"nodeid": 112, "leaf": 0.182538658}]}]}, {"nodeid": 30, "depth": 4, "split": "goals_per90", "split_condition": 0.230769232, "yes": 61, "no": 62, "missing": 62, "children": [{"nodeid": 61, "depth": 5, "split": "npxg_per90", "split_condition": 0.0853333324, "yes": 113, "no": 114, "missing": 114, "children": [{"nodeid": 113, "leaf": -0.0128019797}, {"nodeid": 114, "leaf": -0.278015405}]}, {"nodeid": 62, "depth": 5, "split": "is_penalty_taker", "split_condition": 1, "yes": 115, "no": 116, "missing": 116, "children": [{"nodeid": 115, "leaf": 0.305438489}, {"nodeid": 116, "leaf": -0.216329008}]}]}]}]}]}]}, {"nodeid": 0, "depth": 0, "split": "selected_pct", "split_condition": 1.07046998, "yes": 1, "no": 2, "missing": 2, "children": [{"nodeid": 1, "depth": 1, "split": "minutes_per90", "split_condition": 55, "yes": 